2708 128
163 -0.002680011 0.068458304 0.26366356 0.13548762 0.23553023 0.041156624 -0.18719658 -0.24846098 -0.1682532 0.013410048 -0.15823765 0.14576595 -0.18457398 -0.11462844 0.048827946 -0.43802062 -0.040723052 -0.041070033 0.08103766 -0.062478457 0.22097842 -0.26075202 -0.096921824 -0.47133663 0.47967562 0.11826347 -0.1276716 -0.37724948 0.01485105 -0.17831402 -0.087650105 0.11479485 -0.11646579 -0.20615973 -0.07051449 0.078205846 -0.21554334 0.44332555 -0.2578432 -0.3632663 -0.12223261 0.14963898 0.08550599 0.17138535 -0.50165075 -0.109815136 -0.13281807 -0.30809715 0.03824347 0.08506274 -0.010765599 0.15985844 0.3756848 0.10948983 0.23333247 -0.122898564 0.4213376 0.045946024 -0.031035481 0.034854755 0.15853454 -0.40077507 0.111580774 -0.04316276 0.008463859 -0.006645727 -0.07517368 0.20794833 -0.20654854 -0.13756545 0.092836164 -0.17967272 -0.36583096 -0.20887294 0.23452567 0.07894048 -0.28068185 0.28886157 -0.4552653 0.13767199 -0.13588344 0.039672714 -0.02015821 0.58524364 0.28677896 -0.18285583 0.037171103 -0.025552636 0.41407663 0.27220076 0.36360583 0.3364995 -0.12331816 0.18303055 -0.11378644 0.17012165 -0.11278997 -0.037564646 -0.37186494 0.13085666 -0.14776127 0.017994795 0.03466403 -0.36036608 0.22736073 -0.07840237 -0.37176192 -0.0022660727 -0.05373979 0.29474065 0.088489726 0.5565565 0.22968145 -0.09788339 0.01807827 0.31210795 -0.11198607 0.2124096 -0.5160696 0.22291167 0.038523868 0.10735351 0.087420315 -0.18621308 -0.029802166 0.018700432 0.30121106 0.08183533
747 0.45433748 0.12730965 0.5664465 -0.10624717 -0.32749632 0.08026152 -0.06823469 -0.034941193 -0.16281906 0.058394752 -0.035068914 -0.08284457 0.12067045 -0.3823613 -0.18328598 0.12813728 0.08852509 -0.4990619 0.43616098 0.20004155 -0.06275614 0.3729015 0.4902892 -0.25649327 0.20842738 -0.015082456 0.05891073 0.085624635 -0.47378114 -0.09894746 -0.22289272 -0.17860262 0.2924521 0.0178498 -0.24689643 0.112112544 -0.16588302 0.21640852 -0.119201854 0.28377214 0.32964218 0.45409983 0.18122561 -0.3849066 -0.23480521 0.115365945 -0.08938718 0.20249067 0.023666564 -0.11201721 0.26054576 0.10764973 -0.5621484 -0.24490266 0.18698321 0.04892094 0.35874057 0.18305229 0.17525537 0.33412933 0.07548075 0.11673876 0.15578313 -0.7279481 0.12031136 0.047980566 0.3200495 -0.055842698 0.27369672 0.3067525 0.30296943 -0.33819747 -0.08562469 -0.588099 -0.14320526 0.06807559 -0.06298267 -0.35547945 -0.044784307 0.358665 -0.32019258 -0.29391512 0.36970437 0.19495417 0.28814834 -0.03500612 0.030874234 -0.20226455 0.510143 0.20351258 0.102084614 0.69034547 -0.22884297 -0.16312592 0.20677723 -0.3278739 -0.27788696 0.73658425 0.02844243 0.07593459 -0.4233616 -0.079624385 -0.18314305 -0.19717692 0.20028774 -0.24946804 0.035882007 0.27705115 -0.11318304 0.27763778 0.36845803 -0.227325 -0.28017056 0.18733178 -0.028289808 0.5703964 -0.10901874 -0.44159198 -0.1394699 -0.17856385 0.0936249 -0.30822372 0.37058827 -0.052862715 -0.23963664 -0.18004653 0.072729334 -0.08879066
565 0.41720268 0.39821768 0.06973412 0.016486129 0.093455546 0.25804424 0.107869156 0.034850024 -0.052743513 0.04714751 -0.44437608 -0.5299252 0.21614027 -0.008771177 0.59362435 -0.011033085 -0.11107658 -0.09386145 0.2826834 0.06270516 0.20538491 0.164836 0.4892947 -0.24517824 -0.0749609 -0.261756 -0.1505903 0.26042303 -0.1951571 -0.21610026 0.19189988 0.34314102 0.34111068 0.0056249723 -0.17366295 0.29306474 -0.29558322 0.13490246 -0.22571637 -0.07516123 0.39145914 0.3178852 0.3362227 0.22906716 -0.45430255 -0.15371743 0.060483214 0.26032126 -0.07366302 0.35161301 -0.33282703 0.19306931 0.039065473 -0.29501167 0.42967677 -0.1064847 -0.15763676 -0.030231081 0.44928327 -0.1280746 -0.22548725 -0.37536663 0.025257763 -0.50369704 -0.10816118 0.39008895 0.31654945 -0.09585821 0.17158735 -0.46753553 -0.39756638 -0.08394261 -0.2804912 0.01241446 -0.028845882 0.018235402 0.060585763 0.33796355 -0.08500421 -0.33578458 -0.08617168 0.023665328 0.49588567 0.45639956 -0.08751803 -0.37775218 0.5566492 -0.2579066 0.10518789 -0.07185941 -0.13654485 0.2731738 0.11931709 0.06315849 0.13901596 -0.1200731 0.14614914 0.30712098 -0.16873552 -0.1531704 -0.28979674 -0.43660307 -0.07693771 0.23390047 0.15719995 -0.2524101 0.49643725 0.18970874 0.08302856 0.038191546 0.039937492 0.15638548 0.29951113 0.035380714 0.103429854 0.1881672 0.02298334 -0.27814683 -0.24171863 0.23967217 -0.1165427 0.14235833 -0.04058418 -0.14324217 0.008045717 -0.044888083 -0.22426672 0.18430072
427 0.62995654 -0.04687864 0.13324697 -0.06285768 -0.29369465 0.31721258 0.10103178 -0.3372999 -0.073052995 0.091550216 -0.020964742 0.12276518 0.17151757 -0.7845499 -0.008994917 -0.35650438 -0.4719762 -0.41658226 0.36664432 0.12184465 -0.66322416 0.15849058 -0.050754577 -0.4603286 0.21941626 0.040132936 0.16193509 -0.17615584 -0.25250822 0.03522718 -0.14278717 -0.0068241544 -0.087715596 -0.11595684 -0.19036424 -0.21311206 -0.0017932068 0.062289022 -0.1805738 -0.45249826 0.5541281 -0.1320951 0.15701182 -0.06496307 -0.4088027 -0.059355613 -0.09824165 0.044478126 0.011696138 0.028200224 0.018125733 0.31891143 -0.59208876 0.16544212 0.13760814 0.3730678 0.077262014 -0.028401943 0.64410913 0.013490862 0.087569885 0.018469032 -0.18871854 -0.5911635 0.21539807 0.3466074 0.34224132 -0.21053338 0.04386349 0.1930517 0.04246256 0.10235124 0.11382463 -0.11064079 0.2819176 -0.11480743 0.37110373 0.09785298 0.109394334 0.15405132 -0.50675595 0.24180727 -0.07432585 0.5065 -0.034544494 -0.015780427 -0.007769728 0.043811113 0.109901026 0.20740077 -0.13252644 0.14348498 0.088123076 -0.2507183 -0.1259873 -0.20518734 0.028468722 -0.065661214 -0.09698865 0.19345029 -0.0987909 -0.4903944 0.07109688 0.246067 -0.0046069343 0.06026559 -0.14152959 0.08949197 0.37118092 0.1361557 0.30803865 -0.20965679 -0.088297024 -0.112974115 -0.03496617 0.34753442 0.015463862 0.13517898 -0.30470845 -0.14039953 0.13053827 -0.4905056 -0.023480257 -0.15070228 0.09127817 -0.6085143 0.40286446 0.27341053
611 0.097662866 -0.77596366 0.19283551 -0.25442082 -0.13026533 -0.28928718 0.13181241 0.3686499 0.34858435 -0.68925154 0.28212968 -0.41635847 0.010793633 -0.20258015 0.34534293 0.051466998 -0.0070370343 -0.4229687 0.42081195 -0.05351657 -0.52593726 0.30417284 -0.1061136 0.0073240716 -0.28976455 -0.18639523 0.18591684 0.2180271 0.30225515 0.1335523 -0.2848715 -0.2085606 0.08913507 0.29450417 -0.07081785 -0.22823481 -0.48463705 0.01702378 -0.0447273 0.09577238 -0.07971541 0.5293741 -0.016729366 -0.14984283 0.104880884 -0.23162903 -0.33542833 0.34036347 -0.80392915 -0.077037536 -0.12821083 0.09267357 -0.37392905 -0.09911377 0.35917228 0.18130995 0.06124958 0.012138511 -0.04960924 0.023671702 -0.113155745 -0.42721865 0.16753809 -0.6161811 0.28947353 0.28199753 0.22982028 0.15992817 0.33540693 0.2681588 -0.17861216 -0.3032652 -0.37810344 -0.21755414 0.26272273 -0.09181653 0.15899527 -0.08057998 -0.49096075 -0.04774619 -0.5468738 0.12399237 0.4475175 0.4587377 -0.46629977 -0.15537329 0.27386189 -0.31357607 0.049985755 0.149767 0.34743595 0.19928008 -0.4000621 -0.25527218 -0.3045071 -0.4391528 0.12597522 0.60365474 -0.33109942 0.05861552 0.2993601 0.13850538 -0.1377844 0.03138014 0.24371293 -0.6720134 -0.15264522 -0.3011367 0.0717409 -0.12840286 0.22866602 0.30247185 -0.023912257 -0.13904497 -0.21769975 0.18238531 -0.22917712 -0.15681003 -0.5130471 0.21451883 -0.059682313 0.055406116 0.112543225 0.011520087 -0.6685454 0.27648482 0.27463514 -0.45720947
74 -0.11349623 -0.041167278 0.33082926 -0.38066316 0.23309322 -0.3912429 0.638021 0.2500192 -0.41018718 -0.28320578 0.1747408 -0.22234866 0.19624698 -0.19985245 -0.38946187 -0.25195163 0.26407558 -0.014320004 0.37029734 -0.26973367 -0.102066554 0.6480072 0.47257832 -0.08903008 -0.6215661 -0.121152416 -0.10215417 0.051426686 -0.07775093 -0.35590383 0.03708428 -0.708011 -0.36933154 -0.1069237 -0.49336833 0.06338596 -0.2772552 0.10809262 -0.14103964 -0.25572705 -0.16876175 0.14605102 0.38234058 0.20666938 -0.11988007 -0.52347827 -0.13030602 -0.12916806 -0.07033379 -0.56404746 -0.35401228 -0.03607217 -0.08734333 -0.1867197 0.43608734 0.17851228 -0.2963958 -0.2295851 0.3930889 0.36272225 -0.14863467 0.051602475 -0.2913076 -0.45670918 0.4263905 0.049087025 -0.03116236 0.10481988 -0.04572521 -0.16398655 -0.20285347 -0.2450658 -0.2955746 -0.39433226 0.20886177 0.080928594 -0.04419352 -0.3546965 -0.015312309 0.073552825 -0.6456579 0.006244358 0.56869364 0.22111651 -0.21326508 0.2529088 -0.09848023 -0.13672234 0.26648116 0.4881683 0.25291717 0.2772207 0.10478466 -0.17790149 -0.053088006 -0.55803204 -0.29967788 0.34870398 0.09162465 -0.41226792 -0.18891934 -0.017964048 -0.3389906 0.35389358 0.16624631 -0.037246913 -0.43793416 0.3750943 -0.24424236 -0.20798938 -0.18268996 -0.16778094 0.18701576 -0.12694193 0.18647088 -0.035352547 0.33314982 0.23287787 -0.529997 0.36511064 -0.52866584 0.013071465 -0.053555943 -0.4411708 0.16896632 -0.42112646 -0.0025010349 -0.6004499
552 -0.0080870325 0.2399511 0.25683692 -0.07018119 0.31712854 0.13799186 0.17610027 0.14340013 -0.23575877 0.09897384 -0.22686008 -0.40800205 0.32605615 0.315213 0.4009762 -0.264934 -0.21036215 0.19110331 0.011220605 -0.27981946 0.27491906 0.35700107 0.49163154 -0.40084526 -0.081598766 -0.06699355 0.5611245 -0.05006817 -0.1394089 -0.15878138 0.45268923 -0.0066732713 0.39626965 0.09837973 -0.40211612 0.16830935 -0.27628028 -0.32645354 -0.02377234 -0.10125967 -0.08766166 0.13830797 -0.11836026 -0.2788238 -0.56540376 -0.16688865 -0.071675174 -0.14477248 -0.30260906 0.10643228 -0.051778995 -0.17391327 -0.13025759 -0.25739405 0.42647314 0.10826535 0.089820914 0.20957127 0.21629193 0.19559506 -0.0017791421 -0.11758389 -0.0900675 -0.87035364 -0.029312696 0.0012164813 0.34883335 0.18083414 0.09797384 -0.46698934 -0.9469922 -0.18532276 -0.0651135 0.44726864 -0.004396896 -0.39776227 -0.243278 0.42462578 0.064047694 -0.25396 -0.27135572 -0.2796289 -0.03541604 0.74655807 -0.09459754 -0.49339607 0.54044074 0.05256416 -0.007859128 -0.19922468 0.5035391 0.49373838 -0.30705282 0.47298667 -0.26249617 -0.42729887 0.35014987 0.6147698 0.104998566 0.14517605 -0.35655525 -0.22607386 -0.27043736 0.3845569 0.11592772 -0.057371136 0.35689858 0.42638108 0.4714418 -0.022047158 -0.024307737 0.2395644 0.33943638 0.11228764 0.14236297 0.23650397 -0.22570616 -0.43683386 -0.1370737 -0.05519571 -0.044988804 0.2293314 -0.36633366 -0.15772416 0.020186195 0.09502122 -0.31018022 -0.08035269
430 -0.022608066 -0.2666044 -0.1506145 -0.35926175 0.4881696 -0.30812204 0.40279752 -0.0034336012 0.052274812 -0.060447767 0.013053516 0.39150408 -0.1938663 -0.4321222 0.0838544 -0.43203574 -0.21459505 -0.9958633 0.024420207 -0.13241836 0.17735183 0.24322616 0.36051 0.3490573 -0.28117743 -0.094428405 -0.38061357 0.57713157 -0.030322546 0.10325472 -0.3577154 0.13679665 0.41119027 -0.306071 0.11317283 -0.2529147 -0.2207838 -0.16650167 0.0073644635 0.26723596 -0.1605968 0.035377797 -0.5641554 0.45072535 -0.38421786 -0.25332198 0.16827454 -0.64264494 -0.32732815 -0.0071718693 -0.45527455 0.013729705 0.35938752 -0.13520446 0.720408 -0.2144457 0.35278267 0.07262017 0.22955765 0.3790876 0.5474167 0.55576795 -0.52419937 -0.59200835 -0.037193943 0.4468143 -0.12014612 0.34822527 -0.1595779 0.36952767 0.30235308 -0.7471522 0.16248988 0.4166828 0.17688969 -0.21698675 0.2577536 0.42643154 -0.5926289 -0.082990244 -0.51384246 0.09922023 0.16725263 0.014736489 0.14201662 -0.12628385 -0.017713293 -0.33637413 0.2269147 0.17103113 0.37426496 -0.38270253 -0.1587238 -0.0066614966 0.07415794 0.05956063 -0.24664384 -0.05641397 0.20217752 0.50654715 -0.048593193 0.1453775 -0.11264998 -0.13581619 0.45609134 0.01731354 -0.15586337 0.12286342 -0.18109637 -0.14343925 -0.05847297 -0.0508936 0.051969815 -0.1979949 -0.16775525 0.082610056 -0.3526179 0.3704546 -0.1997674 -0.17344847 0.03631668 -0.026977133 -0.4909321 -0.13837516 0.17566247 -0.22315931 0.21836348 0.3603369
745 0.36241445 0.27251542 0.26918748 0.21614087 -0.66018504 -0.055742234 -0.0067122416 0.025755264 -0.2131206 -0.18879594 0.32019636 -0.112535566 -0.13707733 -0.28442198 -0.39973554 -0.0457754 0.2535112 -0.38592196 -0.16738695 0.17911367 -0.1275404 0.055507835 0.45364192 -0.8525568 0.40037885 0.003038661 -0.6975727 -0.46197292 -0.12823331 -0.1382858 -0.11811887 -0.25303617 0.52086395 0.036195554 0.17658257 0.04688374 -0.15460102 0.029275304 -0.1614737 -0.10809506 0.074825756 0.112880535 0.307756 -0.5715005 -0.02672269 -0.36158684 0.4149957 0.18444794 -0.70865536 -0.07632234 0.11615509 0.29239932 -0.55573344 0.5055825 0.43476582 0.01554668 -0.12372829 0.4379434 0.56628466 -0.2892147 0.042075083 -0.08931979 -0.07907068 -0.29150888 -0.00017955387 0.46487984 0.36934325 0.3985293 0.15962404 0.28955203 0.5234478 0.08514399 0.17148715 -0.38339972 0.17904568 0.16493998 0.2841015 -0.030093778 -0.39603716 0.3798394 -0.6679415 0.1502113 0.3713496 0.39661014 -0.022968607 -0.2439717 0.1514736 0.1151878 0.4059291 0.061217155 0.40625325 -0.36215684 -0.6865588 -0.09423565 -0.14607434 -0.68465906 0.058035057 0.40071067 0.16836697 -0.29124793 -0.26890266 -0.18075514 -0.15580776 0.11468679 0.33936253 -0.3310839 -0.31163016 0.013556074 0.2732854 0.22532697 0.3234907 -0.22956519 -0.2774675 -0.105336934 0.26186618 0.666466 -0.010967855 -0.36069563 -0.08297376 -0.31007174 0.34861907 0.1626622 0.119092874 0.31267163 -0.14911059 0.10418727 -0.1447865 -0.32422876
638 0.27468345 0.49088934 0.17633574 -0.22239092 -0.13687707 -0.0061423127 0.24216345 -0.15638822 0.23742731 0.13889079 0.27256846 -0.010917905 -0.5447942 -0.19633837 -0.18391094 0.35237944 -0.21375875 -0.3146245 0.19517829 -0.21111171 0.6958663 0.27447587 0.37499857 0.32038563 0.10983031 -0.26298714 0.08680535 -0.31411293 0.034106363 -0.20649652 0.39439628 -0.0060986606 0.37205523 -0.38165244 -0.050601624 0.12054667 -0.51187414 -0.30612397 0.70971996 0.2440579 -0.08511006 0.35894215 0.17107256 0.2218435 -0.77518725 -0.08693435 -0.2597593 -0.49689862 0.21095918 -0.13205849 -0.45931113 0.019168386 -0.0074814027 0.14476787 -0.079837434 -0.32072064 0.39451286 0.07957083 0.1844982 0.34588298 -0.37581214 -0.092280164 -0.3020075 -0.534544 0.27804273 0.2766358 0.51593095 -0.2743851 -0.23437953 -0.022871165 0.3102171 -0.046483383 -0.54893196 0.21808478 0.100727685 -0.42010853 0.10082944 -0.014332262 0.21675974 0.27348608 -0.31800935 -0.24753161 0.48097682 0.09645464 0.1919223 -0.39060783 -0.13304506 -0.2232325 -0.4531599 -0.031928096 0.1959711 -0.66865414 -0.0027114 0.05656388 0.03942418 0.059330136 0.28627965 0.12058047 -0.25129887 0.4071868 -0.1837955 -0.11026327 0.26732564 -0.31560865 0.027917918 -0.6451041 -0.15396608 -0.4929835 -0.14616132 0.3976501 0.12806654 -0.08918983 0.029472763 -0.002258898 0.52486366 -0.052682083 -0.27030835 -0.18591985 -0.20945123 0.53988737 0.22719884 -0.12391327 -0.48700663 -0.2543709 0.20491219 -0.19844218 0.26948154 0.27496943
157 0.93062204 -0.19613263 -0.47714335 -0.507566 -0.020750698 -0.3959501 0.28724518 0.29363906 -0.03459265 -0.019248785 -0.49009618 -0.13176115 0.016687343 -0.42467305 -0.13179763 -0.15865941 -0.06924137 -0.19832748 -0.013497392 0.40550554 -0.32004347 0.4037816 -0.38549015 -0.021480978 -0.4616455 -0.2503437 0.4175659 -0.32661954 0.37323755 0.12903169 -0.21577854 -0.2807614 0.04785588 0.381612 -0.11736542 -0.38703337 -0.6614593 -0.38141808 0.32669675 0.04787303 0.05328651 0.52903306 -0.32646435 -0.4254539 -0.17015365 0.27068508 0.1732398 -0.32434455 0.15019585 -0.30474144 -0.49452442 0.1842551 -0.14024775 0.019894892 0.58722675 0.43893328 0.23969015 -0.17408913 0.05889059 -0.26879853 0.08041419 -0.8023798 0.12626626 -0.30771875 0.18369444 0.22621046 0.11542203 0.59612006 0.31461373 -0.33709222 -0.054890607 -0.18985891 0.15154508 -0.35425332 0.16906318 -0.01504437 0.3517314 -0.37076652 -0.56883 -0.24922895 -0.0922669 -0.54957616 0.3431009 -0.07396948 -0.32606384 -0.0019891886 0.04275774 -0.078264855 -0.45774892 0.5729822 -0.19426113 -0.11948304 -0.5652546 0.34205806 0.033611562 -0.06867074 -0.01853306 0.22907944 0.032896355 0.59638804 -0.013603222 -0.028308392 -0.7023802 0.0347534 0.38313848 -0.0904142 0.04305571 0.12695304 -0.22674091 -0.015934303 0.33926588 0.02831439 -0.25911912 -0.32822126 -0.37114307 -0.17064495 -0.40154436 0.2949774 -0.57980865 -0.07911671 -0.05312585 0.10084386 0.18546034 -0.038037818 -0.33181766 -0.75262666 0.3250699 -0.080453165
294 0.4198755 0.31525797 -0.095401384 -0.3050418 0.23852511 0.22329117 0.014276858 -0.13484535 -0.06286232 -0.1507422 -0.27918923 -0.6303562 0.71339464 -0.104473 0.119264744 -0.36515865 0.08160291 0.22928622 0.38026267 -0.1053721 0.2885998 0.2984994 0.46370387 -0.10117287 0.062112857 0.31172004 -0.24362811 0.26003087 -0.18107939 0.13648549 -0.054008793 0.14361188 0.30535823 -0.0022230833 0.08439041 0.12784246 -0.34245634 -0.2968329 -0.027778914 -0.38349664 0.15545359 0.31784695 0.47401157 0.21861245 -0.6766675 -0.015706753 -0.028383713 -0.45834577 -0.34039456 0.043808408 -0.14770092 0.1301452 -0.4907871 0.04431621 -0.24063899 -0.2731364 0.45827636 -0.10202804 0.05371568 -0.20540324 0.034771133 0.047442373 0.022041805 -0.8222917 -0.13314962 -0.03465413 0.79666394 0.067320056 0.59553945 -0.029072601 0.06874494 -0.31319097 -0.556107 -0.022821786 -0.121537864 -0.32850292 -0.27404767 0.038815506 -0.23768735 -0.07191325 0.12874673 -0.26017666 0.3987706 0.73309934 0.12363549 -0.48342252 -0.057082098 -0.49052688 0.21991141 0.20575511 0.27415228 0.5743558 -0.39182416 0.34667194 0.17778513 -0.19630362 -0.0054264525 0.4088415 0.1871566 0.13342476 -0.2062201 0.0628848 -0.38359463 -0.0741202 0.14920194 -0.2859881 0.2534295 -0.38597056 0.10115115 -0.5455236 0.3701766 -0.066247866 0.031719327 0.18326743 -0.060964193 0.24035026 -0.23119386 -0.1611767 -0.26731074 0.1689469 0.38367248 -0.32968003 -0.14496614 -0.22885953 -0.22774771 0.16576776 -0.5467155 0.23448975
344 0.15953708 0.17122033 -0.261029 0.01059847 0.31329787 -0.8657122 -0.10511398 -0.27475175 0.2477172 0.5796223 -0.3515681 -0.15521014 -0.13928427 -0.5662244 -0.22067256 0.09684908 -0.15646571 -0.4037794 -0.7436783 -0.15836255 0.3096121 0.45922938 0.8925951 0.10064499 0.3935767 0.13219684 0.41880706 -0.17520066 -0.15038812 -0.3362343 0.1041697 -0.1535986 0.36400455 -0.41926995 -0.6558896 0.44500816 0.52466804 -0.5949419 -0.109147795 -0.62415034 -0.05624063 -0.0055123023 0.10443311 0.21488705 0.0016766634 0.028296372 -0.17375065 -0.6266689 -0.15190004 -0.04463869 -0.24953444 0.40714288 0.10672552 0.018255256 -0.10281852 0.47536722 -0.39084443 0.38289213 -0.3568594 0.3900268 -0.23248602 -0.25315773 -0.014757006 -0.11474534 0.030739043 0.48623484 -0.12058782 -0.12887102 -0.10354323 -0.105969146 -0.16044001 0.4423932 -0.42354178 -0.05968804 0.053118266 -0.79393667 0.14218739 -0.26378304 -0.13102105 -0.27113587 -0.79366344 0.19150849 0.38373607 -0.1668376 -0.041279305 -0.032634594 0.42402038 -0.1499896 -0.06438741 -0.18529102 0.3926225 -0.33157632 -0.06520397 0.109847315 0.83913463 0.3151416 0.4111862 0.04102161 -0.24535951 0.060381364 -0.39779446 0.028678268 0.69442934 -0.15194485 0.87467605 -0.38678038 -0.1446623 -0.055873334 -0.13033552 0.3599512 -0.27869684 0.03152609 -0.2171144 0.0035187418 -0.22137807 0.25655112 0.21399829 -0.26695096 -0.506871 -0.18568674 -0.027535502 -0.0084500015 -0.29493245 0.11746426 0.09832081 -0.0958867 0.18233377 0.009845509
566 0.21250977 0.17099504 0.37841237 -0.1960454 0.12251071 -0.28465432 0.09402255 -0.03712826 -0.09326717 0.2580473 -0.23336686 -0.08889576 0.41047075 -0.0808667 0.4987833 -0.27892798 -0.3837632 0.1653653 0.23996085 0.067365326 0.2257259 -0.06458028 0.52480227 -0.42850393 0.20951042 0.28210753 0.06505916 0.0741458 -0.006582349 -0.29173794 0.29512686 0.4332551 0.17505817 -0.07251632 -0.016218329 0.25596616 0.036496066 -0.030345855 0.33346537 -0.38471574 0.11392317 0.41660187 0.050490033 0.0736316 -0.31920585 0.03352734 0.41174755 -0.093810275 -0.080764756 0.2028553 -0.4365481 -0.36688527 -0.3654144 -0.16369215 0.27238756 -0.07009731 0.09859474 0.06184936 -0.0005838249 0.028818334 0.13129857 -0.21124807 0.3501063 -0.96898323 -0.052038446 -0.101430126 0.17891094 0.4928179 0.2281132 0.31442773 -0.37222964 0.11987008 -0.5084843 -0.3644466 -0.109661944 -0.055457048 -0.038854394 0.19261031 -0.0423172 -0.07964665 0.11979079 -0.33712724 0.08742026 0.6641477 -0.05923762 -0.7880271 -0.26956788 -0.2751678 0.07400225 0.52613235 0.3119277 0.3484792 0.04143662 0.13909306 0.121694416 -0.11156917 0.22252537 0.4337735 -0.30827066 -0.2973363 -0.14002723 0.13591161 0.09094256 0.44557527 0.10152785 -0.114488505 0.054137714 -0.28435415 0.46028936 0.069854826 0.24760103 -0.16888931 0.10966322 0.45720658 -0.078229934 0.3324014 0.015075083 -0.036997356 -0.24054049 0.019838277 -0.38456902 -0.20904873 -0.17263417 0.3691517 0.033691432 0.14623135 -0.21239482 0.5670046
523 0.5086115 0.41165048 0.10408963 -0.22689997 0.49282628 0.57614625 0.20867479 0.032150045 -0.051171504 0.15867795 0.26822707 -0.13619041 -0.20646739 -0.00092099496 0.5359486 0.12168484 -0.15346585 0.005393714 -0.13938056 0.05863971 0.13383716 -0.20658542 0.111068636 -0.20634642 -0.39733246 0.044560246 -0.11574154 0.03857293 0.061876066 -0.21003011 0.048882112 0.42109987 0.058443062 -0.021277593 -0.01893056 0.30009544 0.04032127 0.17707114 0.074206926 -0.25416234 0.06466586 0.31533757 0.3159643 0.21506473 -0.20631549 -0.03675668 0.09836795 -0.35130486 -0.075564526 0.7649882 -0.25401276 0.4205904 0.4751183 -0.35907373 0.3450854 -0.037267398 -0.114152834 0.45432672 0.25608528 -0.016318707 0.34215677 -0.32727373 0.23817828 0.0041459696 0.15127519 0.5091831 -0.017293666 -0.081665024 0.25347573 -0.17053099 -0.22375679 -0.038856264 -0.30557603 0.12728292 0.28802937 -0.24126685 0.14913774 0.08145664 -0.038814068 -0.3495768 0.047824726 0.3310521 0.061040394 0.20088057 0.031779885 -0.0077132913 0.33904725 -0.55313414 0.34503418 0.20272706 0.08020997 0.24681684 0.3214775 0.060955256 0.7126252 -0.46977305 -0.2118839 0.22241917 -0.47299263 0.09183305 -0.2960004 -0.24200381 -0.5505776 0.013559865 -0.17541528 0.14468981 0.012394004 0.18857141 -0.057566945 0.39234045 0.24741964 0.1188158 0.38468403 -0.5096205 0.10663952 0.54601574 -0.27625856 -0.17318682 -0.25496474 0.3320472 -0.15942007 -0.37996158 0.2034071 -0.1937282 -0.032210436 0.10360809 -0.35932642 -0.1381364
576 0.63744503 0.28723764 0.19516078 0.45844963 -0.3743662 -0.17438813 -0.16690093 0.31746626 -0.31915537 -0.0009904435 0.09549734 0.39738402 -0.0108635845 0.12956451 -0.24886923 0.2590447 -0.0033934421 -0.13860105 0.112367116 0.11855288 0.18643656 0.7364492 0.1741113 -0.098640844 0.038728975 0.34359065 -0.5118609 -0.5459451 -0.7746052 -0.32298595 -0.11123129 0.15985426 0.3386583 0.14321598 -0.34481937 -0.04706289 -0.6864402 0.2865554 0.33290842 -0.1308655 0.17647688 0.17309803 -0.38218454 0.029833946 -0.26922524 -0.13352391 -0.1382143 0.14930356 -0.29133177 -0.050856277 -0.45966423 0.7974555 -0.34352747 -0.5663536 -0.09505312 0.15078993 0.8222362 0.26721376 0.28583187 0.4624846 0.23618695 0.15284327 -0.1333942 -0.35456607 0.09412531 0.2691442 -0.3559414 0.5420022 -0.21930732 0.28234142 0.31464294 -0.0494164 0.7709111 0.2160438 -0.2595935 -0.13867627 0.19474222 -0.76680017 -0.47474614 -0.4121334 -0.13029855 -0.2880026 -0.095683776 0.17628498 -0.57446045 -0.14317049 0.38214493 0.42843983 0.29858157 0.06305824 0.36993 0.13654976 -0.42664713 0.37705925 -0.26440686 -0.8093663 0.3151351 0.36540052 -0.28237042 -0.20252931 0.27076417 -0.4890079 -0.11601421 -0.7088317 0.09700886 -0.9745215 -0.078124255 0.084401876 -0.08203052 0.0065969396 0.13620065 -0.35593164 -0.1798257 0.14401507 -0.29040778 1.2055279 -0.08796339 0.06887256 -0.4672036 0.5695261 0.43618396 -0.2647778 0.45220616 0.2274926 0.3830303 -0.90930814 -0.1841372 -0.15313424
1354 0.34537262 0.026889252 -0.013364367 -0.3129379 0.22155699 0.31709638 -0.22044207 0.17957042 -0.17389816 -0.3935886 0.052746784 0.2496868 -0.39349827 0.22977306 -0.06458928 -0.4119703 0.70210934 -0.23522918 0.21588099 0.69488263 -0.4011864 -0.12210281 0.06255581 -0.10132557 -0.2797156 -0.14407662 -0.24983558 0.5841231 -0.5095956 -0.62464 -0.24921381 0.016931428 -0.0033646817 -0.04980894 0.5881645 0.57769877 -0.010494648 -0.6711892 0.33255386 -0.5954772 0.31295553 -0.425737 -0.09248417 -0.20175356 -0.13285457 0.6793421 0.10078867 -0.9064258 -0.34982353 -0.30505744 -0.16852298 0.47284672 0.05016222 -0.2737398 0.17774408 -0.8272417 -0.6484744 0.3109925 0.07484279 0.4921633 0.15639417 0.057928737 0.04545576 0.00080147147 1.0818564 0.1701583 -0.43649873 0.19222611 -0.32566655 0.25594467 -0.49196112 -0.042020567 -0.24221146 0.21278326 -0.107318826 -0.08249759 0.40168747 -0.28507173 0.24862073 0.6898466 -0.16506201 -0.3406683 0.2720346 -0.00011323214 -0.33881682 0.32239458 0.6945345 -0.9083779 0.16774622 -0.06714537 0.058523495 0.7114415 0.13579758 0.79678744 0.17386138 -0.43042192 0.5439798 0.24766192 -0.597042 0.07104194 -0.29541987 -0.41841558 0.507613 -0.4991469 0.6724846 0.018389486 -0.2519409 -0.17233421 0.22156751 0.17063908 -0.13807067 0.74879056 0.028894687 0.4732612 -0.210199 0.05805585 -0.23805085 -0.41742268 -0.6067236 -0.12903771 -0.0060769846 -0.57518286 -0.86720204 0.53291804 0.3432889 -0.20558299 0.16333634 0.14700715
378 0.5417997 0.31797785 -0.12516633 -0.340638 -0.1998367 -0.25108242 -0.50245416 0.17072695 0.2891037 -0.08248276 -0.03762866 -0.24689806 0.051911972 0.04934897 0.20306496 -0.3542575 -0.10964612 -0.71454865 0.23470299 0.3185971 0.120343946 0.23781759 0.1381476 -0.21022023 -0.040388778 -0.4535341 0.029822942 0.12831421 0.6379276 -0.38173828 -0.19460045 0.030644102 0.6125963 -0.20593485 0.021894034 -0.24069183 -0.31506857 0.08068681 -0.22429578 0.07029427 -0.5383912 0.12720077 0.050129175 -0.17871526 -0.05684444 0.01818213 -0.013620363 -0.7889385 0.6855885 0.5076702 0.25425363 0.14147307 -0.19156045 -0.2623419 -0.0037648561 0.62193257 0.39925513 -0.010194087 0.060480893 0.3453021 0.22055288 0.08412479 -0.16292922 0.43652013 0.09386359 0.09131992 -0.06319694 0.1659146 -0.25527018 -0.050185498 0.37316746 -0.3427265 -0.15333274 0.22993158 -0.24974461 -0.66992664 -0.13390112 0.18742214 0.14163831 -0.26368693 -0.4837257 -0.41671222 0.48564664 0.39844474 -0.03839768 -0.4926134 0.3225634 -0.08249352 -0.17775209 -0.14481688 -0.09271363 0.53846115 0.937293 0.09840736 0.28706032 0.24716683 0.4171745 -0.027161637 -0.2800414 -0.27446198 0.18571897 0.22198686 -0.07269428 -0.17469919 0.8891558 0.17068031 -0.3927155 -0.30767938 -0.04969241 0.027149247 -0.4797813 -0.016105836 -0.07018473 -0.0049229087 -0.24188799 -0.009547106 -0.33147725 0.091242634 -0.5983207 -0.041442893 0.20619372 -0.06776518 -0.5048579 -0.13222189 0.6151176 -0.22556648 0.042169172 -0.034638625
453 -0.16086203 0.54775566 -0.4789418 0.10590654 -0.5014265 -0.53639567 -0.1719217 -0.21925995 -0.28426132 0.26372617 0.0467177 -0.1698993 0.35806048 -0.26542884 -0.9027377 0.06884983 -0.10249305 -0.3940374 0.196835 -0.12313427 0.16366772 0.012493086 -0.4400199 0.32993007 0.09552071 -0.15812261 -0.2062671 -0.29083288 0.17198673 0.15015015 0.61930126 0.45437232 0.23034148 0.17916128 -0.31830758 0.612952 0.05980177 0.1759385 0.56536454 -0.37108213 0.17412241 0.35822275 -0.5080687 -0.47911876 -0.59171903 0.27940524 -0.7116844 0.056743298 0.17384225 0.14544186 -0.29274416 0.03296111 0.54956305 -0.3140082 0.06450801 0.031132765 0.2852343 0.4520879 0.7513475 0.09883258 -0.5735415 -0.1843806 -0.08431872 -0.22981288 0.035958245 0.038627066 -0.03308981 -0.08394086 0.30425566 0.12421121 -0.1858772 0.104018725 0.19963938 -0.12945503 0.18475632 -0.31123364 0.30669963 -0.22339883 -0.3506225 0.40877596 0.14593586 0.112675406 0.48570198 0.43526843 -0.21637462 -0.10083331 0.341828 -0.32696715 -0.42084524 -0.016760224 0.015533592 -0.20575483 -0.20702448 0.22340725 0.05138462 -0.40558904 0.32332858 0.32242006 -0.4255178 -0.27287552 -0.43277258 0.40056378 0.13096264 -0.5900052 1.1820476 0.75611293 -0.15475278 -0.25199845 0.14797957 -0.19260952 -0.42408103 0.39687324 0.12039921 -0.045495 -0.16577284 0.03389103 0.4457007 0.4533719 -0.34463927 -0.28168288 0.10840791 0.024390338 -0.7166589 -0.55589586 -0.53463024 -0.7018845 -0.0946401 -0.5099449
793 0.039530423 0.1729579 0.44953954 0.006256432 0.37967637 0.26435748 -0.41872144 -0.20757389 -0.07150328 0.21944739 -0.15562157 0.21583782 -0.4285729 -0.09245629 0.017170468 -0.7454644 0.06204443 -0.7890534 0.47458535 0.086744376 0.25264946 0.31622905 -0.16338575 -0.31705785 0.17754792 -0.20452526 -0.05135364 -0.278827 0.3219434 -0.41133967 -0.5137324 0.29120895 0.22264905 -0.364872 0.09951317 0.5473957 -0.15094003 0.707819 -0.30798438 -0.24566491 -0.13935798 0.62444675 -0.042009186 0.26366526 -0.91233057 0.35813853 -0.0709277 -0.7221874 -0.093588464 -0.058323935 -0.06926486 0.29109883 0.5761775 -0.34178823 -0.12511301 0.009831235 0.33286467 0.6417389 -0.16171749 0.0407618 0.055504367 -0.16602835 -0.27742067 -0.05290746 -0.06978801 -0.18078744 -0.3411253 0.042124897 0.05412586 0.13875957 -0.014894223 0.34340838 -0.14881547 -0.009554722 0.1207784 -0.03136784 0.24347381 -0.061822448 -0.6152315 0.42779619 0.08892955 0.3059533 -0.2704325 0.6767074 -0.059901167 -0.25501004 -0.048636213 0.1659793 0.25431955 0.10315443 0.5570933 0.3155414 -0.73571503 0.17904812 -0.35823116 0.48557243 -0.008016266 0.384695 -0.4415162 0.22013678 0.1870754 -0.10467206 -0.37285766 0.11671697 0.29776275 0.21906988 -0.3672877 0.1951022 0.043878473 0.51912516 0.14209029 0.8062847 0.49570087 -0.06009197 -0.0051036603 0.15839888 -0.59773505 0.38089398 -0.33206198 0.43336695 -0.43918836 0.24185601 0.45745182 0.12152602 0.2676381 0.37455064 0.32355323 -0.036748018
1644 0.30029476 0.6813558 0.1627133 -0.16274524 -0.38304234 0.0037503722 -0.06567717 -0.49307972 -3.5226494e-06 0.032789584 -0.21131378 0.23242773 0.2818714 0.049164906 0.0036244767 -0.1938945 0.30715385 -0.5587736 0.31951463 -0.42122042 0.42081827 0.048435915 -0.08660219 0.39442223 -0.2783284 -0.528834 -0.7670846 0.17344873 0.21782674 -0.00509091 0.016138371 0.4262354 0.2093846 -0.38930878 -0.36970344 0.13103798 -0.5872845 -0.25357145 0.038475025 -0.20121892 -0.72062904 -0.46776223 0.41770512 0.13722001 -0.5711356 -0.24146438 -0.10109702 -0.35489833 0.22663726 -0.074531846 0.14269501 0.09331711 -0.40098834 0.1242926 0.4849301 0.17169243 -0.37870446 -0.18581401 -0.14138621 0.8277578 -0.22982062 -0.014057746 0.320815 0.040929403 0.41348332 0.24779192 -0.14651626 -0.13229784 -0.0141684795 -0.21108621 0.038968023 -0.15952241 -0.054725528 -0.001443899 0.1128099 -0.23703346 0.09579058 -0.28763163 -0.0460181 0.11735618 -0.28889713 -0.12997027 0.1564658 0.12088045 -0.4510743 -0.57323474 -0.4908071 -0.6598355 -0.5028435 -0.55840814 -0.17294568 0.15194033 0.009933191 -0.08458472 -0.40662524 0.32172677 0.00094627123 -0.007836163 -0.30472466 -0.018839499 -0.26752096 0.15747012 -0.11286971 -0.20702569 0.575582 -0.011989627 0.046074457 -0.6040858 0.2047104 0.7520625 0.031076964 -0.115102015 0.34558678 -0.3762158 -0.3498626 0.41238946 -0.13662176 -0.21104287 -0.8593894 0.18486519 -0.16986933 0.2870863 -0.42144185 0.05594603 0.1131135 -0.23952608 0.33082995 -0.33756393
635 -0.021192579 0.11027674 -0.5448733 0.009417608 0.57884187 0.077800184 0.24556698 0.15436472 -0.25635892 -0.22098266 0.037435155 0.04658922 -0.72886735 -0.33826864 -0.345436 -0.12225815 -0.29158875 -0.7313928 0.06487424 -0.1589763 0.33587173 -0.21822572 0.76645374 0.6437869 -0.09930643 -0.44942832 -0.3507203 0.082991585 -0.31375766 -0.040118705 0.20784657 0.19208582 0.4109252 -0.6437258 -0.044494107 -0.4686671 -0.43737167 -0.43653777 0.2888566 -0.011445427 -0.14385575 -0.39582846 -0.7301848 0.48730102 -0.33677077 0.17492984 -0.52217275 -0.15574177 -0.122967385 0.17117335 -0.04032975 -0.08368719 0.25920567 -0.0071956385 0.48632726 -0.19188996 0.27535418 -0.15836044 0.21873741 0.34123528 0.84848505 0.8547953 -0.40351516 -0.59955263 -0.08430813 0.39834097 -0.12636481 0.14242624 -0.087121524 0.32021278 -0.3281346 -0.40855795 -0.20523731 0.17461382 0.14241755 -0.35130677 -0.2209656 -0.032555558 -0.03302687 -0.3901848 -0.33711442 0.1492568 0.44526607 0.6139929 0.2874226 -0.25217193 0.17164749 0.23029417 -0.053063814 0.4101475 0.21604489 -0.7974931 -0.25757924 0.24512474 0.3075077 -0.074206695 -0.46735606 -0.3819813 -0.37697035 0.5132604 -0.6122813 -0.25971916 0.18647245 -0.16853477 0.7201158 -0.2520525 -0.22278583 0.061098956 -0.0371948 0.0009327853 -0.12098418 -0.09993736 -0.1480614 0.06920998 -0.17558026 -0.39525342 -0.65277785 0.30410844 0.021824062 0.20216703 0.24039781 0.13973635 -0.35781807 -0.0645753 -0.34610185 -0.10824145 0.1938365 -0.20066866
672 0.101612814 0.39847857 -0.7246118 0.34588557 -0.4877903 -0.3104101 -0.19577606 0.011164759 0.1496207 0.12515965 0.13550334 -0.15127353 -0.078824915 -0.32045487 -0.14561954 0.014970961 -0.049861573 -0.08537132 -0.06900889 -0.34771526 0.15247275 0.23909673 -0.3288287 0.108515404 -0.06619233 -0.5237286 -0.20349969 -0.08822128 0.60724974 0.23476687 -0.16031224 -0.2843421 0.18943478 -0.27823284 -0.32938865 0.34118477 -0.16295902 -0.35034963 0.03896378 -0.27992794 0.20469882 0.21040243 -0.4955506 0.08270382 -0.67136604 0.55928504 -0.805791 -0.08604308 0.2858133 0.15070812 -0.40274027 -0.024797766 0.093168184 -0.10332971 0.30943277 -0.25992352 -0.18724248 0.50172436 1.0858656 0.018165756 -0.09220822 -0.061647207 -0.035269227 -0.38983816 -0.17573255 -0.22924799 -0.38181385 0.16095354 0.09743464 0.22499146 -0.063666575 0.29491475 -0.30798468 -0.43907356 -0.18390974 -0.28784612 0.35714057 -0.37995464 -0.15977618 -0.4804975 -0.005560801 0.11156718 0.41812834 0.48070997 0.089617655 0.12417625 -0.1465539 -0.11109439 0.063849874 -0.304518 0.41097364 -0.14718552 0.5757503 0.26369074 -0.12048595 -0.1086912 0.29650033 0.01723055 0.12968744 0.20432779 0.37500384 -0.12202426 -0.32459155 0.54493326 0.5121425 0.2561219 -0.79709005 -0.14867191 0.12284152 0.30360776 -0.49951023 0.4845997 0.11645587 0.07681679 -0.67489624 0.26977268 -0.2071798 0.08776206 -0.3129937 0.20420037 0.34037867 -0.18467627 -0.2656368 0.047097024 -0.73402774 -0.16654289 -0.072719194 -0.27790204
109 0.06319839 0.48901334 -0.6082445 0.2588275 0.049481988 -0.11541885 -0.034487654 0.15095636 0.16376956 0.41505358 -0.07516965 0.30433255 -0.5084079 -0.29013723 -0.47069812 -0.3648559 -0.73774374 -0.34281486 0.29607353 -0.289226 -0.09808251 0.16127506 0.7330082 0.5005599 -0.3181224 -1.053244 -0.4849962 -0.054644965 0.7700463 0.021242283 0.11038309 -0.045082193 0.30899054 -0.48322365 -0.24376254 -0.18626322 -0.42859444 -0.18800555 0.32652354 -0.28273803 0.07040574 -0.49013883 -0.50873893 -0.21230534 -0.53814304 0.78502107 -1.0474099 0.2036934 -0.40005842 0.0036328926 -0.271607 0.23692606 -0.024964228 -0.24111038 0.22388947 -0.36442074 0.19058952 0.29424775 0.59252006 -0.4735012 0.18124399 0.0040987553 -0.0035880706 -0.024632249 0.14389275 -0.020582223 -0.4008615 0.73767406 -0.1672912 -0.022579394 -0.3311354 0.21028018 0.024328807 -0.13265401 -0.43835738 -0.0783782 -0.06111829 -0.368256 -0.5524479 0.22926512 0.23094667 0.053605255 0.7944721 0.58095306 0.13037771 -0.39887854 0.20846462 -0.14800967 -0.1515487 -0.10164883 -0.027380336 -0.4243891 -0.21058072 0.13243748 0.15001778 -0.37912267 -0.12028331 -0.15385038 -0.12312544 0.21919914 0.120097786 -0.31418347 0.14876875 0.24782239 0.4242527 -0.060196508 -0.2063775 0.49008366 0.1607018 0.4496129 -0.07145201 0.32719293 -0.10437899 0.11737681 0.13042016 -0.33833355 -0.46825522 -0.09753447 -0.6504086 -0.15072423 0.098723255 0.13346839 -0.34008548 0.08372151 -0.68161124 -0.22488472 0.048793856 0.034706984
910 0.48773453 0.586361 -0.27452064 0.13839729 -0.7243857 -0.08033069 0.19206114 -0.45587406 -0.1547335 -0.14059536 -0.2357887 0.0068988726 -0.11766098 -0.14918403 0.51118654 -0.2349333 -0.29766718 0.2860424 0.20732896 -0.018999957 0.06406162 0.39889586 0.010194996 -0.011466448 0.11826912 0.21522245 -0.20736511 -0.21971473 -0.1839945 -0.24591626 0.1751302 -0.10545707 0.20287378 0.06914614 0.3867012 0.061624646 -0.13326383 -0.27971864 -0.3744464 0.24249305 0.4959037 -0.107868 0.24608135 0.23573524 -0.16108103 -0.3526001 -0.6864404 -0.14983645 -0.32987085 0.1745339 -0.5225225 0.75042486 0.55502963 -0.18746461 0.75067997 -0.10215322 0.15536839 0.271068 0.24816608 0.0008778109 0.22012685 -0.19716108 0.26793253 0.03376509 0.27838936 0.58077306 -0.09668534 0.19799721 -0.23920336 -0.124952786 -0.19599448 0.057914265 -0.53185636 0.04687403 0.18426599 0.22505908 -0.63084173 0.4176148 -0.4054666 -0.10666564 0.29553655 0.52037746 -0.011759245 0.27254727 -0.008831679 -1.0903078 0.015723825 -0.07049928 0.31363592 0.40026665 0.17204441 0.57717955 0.14024033 0.2502095 0.8737024 0.1313441 -0.5746063 0.7020755 -0.26743752 0.06932466 0.13950278 -0.27523896 -0.33903322 0.1477687 -0.13994546 -0.2507674 -0.483224 0.020322384 -0.005499135 0.48736602 0.010970643 0.33386377 0.4323133 0.051084504 0.3697814 0.2731161 -0.35640922 0.066379786 -0.49893153 0.14536797 -0.58066684 0.20406954 0.13825327 -0.116507255 -0.018615933 -0.103949256 -0.22309788 -0.09767258
136 0.30989617 -0.32840547 -0.13705344 -0.47413573 -0.3991043 -0.4135233 -0.093510225 0.00041140808 0.22306423 -0.11785821 -0.15755714 -0.08744964 -0.61139524 0.1282517 -0.65684223 -0.5209848 0.19594347 0.26679513 0.05274331 -0.28802112 0.37201574 0.19118722 0.527085 0.13090965 -0.31770435 -0.09362096 -0.52067524 0.22551386 -0.25379676 -0.005522605 -0.38113093 0.69377047 0.62559146 -0.22762848 0.16660291 0.009263381 -0.58755344 -0.28250453 0.4410126 -0.4810225 0.96956784 -0.3082115 -0.61834496 0.38368517 -0.38037363 -0.23077413 -0.23580074 -0.3627182 0.42084914 0.1914972 -0.44105157 -0.21669632 -0.45165336 -0.4536727 0.38497302 0.25821885 -0.18916267 -0.285438 -0.30451375 0.97827435 0.122470565 -0.4048677 -0.35939488 -0.696238 0.25441658 0.354806 0.2003802 -0.7681184 -0.20464575 -0.4949316 0.38424635 0.0707269 -0.14800552 0.09601493 -0.44892806 -0.7068398 0.18867026 0.19089447 -0.64638686 0.3161532 0.013167318 -0.27947754 0.1472306 0.21006964 0.09312385 -0.34723035 0.66753024 -0.5016282 0.20276365 -0.24709989 -0.0873394 -0.17591213 -0.04911194 0.13302466 0.13620903 -0.031009918 0.17163567 0.41680157 -0.3048522 -0.23148075 -0.012499029 -0.0064087226 0.10603552 -0.07258756 0.19599663 -0.39728612 0.1767171 0.34424993 0.608545 0.18217082 -0.40272248 0.16296013 -0.100572795 -0.7287718 -0.1262835 -0.16947512 -0.13122018 0.03364502 -0.37671745 0.28428492 -0.5110573 -0.10420419 -0.4656404 -0.033053417 0.002742346 0.31618398 -0.11234325 -0.086302325
14 0.09567263 0.0771709 0.13988572 0.069786526 -0.12686203 -0.37237746 0.513474 0.04140317 -0.5488542 -0.13314638 0.0040120366 -0.5253659 0.55387443 -0.39028364 0.5565448 -0.16062696 -0.41907585 -0.20232455 0.6554938 0.21908015 0.11333077 -0.22847484 -0.6341288 0.048070844 -0.66375494 -0.22301832 0.33614093 -0.23316836 -0.32432392 0.416447 0.092340514 0.3624534 -0.21967082 0.38692713 0.13064058 0.7063917 -1.1380225 0.20704906 -0.10962669 -0.38454035 0.23635884 0.027663048 -0.32606196 -0.34435084 0.07636816 0.22493786 -0.14377181 -0.77419376 -0.25370157 -0.8406277 0.18779124 -0.23482643 -0.060314763 -0.03582534 0.47715092 0.38808167 0.27348328 0.057486434 0.5510988 -0.15483487 -0.107533865 -0.4033567 -0.16317782 -0.82003015 0.25943655 0.6297089 -0.3080265 0.7598256 0.020023935 -0.21078153 0.36201492 0.111597694 -0.38664505 -0.092418104 -0.08790548 -0.4322999 0.42951235 -0.969365 -0.03165183 0.39765516 -0.6323617 0.1393952 0.060792763 0.8072942 0.39589807 -0.3864168 -0.13986315 0.20723137 -0.71693575 -0.53732145 -0.31084913 -0.1189162 -0.22420497 0.59136754 0.6210166 -0.76378244 0.0026359705 -0.052526735 -0.036340628 -0.13219859 0.013786971 0.42376092 0.061113276 0.25061885 0.6535003 0.24038176 -0.18168661 0.28817213 0.55369157 0.1960655 -0.7159623 0.38661912 -0.15115047 0.047743488 -0.7595242 -0.05336693 -0.5058223 0.06335239 0.45794284 0.365616 0.23784156 0.17213246 0.13432816 -0.18321057 0.35940605 0.056354173 0.60154164 0.034693394
1328 0.63115853 0.7922145 0.155485 -0.2618878 -0.30643648 -0.67450625 0.04630146 0.16534393 -0.4399817 -0.01616323 -0.3999982 0.05930736 -0.17200413 -0.135785 0.12471189 -0.8983543 -0.08367793 -0.4910263 0.17820476 -0.7285057 0.037174616 0.6181401 0.033094767 0.101562165 -0.10515559 -0.27870095 -0.66828954 0.3521003 -0.03365725 0.39324424 -0.022693813 -0.2181049 -0.11221345 -0.24986915 -0.2711453 0.09562334 -0.47461703 -0.16719516 -0.041458033 -0.56520176 -0.29111332 0.16450347 -0.05590552 -0.11277368 0.26622507 -0.005511226 -0.35055935 -1.0585572 0.13132034 -0.23173343 -0.24388409 0.03178958 -0.4592036 -0.09637776 1.0449047 -0.20333005 0.41539845 -0.35638046 -0.31123942 0.74407107 -0.008783721 0.14777218 -0.016477745 -0.4825573 0.44787478 0.24713588 -0.4080291 0.28815478 -0.05761817 0.011776279 -0.22616373 -0.4067868 -0.31780887 0.48880523 0.089480475 -0.5979254 0.70289826 -0.19213039 -0.3235642 -0.12457593 -0.7107548 -0.17743811 -0.4941229 0.43299088 -0.39671525 -0.35046953 -0.26389548 -0.33920234 0.25313035 -0.37560955 -0.46135038 -0.8471395 0.024841785 0.13752721 0.3472667 0.5149142 -0.015526856 0.08668583 -0.6718198 -0.5024772 -0.17771713 0.0041501685 -0.0071730334 0.062451277 -0.40007856 0.3443079 -0.13195768 -0.39593482 0.15185815 0.48699844 -0.0629754 0.06620412 0.25770932 -0.034649882 -0.793589 -0.11557946 -0.35328537 0.03833232 -0.2376512 -0.21766673 0.11511806 -0.2762055 -0.42066318 0.05513971 0.034846157 0.31007728 -0.24853207 -0.037534844
1527 -0.16359286 0.10906226 -0.108227275 -0.29484078 -0.48882538 0.2383876 0.041999895 1.1390591 0.5181006 0.02306364 0.22492243 -0.31322986 0.5413055 -0.123382345 0.116460465 -0.43807673 -0.6938315 0.28652644 -0.5708377 -0.15914586 -0.21462509 0.1607892 0.33496395 0.101570345 -0.1363733 -0.022045312 0.21803263 0.06267716 0.05731462 0.2550099 -0.15960084 0.24820943 -0.32628104 0.4069915 -0.2106989 0.45116737 -0.47932607 -0.286706 0.14369683 0.07804345 0.07834492 0.47207665 0.32465863 -0.20608175 -0.18611757 0.44388857 -0.094323605 -0.60238206 0.42727104 -0.30253848 -0.32614392 0.30727884 -0.307677 -0.53289956 0.39884844 0.023955062 0.40860474 0.30409873 -0.2987962 0.55124134 -0.006116681 0.23491032 -0.28184262 -0.70222825 0.13700281 -0.46208403 -0.39323354 0.36624312 -0.035240322 0.51937973 -0.40265068 -0.5029874 -0.54638135 0.037384156 0.5933139 0.18306804 0.46876174 0.43821692 -0.13428019 0.07582787 -0.31140968 0.63770497 -0.10494399 0.17763412 -0.07041882 -0.4335077 -0.038975324 -0.056859814 0.14395806 0.0015185807 -0.83685243 0.0059466087 0.35848063 0.30583346 0.119857006 -0.39295134 0.18211995 0.66388065 -0.14687288 0.0607042 -0.39475378 -0.093689516 0.52297616 -0.37107372 0.7865595 -0.08335657 -0.039211947 0.15577962 0.32497406 0.11908959 0.3766298 -0.43160594 -0.28461432 -0.27951995 0.305581 0.14626789 0.35341287 -0.074014865 -0.9809704 0.3931303 0.22828096 0.7755475 0.41169798 0.47652978 -0.10738696 -0.2447215 -0.47275367 0.3082699
570 1.1002886 0.366554 -0.23403205 0.4326207 -0.32614237 -0.57857025 0.20075752 0.0076297964 -0.077084824 0.09826138 0.28641054 0.40976632 -0.58129287 0.04696151 -0.2902166 -0.14538021 0.14889352 0.21431684 0.035452668 0.48455557 0.453694 0.6905369 -0.13505076 0.027833275 -0.1937237 0.740682 -0.53526074 -0.5275093 -0.7316826 -0.7393499 0.11960648 0.10999837 0.08963138 0.4436087 -0.62456524 0.34842423 -0.85391754 0.279695 0.37783152 0.054602236 0.25007352 0.32179937 -0.41725835 0.7542304 -0.28453457 0.011663422 -0.3199887 0.41197744 -0.78965527 -0.28476664 -0.3464942 0.55766386 -0.7860002 -0.58720547 0.15074687 0.34508422 0.8593045 0.3466612 0.028273985 0.5773269 0.13009812 0.14928779 0.28131542 -0.78514206 0.31666327 0.2794622 -0.10352856 0.91782844 -0.09164737 0.1866679 0.23368625 0.17632353 0.64469624 0.41783008 -0.28442785 -0.05392035 0.14110276 -1.0443873 -0.2250843 -0.57662666 -0.09053833 0.14023875 -0.2564778 0.042651113 -0.112367846 0.121770665 0.5300636 0.5450086 0.040257886 -0.013468816 0.5601711 0.27249572 -0.44245481 0.25887442 -0.41967592 -0.5311352 0.36776266 0.46119922 -0.5432178 -0.15164502 0.22040191 -0.4056319 -0.07468426 -0.7454373 0.18863954 -0.7741359 -0.05930084 0.10002305 0.090683326 0.5795291 -0.09650578 -0.2986201 -0.028533047 0.1864903 -0.2899339 0.6823712 0.15197757 0.44902202 -1.0008528 0.56159836 0.54495525 -0.20114373 0.47115222 0.5664169 0.0803201 -0.9146846 -0.053273667 -0.051288966
1240 0.3706959 -0.16317321 -0.38389078 -0.4176589 -0.03181776 0.2825341 0.43317538 0.13212281 0.0063083256 0.7408625 -0.11828784 0.034969367 0.55915606 -0.17104751 -0.43078533 -0.612255 -0.24100392 -0.16250885 -0.17866367 -0.2759033 -0.067982174 0.2046731 0.29765603 -0.30669698 -0.765843 0.10667098 0.6319596 -0.23778234 0.20310007 -0.25237727 -0.41974902 -0.73653656 -0.30660754 0.7965658 -0.09692033 -0.37455848 -0.8522114 -0.13793989 -0.077978335 -0.16847311 0.3992303 0.2799714 -0.32589722 -0.010307191 -0.24205774 0.007888359 0.43100587 -0.029852476 0.27211112 -0.21848777 -0.336806 -0.21613845 -0.0015131421 0.082142 0.15484858 -0.059836432 -0.28768423 0.02986451 -0.092481054 0.70635384 -0.37581342 0.40467712 -0.068635486 -0.4851696 0.026533652 -0.27240726 -0.51303715 0.48069546 -0.25836053 0.37952793 -0.27248994 0.2412224 -0.7855097 0.4527613 0.4392963 0.55083203 0.20267771 0.18695538 0.033312883 -0.18721355 -0.6186214 0.30248296 0.41282475 0.2877666 0.07585676 -0.17817976 -0.03021077 0.20402299 -0.19042656 0.14676988 0.1886331 -0.032204352 -0.003259545 0.07594077 -0.12743522 -0.36790365 -0.7615149 0.64057535 0.44772002 -0.49710593 -0.15439634 -0.14364241 0.058109805 -0.63346416 0.9206576 0.088919014 -0.11935676 -0.055132188 -0.22687474 0.322011 0.20360394 -0.13165063 -0.16851911 -0.20497571 -0.4363389 -0.0212841 0.2066407 0.1673093 -0.7949935 0.34795225 0.75496167 0.3083797 -0.09637908 0.5313203 -0.20136146 -0.7009911 -0.3637564 -0.44213235
591 -0.63856345 0.70008034 -0.6760471 0.2541984 -0.3359468 -0.52796215 -0.23676251 -0.14718664 -0.100455694 0.2888461 0.53988564 -0.41119266 -0.12390721 0.003402444 -0.624106 -0.45880905 -0.11593733 -0.3254366 0.4112576 -0.12610087 0.2998274 0.2162935 0.050756715 0.3149959 0.14998253 -0.2421578 -0.29730552 -0.018922143 0.52227515 0.25994828 0.22307746 0.2266832 -0.33174095 -0.06571474 -0.54943174 0.36481342 -0.2965298 0.026277535 0.32146275 -0.4204255 -0.3866549 0.044361215 -0.54644173 -0.45954648 -0.64457947 0.27731913 -0.9813014 0.0027753972 0.03718683 0.317717 -0.6043271 -0.026808962 0.04014777 0.24869698 -0.13095433 -0.20630148 0.12771742 0.59082675 0.5360169 -0.05434394 -0.60548735 0.22933675 -0.16873346 -0.18927968 0.21871662 0.49026674 -0.24880311 0.26051697 -0.04778582 0.46216625 -0.48119783 0.46485472 -0.06939068 -0.36787024 0.1592841 -0.5978182 0.1880238 -0.40319645 -0.19039644 0.16457622 -0.044330504 -0.25956672 0.07013055 0.5104944 -0.23819026 -0.23897089 0.50168693 -0.2567697 -0.10906344 0.28340983 0.28346783 -0.19363979 0.5744154 0.16512877 -0.29162434 -0.5861454 0.1674413 -0.3106054 0.17554104 0.3509647 -0.3913699 -0.5333614 0.3603291 0.37251276 0.87322825 -0.14557701 -0.24384615 0.35150674 -0.14166614 -0.01053617 -0.06398484 -0.18619922 0.14038631 0.28026497 -0.46694115 -0.024348218 -0.20245908 0.13151377 -0.34880438 -0.11686215 -0.07199727 -0.24643105 -0.031684574 -0.28325003 -0.31506634 -0.08915978 -0.2177973 -0.043469384
569 0.3187862 0.30939755 -0.412161 -0.12755826 -0.733432 0.061758865 0.004275361 -0.5409444 -0.13693559 0.05108083 -0.23090431 -0.060456898 0.28529626 0.1486768 -0.21249859 -0.016103182 -0.013067868 -0.24922808 -0.414921 0.07207702 0.21464849 0.39869767 -0.028399285 0.106720656 0.22914043 -0.56682634 -0.50618464 -0.041988514 0.36184764 0.3123561 -0.07292565 0.25118923 0.16320089 -0.2920943 -0.26695818 0.19161607 -0.30958852 0.40041327 0.4657068 -0.593627 -0.21137686 -0.068213016 -0.70308733 -0.086299896 -0.16766836 0.03815332 -0.12474516 -0.5299984 -0.17079358 0.2313255 -0.70959765 -0.3937207 0.08575981 0.4829334 0.1420319 0.050842665 0.23419021 0.23889883 0.145509 0.1933866 -0.28734186 -0.40496558 0.030246807 -0.148386 0.23528133 0.15775524 -0.22891441 -0.774302 0.5514415 0.22646588 -0.4970296 -0.51148397 -0.19447781 0.17842081 0.3780882 -0.1817502 0.010269931 -0.48310795 -0.33291787 0.47448838 0.10347274 0.40862876 0.5284764 0.22441034 0.53563595 -0.7865521 0.14070815 0.212152 0.017388768 0.4257206 0.24669719 -0.33024028 0.16225335 0.3562606 0.15262505 0.04361757 0.20410265 0.5590456 -0.114771895 -0.3985906 -0.31955308 0.013105137 -0.49610496 -0.55073047 1.029548 0.7761021 0.44332397 -0.086195044 -0.34251902 -0.024894947 -0.28748232 0.57469946 -0.35333025 0.61572295 0.08356458 -0.04094096 0.46919942 0.34023798 -0.13699065 -0.119593956 0.2293621 -0.028781185 -0.43247652 0.18705206 -0.05450702 -0.699871 0.67389923 -0.06686221
1290 0.42790556 0.3416421 -0.40658784 -0.52869344 0.1028997 -0.09996337 -0.37042648 0.30033746 0.31338602 -0.017632566 0.03753346 0.091727406 0.36785328 0.06611704 -0.2691069 -0.3448038 -0.5778668 -0.28560123 0.357836 -0.20202363 0.37006646 0.31125253 0.12167066 -0.5377549 -0.04581199 -0.16097273 -0.47469932 0.07787755 0.09082393 -0.10923835 0.026672669 0.67291015 0.50927484 -0.5402386 -0.6412721 -0.0037457363 0.26851305 -0.18862191 -0.16276494 -0.18515159 -0.82029384 -0.07034209 0.06814213 0.05855355 -0.21031342 0.010878215 -0.15886323 -0.4440804 0.47741967 0.006565333 -0.3704383 -0.17027718 0.03950736 0.111540735 0.42245722 0.95679176 0.49753216 0.45228282 0.3182149 0.67504907 -0.17033377 -0.34397897 0.0013940401 -0.19916542 0.41808623 -0.11818089 -0.4720056 -0.50265926 -0.66244596 0.40880513 0.15425335 -0.27771425 -0.010398837 0.0131483115 -0.025748644 -0.26911914 -0.3339085 -0.4271513 0.4319775 0.19115582 -0.24335393 0.19253895 0.6680246 0.09553327 -0.24100803 -0.2233855 0.45647487 -0.17044264 -0.26221436 -0.30964547 -0.38340914 -0.20339228 0.70418084 0.44518128 -0.011100804 0.24442856 0.0647403 0.49558154 -0.03528085 -0.46188447 0.22393349 0.41262886 -0.029943986 -0.46780738 0.80244225 0.34989977 -0.060730707 -0.2644782 -0.16073713 0.23668134 -0.023103543 0.26186386 -0.023473833 0.02645858 -0.5607878 0.3840116 -0.2395512 0.13859573 -0.17744853 0.41170928 -0.03987635 0.065765284 0.01909573 0.12743407 -0.5641046 -0.25197384 -0.085644096 -0.19021642
66 0.5929738 0.36453578 -0.011360006 -0.2105531 0.23065075 -0.43563658 -0.09108559 0.016831055 -0.20448805 -0.11904197 -0.10406373 0.00073427527 -0.38331902 -0.28811207 0.7645367 -0.7825419 -0.28550252 0.37747687 0.023468617 -0.66574854 0.17752366 -0.07487413 0.5334009 0.30511117 -0.07454202 -0.43969873 -0.12797818 -0.4826618 -0.160748 -0.12647277 -0.15800025 0.065993086 0.29453123 -0.3145821 0.14280573 0.16862828 0.45925257 -0.2216565 0.45453346 0.023969382 0.10598165 0.09831043 -0.15087266 -0.4565939 0.21948741 0.07930495 0.23317516 0.3527078 -0.10344262 0.16153108 0.03198918 0.5287077 -0.43088722 -0.5760381 0.27821696 -0.5641704 0.15653667 0.5708378 -0.29317963 0.37563336 -0.20224261 0.24762683 -0.13701601 -0.13800149 -0.17155534 0.9420113 -0.024596818 0.076525554 -0.41183883 -0.39363968 -0.8810573 0.38313305 -0.6772298 -0.39601254 -0.5583898 0.124378495 0.15793595 0.0096905455 -0.4189865 0.19219677 -0.49750787 -0.31436807 -0.034499656 0.11206454 -0.5245154 0.015976153 -0.18925281 -0.77480865 0.6712777 0.1560726 0.81745607 0.19003604 -0.107747205 0.10677429 0.24572356 0.3493851 0.2889813 0.39748386 0.62759584 -0.03580232 -0.12219337 -0.17807822 0.65684557 0.07945005 0.6268996 0.43251842 -0.16382228 -0.36836812 0.085095204 -0.008768961 0.24102212 -0.28662106 -0.28089392 -0.19269389 -0.19451734 0.37283704 -0.5281433 0.34227124 -0.24804066 0.16006899 0.10065084 0.60845596 0.042131547 -0.15611519 0.26036948 -0.32825696 0.04835796 -0.1469011
1569 -0.12159918 -0.21074425 0.07172461 -0.5867229 0.21712762 -0.9857922 0.30093583 -0.24784248 -0.3241019 0.12871851 0.06267769 0.20940368 -0.3563145 -0.0051760464 -0.4008018 0.27681354 -0.17935765 -0.9066578 -0.3895484 0.10806989 0.34995052 -0.14134188 0.13673452 0.25561023 0.23809426 -0.36025834 0.20187739 0.4517004 -0.26728126 -0.01789498 0.17154805 0.4019678 0.47871125 -0.3158121 0.22313525 -0.6384585 -0.40114623 -0.7928861 -0.82587695 -0.28177214 0.002367622 0.04040982 -0.5392004 0.18619117 -0.49913415 0.10686537 -0.31023312 -0.3169209 -0.26310664 0.19806668 -0.8427743 0.1868825 -0.061478507 -0.25633296 0.25346455 0.076645106 0.36414066 0.843083 0.117421575 0.43817553 -0.019570079 0.17164323 -0.5148749 -0.64153737 0.80684185 0.4155715 0.57518697 0.64310896 -0.36203712 -0.33754912 -0.12736624 -0.016858758 0.29280892 0.30006483 0.04685133 -0.70440894 0.53705764 0.4203481 -0.57525545 0.6771233 -0.01190548 -0.35136342 0.49584523 -0.38787428 0.20613511 -0.2605607 -0.5571334 -0.22137906 0.40472436 -0.009492549 -0.058022145 -0.10576749 -0.12140529 -0.16203655 0.27383202 -0.38729608 0.24266534 -0.17976674 0.06409451 -0.2648096 -0.1895739 0.05142568 0.37179604 0.05218607 -0.052817322 -0.06296547 -0.2778842 -0.6836421 0.008969511 -0.08180412 0.050261546 -0.10464226 -0.08169574 0.08093151 -0.013912925 -0.041726325 -0.27846375 0.94713557 -0.7492893 0.27863297 0.14622037 0.4505743 -0.7098217 -0.052574515 -0.482021 -0.19080484 0.19003 0.10448758
250 0.16508432 0.21329083 -0.31126896 -0.17693081 -0.353836 -0.039159052 0.2649611 -0.38156527 -0.47816423 -0.27053127 0.12058136 -0.4051397 0.38125604 -0.26399687 0.3745909 0.047940116 -0.01902509 -0.7778587 0.12366278 0.07617236 -0.20072247 -0.5515612 -0.06385629 -0.5555642 -0.2500178 0.41263965 0.5508204 -0.16699494 -0.20579788 -0.16112041 -0.5543319 -0.43578205 0.1841137 -0.18846938 0.0010281819 0.17973685 -0.50285035 -0.0172104 -0.16037518 -0.6719675 0.7591013 -0.3577088 0.017630966 0.03002122 0.0032240949 0.30935675 0.36876416 0.38880077 0.021062627 -0.03525217 0.08497221 -0.59782887 -0.6523714 0.22563714 0.16450423 0.3467687 -0.15886308 0.34967932 0.4575038 0.52053 0.54228383 -0.36419895 -0.31820747 -1.1174481 0.36091015 0.21305093 0.39234164 0.17499144 0.12993777 0.13847618 -0.09323081 0.30740413 -0.31059095 0.116459504 0.26207617 0.4372673 0.3127012 0.06765981 -0.1269447 0.38323954 -0.15974772 0.08641577 -0.769914 0.21144913 0.0143441325 -0.092954755 0.13921048 0.37909892 -0.70515466 0.04370096 -0.41454685 -0.5844257 -0.4441686 -0.097257204 0.023727788 -0.79847926 0.17574525 -0.13384381 -0.46169266 -0.22079597 0.25114653 0.15244675 -0.3994609 0.10136597 1.0757864 -0.22902814 -0.03852921 0.13704534 0.24720575 0.36083704 -0.22597806 -0.05693004 0.434177 0.19305205 -0.056211174 0.18682915 -0.26957574 0.28437188 -0.48174927 -0.21633568 0.3641424 -0.13948266 0.045419034 -0.35546827 0.17372154 -0.4741717 -0.05086701 0.3284041
1520 0.8801055 0.42609644 -0.13926104 0.38297862 0.31890044 -0.4827007 0.17271231 0.044163037 -0.24307778 0.111834124 0.18104213 0.39676413 -0.051666096 -0.045338627 -0.4275617 -0.3573742 -0.07834336 0.09354408 0.20792127 0.52755535 0.40091804 0.79264975 0.15038696 0.0020376374 -0.120204516 0.7921115 -0.81721467 -0.19002555 -0.7592452 -0.45662117 0.04138246 -0.14530827 0.04286333 0.46188787 -1.0381931 0.5182169 -0.70107526 0.49084866 0.10540038 -0.18093531 0.28036803 0.24879202 -0.36848363 0.68033975 -0.39313048 0.07252403 -0.3162496 0.23402195 -0.72984827 -0.33145759 -0.31570965 0.36233303 -0.8839418 -0.7548156 0.061023258 0.3968174 0.83204377 0.40253597 -0.19930169 0.37403664 0.5169463 0.29467323 0.36394453 -0.71863085 0.2849944 0.354486 -0.16343649 0.66143054 -0.3132503 -0.27978745 0.4179536 0.35451636 0.66508716 0.4509064 -0.30646634 0.18940142 0.030607054 -1.2290478 -0.09110815 -0.42183578 0.0044374075 -0.025366493 -0.4463428 0.00023395232 -0.1274354 -0.22579955 0.48679143 0.1931739 0.22752886 0.3016891 0.5194781 0.52584755 -0.4086072 -0.12458019 -0.36587518 -0.42593142 0.33365864 0.37103274 -0.8405094 -0.42921448 0.21759003 -0.2030111 -0.10166719 -0.65829724 0.61085963 -0.58873934 -0.20711274 -0.118501246 0.029355133 0.68387914 -0.29047772 -0.5613126 0.03621638 -0.05978864 -0.44450653 0.4040636 0.19047287 0.33627293 -0.45759246 0.6367037 0.6769805 -0.2581934 0.6194846 0.8118185 -0.107788816 -0.69366515 0.12021596 -0.19305544
1136 -0.93379056 0.6055354 0.44148275 0.15368024 0.5095902 0.26077238 -0.44869438 -0.12590125 -0.107654266 -0.13114722 -0.13774763 0.09819001 -0.27741662 -0.3573556 0.080708385 -0.89505404 -0.12616019 -0.4704684 0.0626875 0.21775137 0.2814373 0.103117555 -0.124285325 -0.31900007 0.14357533 0.06751969 -0.24206169 -0.18343262 0.09772996 -0.65658575 0.02680561 0.3367491 -0.41534737 0.2960363 -0.07430684 0.15256415 -0.49974594 -0.067187995 -0.021912603 -0.4219912 -0.6339384 0.5769589 -0.43039942 0.37265998 -0.35428438 -0.39229333 -0.018178193 -0.53905636 0.20783739 0.3932836 -0.08862761 0.21204023 -0.0921933 0.27128446 0.13605212 0.22058325 0.49937275 0.18394278 0.30314946 -0.036599793 0.3923855 -0.8556892 0.17798005 -0.060499072 0.060527135 0.028546888 -0.030455297 0.27303696 -0.3391786 -0.0991397 0.20150796 0.25348136 0.41603026 -0.13438919 0.0919178 -0.059624225 -0.033707652 0.5229578 -0.48389328 0.30297723 -0.21814808 0.5521887 0.05051058 0.3200576 0.11726372 -0.07828782 0.12782505 -0.27298555 0.41333982 -0.12992504 0.21916823 0.32541424 0.05012467 0.52149844 0.35046098 0.33391777 0.33540606 0.21082157 -0.46844634 -0.2562103 -0.17063248 0.20344663 -0.32808432 -0.7747276 0.13205388 0.05819516 -0.5560434 -0.071069814 -0.05658195 0.12938435 0.6078178 0.62673724 0.6415684 -0.35200387 0.28914687 -0.1000794 -0.46387652 0.34985864 -0.6350184 0.20167711 0.2295757 0.019412275 0.43974358 0.28689256 -0.40792772 -0.22815777 0.55629915 -0.09294261
76 -0.080775246 -0.028798746 -0.22118935 -0.74224687 0.13678247 -0.30158356 0.19611113 0.30188677 -0.11146394 -0.6988987 -0.28323948 -0.16842496 0.017367844 -0.43961912 0.10809774 -0.38216168 0.071431994 -0.30700642 0.22680813 -0.10584681 -0.41647318 0.021062547 -0.036142483 -0.07122452 0.007646349 -0.35236105 0.57596666 -0.48456287 0.21491009 -0.49408007 -0.10920685 -0.5579186 0.16707647 0.14287275 -0.12686862 0.0485035 -0.44353524 0.4634317 -0.7804619 -0.18600109 0.25160378 -0.44801477 -0.2604742 0.38444087 -0.4595034 -0.027887722 0.1545146 0.11691034 0.0582517 0.28179914 -0.5328498 -0.05232661 -0.4029341 -0.4009886 0.20169333 0.65810794 -0.41151392 0.030949106 -0.21622814 0.17669295 0.29887518 -0.44407827 0.10346765 -1.1333294 -0.26287913 0.07035737 0.1666078 0.3202324 0.20435123 0.4680919 -0.014624068 -0.23549896 -0.05520432 -0.6090192 0.35815477 0.30411196 0.34949002 -0.6065857 0.4108545 0.2171187 -0.4311432 -0.082628116 0.3921026 -0.31753528 0.16768609 -0.33712897 0.15063986 -0.08824091 -0.3339057 0.5341541 0.07540045 -0.49663273 -0.11171273 0.3284657 0.032383747 -1.1221514 0.2498591 -0.325398 -0.4295854 -0.9410891 -0.11573399 0.19826639 -0.25140673 0.17414801 0.9734422 -0.22344579 -0.44389543 0.36404347 -0.13097422 0.3872328 0.031178987 0.073389776 0.90886635 -0.017963579 -0.21346873 0.048734706 -0.42955893 0.009016658 0.067168824 0.12847273 -0.5064639 0.007897163 0.048416197 -0.45288923 0.17035307 -0.91600686 -0.29109317 -0.18714064
1459 -0.095795706 0.33407328 -0.10001013 -0.032146156 0.062874176 0.3145164 -0.2903273 0.18292515 -0.6877422 0.28312525 0.10634271 -0.5639223 0.34493333 -0.2480181 0.58667916 -0.038042184 -0.5054248 -0.0039104945 0.31456485 0.28039852 -0.19397731 -0.044492405 0.71650887 -0.07680155 0.20301564 0.17678508 0.1690878 0.35963374 0.255082 -0.1517991 0.22573698 0.0024247097 0.0946759 -0.20286937 0.23739445 0.31152377 -0.08352059 -0.07686907 0.6985258 -0.10379207 -0.2531056 0.46755412 0.3835229 0.026375465 -0.58288604 0.057921108 0.23454183 0.071578994 -0.21990684 -0.3721008 -0.17500526 0.09961731 -0.18342392 -0.44825363 0.47225022 0.45948175 0.048589535 0.56367785 0.17707069 0.30891818 0.09651478 -0.85677516 0.046898082 -1.2343326 -0.11740381 -0.09558563 -0.23407997 0.36316103 -0.35351065 -0.17505325 -1.0021144 0.0481092 -0.14350466 0.10169231 -0.10941835 -0.010353732 0.07275898 0.17774272 -0.24990849 -0.5008035 0.014995445 -0.32140306 0.17481257 0.11086089 -0.0070120622 -0.67314607 0.2655043 0.26727176 -0.21162434 0.36611024 0.008683227 0.45679787 -0.2042609 0.17352739 -0.25925323 -0.30208525 0.2532561 -0.029215468 -0.49511582 0.043640003 -0.49141008 0.009243492 -0.45410973 0.22307944 0.22240664 0.25217828 0.08448618 -0.006851367 0.66154176 -0.2114318 0.24928124 -0.30539736 -0.45669484 0.22560014 0.49726346 0.03566103 -0.014056392 -0.44953755 -0.56608135 0.23400281 -0.34317484 0.39893913 -0.29470858 0.4285516 -0.0038046986 0.1515543 -0.4061193 -0.051667582
188 0.13663344 0.22890373 0.0011314111 -0.33855802 0.09407567 0.0749436 0.034151275 0.34982756 -0.24932672 0.072665386 -0.14542656 0.09478773 -0.15016387 -0.047899712 0.4768722 -0.45879602 0.13025355 0.104381844 -0.30195498 0.27581993 0.10008316 -0.18453358 -0.14078166 -0.58768946 0.31616363 -0.0782453 -0.009015143 -0.35280704 0.4627254 -0.5455317 0.18171504 0.4416954 -0.10837244 -0.69612503 0.10659756 0.20768273 -0.20440978 0.048870802 -0.31505746 -0.48407155 0.101603985 0.37657455 -0.04235097 -0.03899052 -0.46975848 -0.28895703 -0.2884067 -0.20719118 -0.26573592 0.44228658 0.056858767 0.0025289925 0.6553191 -0.16084193 0.3152393 -0.23773208 -0.22549549 0.4665096 0.28185853 0.1464526 0.1427499 0.14079075 0.07315536 0.18061374 0.56732404 -0.3020955 -0.1964329 -0.052655287 0.06641542 -0.71080226 0.15970534 -0.45932323 0.11367435 0.16007672 0.105589226 -0.042061362 0.4420752 0.22585222 -0.29021582 0.3489054 0.07983126 0.06565092 -0.109644055 0.48629355 0.47201812 -0.26852417 0.3168462 0.18937951 0.31379622 0.16764098 0.60536337 0.53870165 -0.616942 0.08518578 0.35833654 0.20698969 -0.36371273 0.14103907 -0.5418106 0.31368512 0.16388293 0.026710127 0.1795897 0.096205525 0.11318361 -0.07853962 -0.14352128 0.21410187 -0.15763952 0.7065149 0.0889037 0.3423033 -0.19170931 -0.69868934 0.05208827 0.8026569 -0.21400084 0.17014542 -0.72156906 0.35319722 0.27846056 -0.23956573 0.4365667 -0.31196052 0.023820365 0.28769013 -0.13772644 -0.046129
1153 0.10320916 -0.30403474 0.70642066 0.034254044 0.12248227 0.20239547 -0.238788 0.048782155 0.13816732 0.33826876 -0.5714226 -0.1522508 -0.12051519 0.26110488 0.11129705 -0.48807007 -0.12887307 -0.64847344 0.5104204 0.5261821 0.67174786 0.02224913 -0.4396777 -0.67138594 0.38118887 0.30934462 -0.27872214 -0.2561654 0.16408983 -0.41148728 -0.8322924 0.055178747 -0.18437272 -0.35662457 0.21453767 0.35544837 -0.16094334 0.7572098 -0.17298448 -0.16010925 -0.1275456 0.1388063 0.116408356 0.13402563 -0.68877065 -0.02665871 -0.6046947 -0.31576928 0.15001954 -0.036407966 -0.23846982 0.0029640065 0.38330925 0.36263373 0.37180224 -0.12520036 0.60422665 0.5854259 -0.2557312 0.33172947 0.106735505 -0.4341108 -0.26816264 -0.08882587 -0.268493 -0.10635282 0.06564323 -0.025835706 -0.24861671 -0.15266922 -0.17337012 -0.20408846 -0.20561482 -0.3170001 0.25243786 0.08772958 -0.12394058 0.25821215 -0.66042596 0.121549085 0.108288094 -0.07927624 -0.029405534 0.31931105 0.055195067 -0.2927416 -0.08269645 0.75408655 0.35562336 -0.124092475 0.37504634 0.07254164 -0.17739677 0.09861044 -0.02876234 -0.19468705 0.30372047 0.036563396 -0.44745705 0.35403088 -0.26654518 -0.6000201 0.028571771 -0.3685783 0.8262 -0.022522865 -0.76754606 0.024709033 -0.046485133 0.6281867 0.046419855 0.21389253 0.023224205 -0.33569074 0.33168083 -0.06950628 -0.2524946 0.038112614 -0.43948698 0.008642368 -0.16236097 -0.14210506 0.109973095 -0.27184168 -0.014154705 -0.19138332 0.5034462 0.091954835
478 0.61472356 -0.27691257 -0.029023586 -0.06884961 0.062966324 0.06723598 0.12696552 -0.4242821 0.3223157 -0.29001406 0.09232469 -0.12018393 -0.23410445 -0.1632817 0.25510415 -0.44227746 -0.59887993 -0.21892875 -0.027270636 -0.09913089 0.2424733 0.38846287 0.44430307 -0.3492244 -0.24283952 0.061298527 -0.15033191 0.6010348 -0.23886892 -0.10046954 0.6909143 0.2766386 0.6445721 -0.40049806 0.52029365 0.27089632 0.17137969 -0.01714301 0.34588194 0.21903704 0.38287282 0.30676675 0.11932859 -0.48798394 0.028512584 0.307432 0.46052405 -0.40461925 0.2793554 0.8531629 0.16857815 -0.06173333 -0.42897964 -0.065989375 0.27088302 -0.0864977 -0.2436756 0.22297211 0.09297855 0.18792766 0.2440923 0.07796821 -0.34635058 0.0039045895 0.34731305 0.6582988 -0.13804957 0.15151826 0.09714684 -0.38779834 0.12579776 -0.08438069 -0.3069274 -0.14000307 0.5124103 -0.55100024 0.42292792 0.11072699 -0.045670938 -0.28607735 -0.5562597 0.4842685 -0.16149347 0.38937652 -0.37986153 -0.39009 -0.03899695 -0.420152 0.26539847 0.46156976 -0.040170047 0.1659998 0.030352024 0.66491187 0.015794864 0.11970265 0.65365726 0.36292183 -0.22952577 0.33629984 -0.46015453 0.18177666 -0.02086615 -0.06606465 0.20526867 0.10619832 -0.2075868 0.2896386 -0.29893678 0.79974765 -0.071182355 -0.0024312811 0.19360745 -0.26488298 0.013060292 -0.074028894 0.0033808288 0.6239922 -0.55641663 0.65029335 -0.6775218 -0.29479963 -0.24126156 0.112264074 -0.21514893 -0.25035164 -0.2926103 -0.08628592
2499 -0.23799682 -0.17056587 -0.22089082 0.2645381 -0.025230201 -0.20814335 -0.6646956 0.49942148 -0.23272544 -0.64314294 -0.55736107 0.3279072 -0.6652576 -0.49951833 -0.115775265 0.437233 0.18465403 -0.52922183 0.41281226 0.038926065 -0.03830677 -0.0407215 0.12295785 -1.0111227e-05 -0.37664285 0.045868557 0.4986329 0.13576676 -0.3876533 -0.10060325 0.1710525 -0.20314562 0.17022981 0.11130334 -0.39141482 -0.4942257 -0.32693052 -0.22303998 -0.107581414 0.07189791 0.028512234 -0.056287784 0.06282985 -0.31014338 0.21454686 -0.19988814 -0.069119304 0.33845112 -0.38668904 -0.31429133 -0.5605713 0.47386107 -0.45462745 -0.28969747 -0.17273365 -0.3253999 0.6235167 0.38359997 0.08585283 0.11607973 0.348875 -0.24914318 0.111221485 -0.16727686 0.17334077 0.13081859 -0.41822034 -0.23383412 0.31602004 0.086860515 0.50613886 -0.33318198 -0.40801755 -0.12754598 0.6113327 -0.8634158 0.6588296 -0.3159976 -0.06682945 -0.18420866 0.18850993 -0.5091337 0.21440892 1.1787606 -0.4294112 -0.6556766 0.17518058 -0.08295264 -0.11826029 0.280088 0.02121214 0.3012122 -0.41916928 0.0874282 -0.56352776 -0.8865413 -0.18563585 1.369115 -0.3201206 0.030208208 0.5194769 -0.17734228 0.19635089 -0.044556152 0.6725784 -0.7628204 -0.19894174 0.614831 -0.1076364 -0.46341774 0.21125527 -0.18265074 0.08103015 -0.12751241 -0.61816156 1.0422275 -0.1878011 -0.24934594 -0.5855651 0.5497651 -0.27115035 -0.12704031 0.2698289 0.44919905 -0.028174603 -0.1401495 0.9771492 -0.5180852
41 0.20868564 -0.3103583 0.34488302 -0.4202527 0.37316748 0.23228452 -0.7603257 0.8474564 -0.51440704 -0.57705164 -0.11337897 -0.3919668 0.2272338 -1.0074335 -0.5720664 -0.1811014 -0.2938028 -0.5820283 -0.5220682 0.32405782 0.31441092 -0.21570425 0.3591001 0.14028867 0.2760553 -0.4265451 -0.117868245 0.40296698 -0.13225342 0.11289297 -0.2746114 -0.27531382 0.45887586 0.37486854 0.49393654 0.060471535 -0.62271273 0.6309415 -0.010367374 -0.18976985 -0.29687607 1.2091483 -0.010109029 0.045309998 -0.04914241 -0.3910293 -0.112343125 -0.2732926 0.99449325 -0.71839684 0.17047448 0.5126602 0.3677596 0.1772836 -0.08798894 -0.032273296 0.3020146 -0.21416235 0.411569 0.38786536 0.63983345 0.261446 0.96086115 -0.61176765 0.35821742 0.6467808 -0.42768985 0.2616429 0.22706468 -0.58786184 -0.30451742 0.37447563 -0.19677678 0.18124788 -0.10818518 -0.28105962 -0.2667279 0.06697877 -0.16800393 0.21914807 0.29420048 0.62010634 0.16461354 0.48941347 -0.4984357 -0.23915187 -0.088937655 0.75795996 0.3095947 -0.38497075 0.7201734 -0.22968514 0.36615968 0.07103836 0.24039945 -0.47111532 -0.009735446 0.49959397 0.5578177 -0.65935 -0.15755367 -0.4233849 0.1530074 0.8157612 0.45223624 -0.3627829 0.0022484467 -0.42201528 -0.06326218 1.0604515 -0.21565446 0.078517064 0.116012 -0.030339641 -0.6265705 -0.1970693 -0.15868363 -0.45619807 -0.95544827 -0.012033535 -0.36292878 0.37317052 -0.22049198 -0.03879722 -0.25583085 -1.1826816 -0.15918773 0.5136977
1713 0.14710675 -0.37304893 0.4531925 -0.45091382 0.32640788 -0.09325668 -0.92827415 0.34187627 -0.48791918 -0.47933817 -0.12227425 -0.65820634 -0.24053548 -1.0671742 -0.49439037 -0.3736478 0.074142404 -0.56893516 -0.49166307 0.18349491 0.43486637 -0.6552343 0.22876158 0.12858586 0.016580287 -0.17735206 -0.26121345 0.39789462 -0.10837904 0.8660021 0.043602247 -0.6263413 0.33763078 0.5470978 0.19305338 0.112157 -0.81040287 0.6391603 0.11084355 -0.70582294 -0.1788664 0.99500215 0.33486462 -0.029033154 0.17716806 -0.14101624 -0.103747025 -0.42815226 0.24351253 -0.5200593 -0.26000717 0.68485993 0.8960046 -0.30244255 -0.11564656 0.21119004 0.3514961 -0.46303087 0.70433396 0.097538866 0.3863336 -0.1810917 0.4954315 -0.7740069 0.16296756 0.7998925 -0.4661881 -0.12321221 0.2566816 -0.45510674 -0.48932028 0.22715536 0.31661314 0.1596287 0.031820197 -0.3165205 -0.32919627 -0.06911177 0.07865125 0.21511829 0.2802264 0.3105195 0.3084252 0.47347337 -0.025705758 -0.609599 -0.10108319 0.7450701 0.08630396 -0.12674327 0.12894695 -0.45627713 0.056487426 0.6476792 0.26781473 -0.6404982 0.33414108 1.0367957 0.54515177 -0.9377231 0.28488994 -0.17874235 0.5328703 0.1626772 0.372281 -0.32166478 0.033251364 -0.064187884 0.074106574 0.4203321 0.062388435 -0.66212475 0.17091644 0.061161924 -0.20398751 0.22171137 -0.09410737 -0.2376751 -0.6833465 0.1570208 -0.2897573 -0.13063167 -0.15905793 0.017025912 -0.014328959 -0.62995744 -0.16104315 0.39084354
426 0.40193537 0.31031832 0.1191969 -0.17281878 -0.11018731 0.095595784 0.049446106 -0.36185887 0.47491553 -0.6245939 -0.28808784 0.16767678 -0.29868388 -0.6234249 -0.23052463 0.022230983 -0.28025877 -0.7824455 -0.15372312 -0.27867776 0.25229356 -0.09519663 0.38663515 -0.36149657 -0.40874353 -0.61309004 0.007249221 0.3849948 -0.19689192 -0.2725946 -0.15525806 0.2441659 0.6534913 -0.25996804 -0.41600364 -0.47089756 -0.18546246 -0.3174266 0.15977757 -0.39243665 -0.37353158 -0.1600389 0.0012065546 0.11205366 0.154786 -0.372854 -0.2733952 -0.65811473 0.27108228 -0.08241351 0.03415642 0.43652886 0.08157075 -0.2982852 0.4261393 0.10106321 -0.22633758 0.38534322 -0.3543411 0.21327747 0.09655042 -0.21781978 -0.4332277 0.011836075 0.43932822 0.30192855 -0.06478846 0.31001732 -0.018574594 -0.07800472 0.19420804 0.38347432 -0.061409894 -0.04218024 -0.49435395 -0.407608 0.26410446 0.32356116 -0.14039056 -0.07384412 0.04206604 0.09539442 0.5651484 0.029756673 0.05779862 -0.41818368 0.15505631 -0.17146535 0.024375828 0.28308436 -0.13044372 0.42377418 0.09984329 0.2972662 0.46503988 0.5759125 0.6173111 -0.06920612 0.3082093 -0.5133738 -0.20444733 0.10299092 0.1963031 -0.3260349 0.60286653 -0.5374256 -0.05392423 -0.72456086 0.5867301 0.4461512 -0.60947025 -0.59134465 -0.15169425 0.8837166 0.062036876 0.2664853 -0.5192326 0.5312151 -0.9882198 0.5954266 0.091132216 -0.03429807 -0.2579877 0.042244088 -0.22557323 0.12340096 0.16700707 -0.24702777
686 0.27137977 0.49604815 -0.21163887 0.052101463 0.2087988 -0.34387764 0.25349864 -0.1964329 -0.21818443 -0.4541027 -0.043364037 0.20103765 0.050306577 -0.3923451 0.438643 -0.5014853 -0.08314303 -0.56543356 -0.15072688 -0.09532085 0.44321957 0.63098687 0.004289436 0.44001985 -0.17015672 -0.2174141 -0.73143804 0.7730451 -0.2027567 0.008588756 -0.26230666 0.016392916 0.38260004 -0.6105118 -0.51190853 -0.49225417 -0.5624206 0.2222295 0.22542624 0.17788504 -0.21641569 -0.011016717 -0.6516888 0.52201134 -0.3154492 0.15007587 -0.09054104 -0.29150426 0.06956717 -0.14291134 -0.4099536 0.104451194 -0.13243021 0.17941515 0.76017517 -0.33466876 0.068298586 0.11808975 -0.031347238 -0.17159295 0.2782964 0.3800955 -0.19911334 -0.35959458 -0.35210583 0.60019875 -0.07617771 0.021223608 -0.13053942 0.13104984 0.27183944 -0.059993766 0.31967252 0.44356278 0.5580348 -0.57420355 0.3639311 0.49009895 0.056354497 0.05199988 -0.469537 -0.13200812 0.586036 0.32354727 0.26929528 -0.33536702 -0.428622 -0.10208115 0.07204537 0.50326777 0.7051898 -0.35901383 0.11675723 -0.037565697 0.40025133 0.3263318 -0.32612902 -0.25171927 0.14424865 0.4159604 -0.37764272 0.087871164 0.67945594 -0.16170008 0.531136 0.6800069 -0.25760734 -0.27317154 -0.29781756 0.108217485 -0.069843985 0.07295554 0.20534536 -0.10099077 -0.16949512 0.41390952 -0.82548344 0.3942184 -0.81557536 0.20331731 0.45684895 0.5221209 -0.47834513 -0.28017852 -0.102801636 -0.03867085 0.14972237 -0.04765933
415 -0.07653843 0.34928158 -0.14329764 -0.5768899 -0.13878924 0.48279586 0.05821023 0.25794137 0.23853375 0.20856883 0.075999804 -0.24799323 0.13344984 -0.28477052 0.5079468 -0.12764467 -0.047734797 -0.02255871 -0.40803275 0.29919213 0.50465006 -0.75152075 0.33891752 -0.47620654 0.002541158 0.124521226 -0.14268523 -0.24761003 0.37817952 -0.08482268 -0.15073578 0.08738805 -0.07171519 -0.061664153 0.08160748 0.24877796 0.18834189 0.22580801 -0.3357078 -0.87954956 -0.13191225 0.4706555 0.035183515 0.039628774 -0.25236028 -0.27774116 -0.17311738 -0.16172874 -0.47841746 0.5515596 -0.10529417 0.5278426 0.36687967 -0.18422258 0.3340149 -0.2401337 0.4034203 0.45494986 0.4290528 0.3002735 0.15800674 -0.3692024 0.31631598 0.052623563 0.3966267 0.1024625 -0.14558658 -0.0031721026 -0.3772001 -0.684892 -0.09651838 -0.33847812 -0.12465968 -0.042229585 0.6646567 -0.3018664 0.3679372 0.17855622 -0.24748595 0.19172747 0.10268932 -0.22288606 0.08661324 0.79237616 0.6097757 -0.34256816 -0.025482826 -0.3779289 0.35296196 0.5695375 0.28886294 0.059304804 -0.04997484 0.53584814 0.14467578 0.2394926 -0.39465532 -0.10950579 -0.5297864 0.5440174 0.3804613 -0.1230032 0.17920576 -0.36025882 -0.06107739 -0.016118037 0.013118352 -0.09443592 -0.084980264 0.5468445 0.0017671906 -0.13823968 0.41899952 -0.1455939 0.067685075 0.2731114 0.087888636 -0.40379202 -0.064373106 0.4692294 0.035457496 -0.2288174 0.6497325 -0.39412063 0.11999799 0.023845974 0.113285534 -0.16632244
2153 -0.21573202 -0.065937676 0.60236907 -0.58062726 0.39758483 -0.25472522 -0.71138585 0.18246688 -0.6280534 -0.8433214 -0.15397069 -0.5301081 -0.12820669 -1.0022347 -0.27376112 -0.13290964 0.36779413 -0.4090391 -0.7316125 0.28928807 0.72392374 -0.30771416 0.30036765 0.04658477 -0.39735296 -0.22818363 -0.43245658 0.3770933 0.103195086 0.53756905 0.12789619 -0.3158289 0.082117826 0.7130872 0.5791601 0.2116284 -0.9527926 0.51130277 0.23109338 -0.63167673 -0.39595613 0.64007175 0.57245106 -0.20197372 0.057300232 -0.05230094 0.2617604 -0.53769505 -0.10626386 -0.29916677 -0.4572042 0.4147483 0.6148476 -0.2805364 -0.10354396 -0.010337052 0.7426959 -0.50833535 0.6775895 -0.025886033 0.34071004 -0.03696324 0.7252018 -0.9012053 0.32094705 0.63406295 -0.52846736 -0.07222772 0.48829606 -0.55850405 -0.32508397 0.49747077 0.38222268 0.62926805 0.026637854 -0.5184106 -0.4831918 -0.10249981 -0.0018642351 0.4748796 -0.06543754 0.1242403 0.38640368 0.073566735 0.05495099 -0.4448648 0.25632113 0.8454492 -0.15792239 -0.00787049 0.357914 -0.34791872 0.038334046 0.3523754 0.34475297 -0.69153076 0.277367 0.625144 0.46860135 -0.9713832 0.20427786 -0.4351505 0.5353057 -0.0011313028 0.40308586 0.2508904 -0.061457112 -0.04749089 0.11534297 0.6152599 0.3239669 -0.5179477 0.15708782 -0.041905094 -0.24201055 0.04233943 0.12973152 -0.4008415 -0.86103773 0.15200035 -0.45408902 -0.3033336 -0.25537616 0.062725276 -0.601634 -0.8962726 0.25727218 0.22288778
1178 0.17693844 0.26612204 0.022974506 0.4432057 0.23998472 0.53112406 -0.013543143 -0.27498502 -0.57990634 0.0005011183 -0.12073423 -0.19706655 -0.5761288 -0.43915126 0.25611782 -0.51803523 0.33769193 -0.26422226 -0.7316017 0.41146934 0.0026416604 -0.36456615 -0.23507072 -0.5996676 0.34897396 -0.33931556 0.04734677 0.0705465 -0.031830486 -0.2796038 -0.41206568 0.14816298 -0.12308806 -0.31714228 -0.062195078 0.6645928 -0.71451026 0.039117284 -0.32379836 -0.4210713 -0.8259331 0.4584051 0.11751414 0.088820934 -0.37614813 -0.38638043 0.12402248 0.07297784 -0.3179771 -0.12999426 -0.49964166 0.00074386864 0.21344756 -0.10333413 0.5592942 0.44011828 0.80497485 0.45625675 0.12411298 0.35761976 0.46315086 0.18357366 0.08559543 0.055915665 -0.13767266 0.7368303 0.14952295 -0.31627852 -0.0370173 0.4150799 -0.399851 0.4789027 -0.24668008 0.24434103 0.6073275 -0.39180827 0.3461368 0.08023023 -0.71278554 0.22539712 -0.08917063 -0.11573267 0.54814976 0.87954974 1.018365 -0.2753117 0.035484124 -0.078367256 0.46132448 -0.06431166 0.5520819 0.19765987 -0.09887229 -0.07105265 0.3259565 0.44502175 0.08734217 0.1615344 -0.62063086 0.34906173 -0.058643892 0.12683891 0.0380535 -0.14445338 -0.32161778 -0.2547789 -0.19526462 0.16059639 -0.08193011 0.207031 -0.4487613 -0.39290255 0.47052604 0.12195981 0.39268097 -0.52382165 0.12329626 0.13240553 -0.36513737 0.1938017 -0.19810177 -0.21120459 0.35099208 -0.2511344 -0.5197162 -0.35443968 -0.2041107 0.413251
129 0.013430049 0.21517748 -0.015556596 -0.45979843 -0.3628212 -0.4807139 -0.34887698 -0.21742941 0.017264789 0.05035128 0.3045915 -0.29651234 -0.27182528 0.3068545 0.22666214 -0.45038518 0.43496823 -0.49981812 -0.30209553 0.37573323 -0.31093 -0.17092355 -0.09406078 -0.74690145 0.17153402 0.14025345 -0.099465035 -0.4997692 -0.42646998 -0.13198677 0.089048766 -0.38086045 0.17729163 -0.60838354 -0.05319205 0.10848688 0.07145921 0.46734694 0.18581867 -0.12675194 -0.22535348 0.10226961 0.025375003 0.26777834 -0.37058142 -0.4636379 0.16889939 -0.6098434 -0.13054524 0.040235016 0.117239155 0.37426955 0.4932449 -0.1200931 0.8873087 -0.17926985 0.15025899 0.073434666 0.33237183 0.10885768 0.15448925 -0.09868296 0.1850637 -0.09062238 0.4248586 -0.027213845 0.05751711 0.14673607 0.17593206 -0.26778403 0.22855234 0.16372864 -0.060194943 -0.7586848 -0.36496952 -0.010444251 0.34940416 0.35643813 -0.4970772 0.28744188 0.5816546 0.011236076 -0.0670744 0.3576283 0.25960457 -0.15035489 -0.2395906 0.5464196 0.25667104 0.028979024 0.37540692 0.4822452 -0.20274794 0.0030616457 -0.09505768 -0.074542806 -0.089147866 0.087005034 -0.26779985 0.07553502 0.023666967 -0.42990306 0.349948 -0.24261609 0.6558403 -0.017254833 -0.032235518 0.10634059 -0.2566097 0.60842896 0.35526207 0.49131447 0.047459483 -0.78553975 -0.14328629 0.09519904 -0.3491264 -0.3236707 -0.21784244 0.24684958 0.036618162 -0.21641208 0.4502309 -0.1297644 -0.13676132 0.5086653 -0.09053915 0.12192138
359 -0.23111415 0.17302293 0.10259266 0.018584961 -0.05734764 -0.2524769 -1.0184339 0.39471924 -0.45074004 -0.62994045 -0.18711185 0.4259193 -0.12024627 -0.5746578 -0.15068886 0.19230238 -0.024195686 -0.4037775 0.47929037 -0.07027571 0.17725866 -0.11199089 0.0809719 -0.0936684 -0.20629756 0.2449739 -0.060271174 0.2921554 -0.44995365 -0.10984817 0.12663114 -0.36361814 0.48028278 -0.06457725 -0.404373 -0.4828892 -0.45046672 -9.8649885e-05 -0.19344549 0.25697783 0.49960008 -0.094708964 0.34438834 -0.22315358 0.10427613 -0.099354416 -0.12622395 0.10491385 -0.47034314 -0.17246969 -0.6277813 0.47162628 -0.3887779 -0.18702377 -0.27509266 -0.38322094 0.5644402 0.22743821 -0.006186209 0.1056881 0.50447196 -0.07185981 0.21891214 -0.019047193 0.1967323 0.20579435 -0.45028314 -0.59380114 0.23636653 0.10965549 0.4263591 -0.40642983 -0.3428603 0.05878052 0.40309098 -0.74065644 0.44024986 -0.6152991 0.09926173 -0.17894597 0.3097281 -0.59357995 0.044197943 1.1578698 -0.5060338 -0.91947234 -0.06388772 -0.26690364 0.30188742 0.6467295 -0.4038263 0.41305414 -0.30146876 0.17539114 -0.31280208 -0.75575405 -0.24743561 1.2263606 -0.5608301 -0.08090956 0.29349378 -0.09990795 0.034710646 -0.005892708 0.3916025 -0.45874333 -0.18577938 0.62692875 -0.13011768 -0.42177334 0.24874635 -0.42514473 -0.042382292 -0.12888862 -0.58565867 1.1592057 -0.23266959 -0.56856793 -0.6220025 0.53688025 -0.29356092 -0.090721466 0.25409144 0.3069114 0.122657284 -0.21726441 0.8017785 -0.7067359
640 -0.26663053 0.4169976 -0.70051324 0.32773757 -0.12703423 -0.32853916 -0.02671837 0.066938445 -0.20309299 -0.084740244 0.3938577 -0.4471129 -0.16901977 -0.3221185 -0.29929188 -0.6425781 -0.3340411 -0.5915222 -0.0032089944 -0.34055167 0.38592437 -0.020737719 0.22618881 0.5024964 -0.07180075 -0.2677263 -0.76180744 -0.49311116 0.57325333 -0.0766765 0.08312043 0.122127116 0.0275982 -0.44415227 -0.5952645 0.09480865 -0.16557659 -0.08552102 0.21118402 -0.56926626 -0.25470304 -0.35157442 -0.7978796 -0.21872984 -0.43222788 0.5752904 -0.80527514 0.18202752 -0.18511611 0.3574073 -0.35345498 -0.23113054 0.07464744 -0.15768579 -0.08278017 -0.4312637 0.49917692 0.28384516 1.0405431 -0.035689928 -0.11063682 0.43108362 -0.08055279 -0.42532676 0.13486838 0.42478812 -0.51165885 0.3632405 0.24310538 0.6278925 -0.49315396 0.32381406 -0.168417 0.13467206 -0.20801356 -0.23468833 0.1822175 -0.28018177 -0.35089576 -0.18040091 -0.31894305 -0.36208338 0.38635355 0.8817233 0.030025864 -0.2492764 0.15800643 -0.10692276 -0.39433208 -0.072850466 0.23359364 -0.13996348 0.2617081 0.28147677 0.16169384 -0.3458765 0.1332106 -0.12665024 0.15866132 0.8501866 -0.66467756 -0.37882522 -0.08005887 0.39464068 0.67611164 -0.28194943 -0.37397715 0.110433914 0.14190254 0.07610517 -0.22957781 0.02413821 0.18707559 0.20638113 -0.3207431 -0.6284378 -0.16034645 0.15020673 -0.04114789 0.0038274215 0.34205875 -0.012790806 0.062356792 -0.3319999 -0.4426735 -0.2199558 -0.07485168 -0.08710091
519 1.2308997 0.39677334 0.36921832 -0.2564297 0.35247228 0.09324973 -0.9965036 0.5028112 -0.07154517 0.2686461 0.4804453 0.25211832 0.6074531 -0.39831713 0.51708007 -0.099221095 0.4505013 0.44545767 -0.12760706 -0.15444812 -0.3180633 0.81063676 0.5346769 -0.060453564 -0.505648 -0.29064968 -0.6677629 -0.20633411 -0.19671361 0.1851574 -0.8471443 -0.33441254 -0.8548927 0.5319557 -0.40691873 0.24071637 0.02960062 0.16801904 -0.13065976 -0.08702116 -0.42387274 0.61114144 0.12519096 0.37694192 -0.8832385 -0.79494405 0.048854932 -0.1316324 0.053898804 -0.5096058 -0.12989421 0.027493536 -1.1147364 0.51497906 -0.4078476 -0.27579427 0.2246744 -0.5782741 0.9694107 0.50177 0.6248716 0.19958293 -0.4644746 -0.963618 0.21418792 0.05743509 -0.09372605 0.47231695 -0.44328535 -0.33998847 -0.326082 0.5803062 0.118453674 -0.38157484 0.009279111 -0.15978397 -0.023495814 -0.09517694 -0.13837694 0.093841 0.031464387 -0.26238543 -0.04390887 0.37644726 0.09077684 -0.5215184 -0.10143159 0.14130606 0.31948784 -0.012323822 -0.35971856 -0.5366279 0.20246401 -0.71949935 0.6963577 -0.96125436 0.23966223 0.066827044 -0.15820211 -0.19017449 0.27072287 -0.07262026 0.17092937 -0.24594049 0.97342527 0.19215426 0.0032087353 0.88141644 -0.2798394 0.90063465 0.41328537 0.050167073 -0.62101966 -0.07023579 0.39264566 -0.015444967 -0.23091723 0.44909292 -0.49520737 0.64511657 -0.43879113 -0.37309968 -0.42944327 0.41078335 0.1593177 -0.19682889 0.78011894 -0.1589367
881 0.515037 0.45483837 0.3646105 -0.4267238 0.36045295 -0.2219209 0.27090573 0.10920754 -0.39037356 -0.2881288 0.041157413 0.42640468 0.18471132 -0.72123724 -0.6935105 -0.1959008 -0.3597351 -0.23604886 -0.034570694 0.37165412 0.17227021 0.3001145 0.039386902 0.007127641 -0.16352968 -0.12576261 -0.38531092 -0.7366985 0.09827381 -0.28157094 0.006248622 0.05199906 0.013381237 0.59441847 0.06822625 0.08081433 -0.25828022 0.0659442 -0.52227914 -0.16429284 0.11518981 -0.037544932 0.10616687 0.27762195 -0.3870562 -0.46620545 -0.04450481 -0.10041786 -0.23205286 -0.44759724 -0.3600156 -0.25819167 -0.5519934 -0.0077443593 0.3391378 0.1101163 0.08621668 -0.08295497 0.2793178 0.10448848 -0.12706561 0.27281123 -0.055779476 0.20990294 0.22958925 0.3752874 0.084653184 -0.13817611 0.2219818 -0.3421711 -0.109173365 -0.09983988 -0.53458667 0.08267824 0.41523865 -0.13749698 0.3517897 -0.642729 -0.11084775 0.31540948 -0.14248174 -0.49315083 -0.071895756 -0.07314551 -0.2851946 -0.036611013 -0.89547086 0.65539724 0.39979795 -0.2065543 -0.040904198 0.94692767 0.18326108 -0.046434272 -0.13046008 0.016078679 -0.13965477 0.4047301 -0.3177866 0.09300245 -0.75696903 0.44073874 -0.17743681 0.022080107 0.6135001 -0.08274616 -0.14116102 0.6492039 -0.74140733 -0.3491803 -0.06245498 -0.1982431 -0.06683228 -0.21377221 -0.23207664 1.0948055 -0.082235165 -0.775938 -0.6050923 0.35881615 -0.024007604 -0.2603445 -0.04250325 -0.33603856 -0.47377455 0.17467728 0.45307294 -0.24726903
967 0.26300073 0.65676093 0.016049206 0.031012028 0.13767086 -0.37918139 -0.079793595 -0.41309583 0.047745194 0.20081912 -0.114999786 -0.097691655 -0.43462384 -0.012646467 0.19494195 0.024999164 -0.7354075 -0.36054304 0.21201989 -0.1610447 0.0019508969 -0.16243242 0.4291936 0.47356024 0.06658206 -0.63353026 -0.1660669 0.3360426 0.11151783 -0.016563978 0.08075132 -0.04270606 0.2164322 0.02010015 0.0077827573 0.50455844 -1.1853448 0.23910318 0.0077791954 -0.21666239 0.01423632 0.25868034 -0.098890476 -0.17773172 -0.29135343 0.10915818 -1.0085676 -0.49835604 -0.0434008 0.49605685 -0.032825083 0.15890394 -0.61094046 -0.017070143 0.6063125 0.30088806 -0.02415015 0.60781294 0.1529758 0.1971636 -0.7201182 0.058530383 0.0061407257 0.057077494 1.1150653 0.014690132 -0.38415465 0.21548465 -0.22137761 -0.25346214 -0.56670547 -0.12807858 0.061077148 0.009964833 0.5434515 0.27591097 -0.32278395 0.28734234 -0.22625649 0.08729267 0.4054659 0.016446535 0.97038317 0.4598369 0.31734115 -0.8499434 0.33067942 0.08975927 -0.5780733 -0.15052924 0.7720359 0.09180477 -0.29909503 -0.17369886 -0.4035227 -0.31125966 -0.29227453 -0.17484955 0.25460458 -0.03544745 0.34241405 -0.04387948 -0.009854526 0.10117134 0.4376508 -0.031462073 -0.11814338 0.77471375 0.18973757 -0.014070447 0.71975136 -0.037764072 -0.27419606 0.039639883 -0.13670711 0.26610675 0.04514647 -0.29893216 0.2181875 0.11355191 0.13770121 0.024833769 -0.47444302 -0.6103256 0.032200437 0.32072037 -0.4111782 0.013775106
342 -0.22499815 -0.2664129 -0.21345773 -0.356233 -0.32666245 0.010694167 -0.8384646 0.97991514 -0.027466565 0.500778 0.04921082 -0.20716733 -0.13066508 0.23860985 0.19843462 -0.08101991 -0.77577084 0.28455377 0.010072629 -0.061996825 1.2377491 -0.17320085 0.3194619 0.6165979 0.13069993 -0.51698726 -0.4416878 -0.3176091 -0.24366899 -0.6404196 -0.36906233 -0.45336425 -0.28019 0.3006061 0.38736615 0.46943754 0.2751453 -0.74163735 -0.12744989 -0.06471974 0.20970428 0.64749604 -0.2806306 0.26500204 -0.31326163 0.499163 -0.17820045 -0.28870013 0.52073276 -0.2505021 -0.6254086 0.5986878 -0.097515725 0.64428836 1.0878265 0.8284266 -0.010285333 0.6116201 0.29103702 -0.34190258 0.67867523 -0.0952168 0.15516777 -0.69142956 0.1227308 -0.57782173 -0.44645283 0.27024394 0.36133707 0.077275895 -0.643115 0.16998662 -0.5473985 0.7089309 -0.093074 -0.70957613 0.43297175 0.77164775 -0.32019863 0.53004324 -0.45484054 1.3152479 0.09488883 0.08532846 0.084698156 -0.31943646 -0.60747117 0.16852416 -0.14673872 0.7531493 0.2306732 0.38316947 0.087311216 0.6970638 -0.30947688 -0.8572561 0.20693675 0.6732731 -0.0326899 0.00693107 -0.6385332 -0.63872933 0.14804284 -0.2705149 0.54274035 -0.39991722 0.13339466 0.9681971 -0.27921554 0.3290999 0.08639081 -0.61778814 -0.7874001 -0.21663278 -0.6982168 0.41882658 -0.54421663 0.24779455 -0.28642914 0.026694056 0.98122615 0.37790972 0.07721752 -0.78725743 0.1471592 -0.82539785 0.09229635 0.16439657
84 0.27908897 -0.24808764 -0.602763 -0.5919766 -0.21869211 0.1464497 -0.096027456 0.65178525 -0.18086006 0.35330668 -0.57875174 0.21910623 0.8886637 -0.13136272 -0.60944885 -0.33897614 -0.63292086 -0.37262103 0.34972543 -0.49458814 0.24206433 0.42765078 -0.20586845 -0.66529465 -0.45231605 -0.13363178 0.4810808 0.022386907 -0.23828208 -0.3914189 -0.69986564 -0.95273566 -0.25606814 1.302053 -0.4141178 -0.1291987 -0.9464729 -0.21646398 0.07649459 -0.38658723 -0.06108695 0.2655134 -0.10814187 -0.2130746 -0.27320725 0.47015423 0.78216845 -0.0056599537 -0.053302776 -0.05866746 -0.17641875 -0.09034263 0.21928175 -0.32387656 0.44984385 0.037900254 -0.21218324 0.06232269 -0.16984008 0.65060925 0.11702626 -0.064125426 0.020805418 0.19426593 0.1938698 0.2130729 -0.20082442 0.3633493 -0.44090188 0.21404435 -0.53312933 0.54578 -1.2670552 0.16316791 0.04426252 0.15972866 0.074750714 -0.083253935 0.45807794 0.16136475 -0.26073492 0.24083367 0.23574778 0.24983801 0.31070986 -0.5579567 0.4217557 0.18512164 0.08238762 -0.37218916 -0.031611644 -0.11931932 0.11411828 -0.16427591 -0.10117571 -0.19560981 -0.8593632 0.47311014 0.79709035 -0.26534814 -0.3343719 -0.09752518 -0.04685396 -0.611519 0.87499267 -0.1527169 -0.17547542 -0.26943853 -0.2490397 0.008744283 -0.23123044 -0.3190929 -0.23607509 -0.17716324 -0.64044595 0.2443424 -0.092108265 0.30008423 -0.7837457 0.45307252 0.43166122 0.15390222 -0.65186775 0.3672207 0.2885338 -0.8209107 -0.48198217 -0.5304292
2421 0.06945349 0.07125729 0.30829367 -0.500734 0.18522932 -0.6142461 0.0055380296 0.36511162 -0.33900478 -0.8001471 -0.14341553 0.11062714 0.29697728 -0.337673 -0.6281037 -0.40535787 0.21548948 0.071757756 -0.65571046 -0.23996174 0.36579865 -0.01800454 0.5110882 -0.009518587 -1.002917 -1.0248462 -0.3541259 0.5112242 -0.055658553 -0.2297262 -0.3033634 -0.4436271 -0.7306721 0.20692568 -0.34385666 0.15185429 -0.34961063 0.76424295 -0.0021102643 -0.43943644 -0.4515462 0.5966863 0.7516703 0.34874722 -0.31616288 -0.20607474 -0.06090294 -0.24017708 0.14636609 -0.30930156 -0.40772736 -0.19044897 0.22499621 -0.19001101 0.2622152 0.17838763 0.10225153 -0.4504776 1.0801934 0.78674006 -0.2851266 -0.1604981 0.14167373 -0.84815633 0.7848618 0.28275648 -0.28346342 0.66708124 0.05899488 0.13943604 0.068300255 0.46948016 -0.5477536 -0.429144 -0.15550515 -0.084410116 -0.113359734 0.08688066 0.3736192 0.27879417 0.13265316 0.34197867 0.12513913 0.48079145 -0.4436766 0.14023566 0.20826887 0.33364597 -0.0105997715 0.018251235 -0.10865297 0.2959807 -0.2537367 -0.3022107 -0.024660503 -0.5728074 0.3112609 0.17726405 0.030658482 -0.7651233 -0.066267684 -0.24807028 -0.0006398093 0.6050148 -0.043000232 -0.046463367 -0.07989072 0.68907446 -0.6209469 -0.10408305 -0.08610502 -0.29790646 -0.10773255 -0.09733085 0.36504582 -0.08615061 -0.46528092 0.08363551 -0.3336772 0.09063169 -0.58369344 -0.2158792 -0.23019683 -0.29338712 0.43983427 -0.7192064 0.28118166 -0.73349726
809 -0.22033778 0.59056777 0.2900285 -0.1412046 -0.21787322 -1.1945419 -0.32600638 1.0302978 -0.6278333 0.35845983 0.22083639 -0.5229687 -0.18360673 0.15728378 -0.25228065 -0.21936432 0.8306272 -0.7867582 0.018279847 -0.18074264 0.3409375 -0.21774265 -0.22656554 0.48881438 -0.13720682 -0.05032173 0.29569024 0.046410374 0.4349106 -0.38925534 0.16156256 0.47340065 0.82118654 0.0983211 0.06387748 0.9555247 0.11869179 -0.018374475 -0.3575857 0.0495874 0.6106126 -0.41257316 1.0156976 -0.015940502 -1.251223 -0.48107797 0.23294249 0.291019 0.8273876 -0.16395462 -1.0900003 0.071674034 -0.15520792 -0.089434884 0.041196782 -0.16468221 0.06816325 0.521841 -0.0039850855 0.69855875 0.71485937 -0.07558812 0.26649597 -0.73018324 1.0322732 0.7809888 -0.6439345 -0.13153283 -0.37319466 -0.29809585 0.040067606 0.9480498 -0.15357733 -0.10459035 0.22422391 -0.3111152 0.102281205 0.3170838 -0.8407933 -0.34419194 -0.60650855 0.5967523 0.584527 0.0015749516 0.5545042 -0.58082825 -0.4716463 -0.2259353 -0.8455212 0.45734873 0.37886593 0.046886116 -0.50343555 0.46914923 0.054072175 -0.015778529 -0.34040952 1.1081901 0.052266452 -0.029551879 -0.69312334 -0.22383273 0.17819746 0.31644633 -0.065414235 -0.42056006 -0.09533551 -0.6193875 -0.39412785 -0.51993114 0.28128728 -0.32311055 0.41454569 0.7964944 -0.27111462 -0.28386426 0.14992374 -0.034260698 -0.8817041 -0.46483567 0.9860863 -0.54596764 0.28865474 0.9589677 0.07229558 -0.07546865 0.40063637 -0.20605394
438 0.9633282 -0.19836964 0.05455061 -0.07037593 -0.8074414 -0.37782654 -0.18619137 -0.51113075 0.004091933 0.45086116 0.14511447 -0.64582634 -0.092284024 -0.17844722 0.42399883 -0.07840228 -0.027463047 -0.1410974 0.04172152 0.106075555 0.16104753 0.15731438 0.38865513 0.3544424 0.14228845 0.11825154 0.2797068 0.45667595 0.82702416 -0.030028947 0.90803784 0.06838425 0.4044337 0.42239064 -0.17619649 0.5394116 -0.576014 0.4980598 0.25570524 -0.44603777 -0.31267652 -0.21635003 0.23089938 -0.07883034 0.010546508 0.3549403 0.37546796 -0.24734409 -0.069053225 0.027994689 -0.16867886 0.12456184 -0.73221207 0.17325245 0.54665905 -0.45231092 -0.06483994 0.34307244 -0.14085424 0.72974324 0.10636583 -0.20203196 -0.2925548 -0.295826 0.037800603 0.121998124 0.19028698 -0.63323575 -0.15255876 0.061163586 0.69395924 -0.5540404 -0.5073468 0.51368177 0.07326742 -0.33648753 0.45697778 -0.10960099 -0.15825999 -0.07938141 -0.058422122 0.3587636 0.21317081 0.62797475 -0.30289796 -0.4075256 0.36765942 0.055436697 0.4177767 0.08808815 -0.086455606 0.15695624 0.101585865 0.42902425 -0.23928155 0.1500865 0.2973621 0.30530348 0.12406089 -0.6401922 -0.23558697 -0.04543414 -0.016734963 0.11821458 0.36817035 0.46865943 0.041136384 -0.25006694 -0.38344675 0.6379575 0.075978585 0.4202601 -0.026279375 -0.087148964 -0.05816617 -0.056464784 -0.6279451 0.75093055 0.260618 0.25512603 0.29197153 -0.0663846 -0.005517281 -0.77158237 -0.5277261 -0.22508849 0.34038928 -0.07555591
1484 0.20612416 0.20190716 0.2052006 -0.3803235 -0.47693133 0.27277005 0.40218723 -0.0052534677 -0.3257296 -0.061021067 0.327841 0.23368706 0.5365402 0.6342357 -0.043573834 0.019637082 0.036970787 -0.3653694 -0.45954034 -0.5136586 0.2097464 0.67325896 0.5112782 0.2366962 -0.2031119 0.10902586 -0.3838856 -0.08428363 0.41803944 -0.057094675 -0.10299134 0.06136191 -0.0496699 -0.639306 -0.31152576 -0.2675015 -0.5247871 -0.121335916 0.35469025 -0.83251 -0.7892573 0.025194021 -0.45661432 0.08718458 0.28489354 0.049539488 -0.03139788 -0.45404217 0.4239255 0.18353423 -0.6866161 -0.065918855 -0.024178745 0.41479504 0.5287795 0.25449863 0.30520707 0.33363008 0.58719146 0.6363785 0.19641334 -0.2098374 0.84551954 -0.5508148 0.62133443 0.69307274 0.15212154 -0.45469096 -0.42602015 -0.03445091 -0.2959939 -0.43577364 0.37266383 -0.45003965 0.668535 -0.13199556 0.16142929 -0.6578709 -0.18029451 0.62299037 -0.10922991 0.47414413 0.30348137 0.20077337 0.033687383 -0.45025545 -0.08755712 -0.26396468 -0.111806005 0.22708671 0.25962085 -0.028755976 0.17657508 -0.081685126 -0.098267965 0.22813308 0.354807 0.1981298 0.32983416 -0.0625579 -0.2937051 -0.4259182 -0.46234375 -0.515592 1.0203273 0.012115848 0.27497283 -0.40450996 -0.16596961 0.08875244 -0.22203605 1.0050335 -0.455681 -0.08573757 0.06859373 -0.16945511 0.46048066 0.0029099889 -0.27081606 -0.028770922 -0.05746935 0.29194885 -0.2788786 0.4377919 -0.34811515 -0.33041537 0.20937441 0.011879534
738 0.36951673 0.6519146 0.1777365 -0.28146255 -0.17206876 0.46170753 -0.23806773 0.40048012 -0.047364958 -0.21150923 -0.5086691 -0.80680966 0.81609154 -0.0026131833 0.31702784 0.16516665 -0.30777133 -0.2914684 -0.04634446 -0.12712547 0.3321607 0.14791836 0.7020485 -0.01728997 0.023866784 0.06311106 -0.23664819 0.47777843 -0.3376496 -0.22446291 0.2221204 0.2250409 0.6532677 0.22068681 -0.22803892 0.68472344 -0.032057066 0.054274574 -0.037374813 -0.44423062 0.20622563 0.34075102 -0.47479436 0.021061523 -0.6732847 -0.16992669 -0.07355116 0.130723 -0.4489348 0.25268084 -0.5543426 0.31862742 0.1328075 -0.042460583 0.5404448 -0.1881908 -0.10916918 -0.06370283 0.008857266 -0.012113071 -0.12023362 -0.44129792 0.011457217 -0.8295746 -0.2780683 0.17783482 0.4362557 0.067073785 0.29282424 -0.67532575 -0.57936335 -0.24573459 0.17003803 0.3900592 0.33353895 0.169332 -0.3004435 0.28343135 -0.061753433 -0.25698385 -0.416639 0.013728337 0.4608464 0.69103354 -0.159121 -0.29748997 0.6596694 -0.14603843 -0.34060824 -0.15240936 0.14644697 0.69640124 0.15100257 0.17384066 -0.028057003 -0.25400338 0.1252379 -0.11645662 -0.5661161 -0.017506046 -0.4257685 -0.7474828 0.30160204 0.2833751 -0.118852794 -0.08861451 0.3507465 0.62100005 0.14919336 -0.09452325 0.0055958945 0.18949178 0.19927855 0.16022669 0.2189543 -0.22753891 -0.30041495 -0.40370023 -0.31891623 0.51256984 0.2503706 0.18353982 -0.18143892 0.062011544 -0.032532986 -0.05237756 -0.5083755 -0.2504971
2175 0.22554907 -0.2055373 0.17640965 0.5275406 0.3865298 0.3517303 0.024387201 0.25882638 -0.11696264 -0.17588331 -0.266706 0.26390517 -0.5226412 -0.07944978 0.7415843 -0.7081121 0.25342536 -0.34818262 -0.16246098 0.12796848 0.01819566 0.07756213 -0.78694814 -0.91217935 0.6741613 0.06696088 -0.12034825 0.26681703 -0.17615022 -0.14173777 -0.1980083 -0.38720718 -0.17179541 0.060378868 -0.032423247 0.7475478 0.06273772 -0.25570318 -0.49371454 -0.6010836 0.08116785 0.14447212 0.2929331 -0.25880536 -0.6067463 0.1379749 0.11530467 -0.17365098 0.3250606 0.26947302 -0.3358909 0.18159133 0.26449695 0.27310106 0.4038887 0.090165384 0.011891125 0.006434468 0.5548975 0.5891218 0.3417092 -0.06492961 0.17795946 -0.03573224 0.30439538 0.21549697 0.1455642 0.43443388 -0.15615846 0.042576987 0.32282865 -0.32566848 -0.24360706 -0.14066088 -0.070257865 -0.708718 -0.29326376 -0.6079745 -0.8333605 -0.13766935 0.24329422 -0.10466841 0.089572154 0.07342424 0.52863526 -0.74667686 -0.09940821 0.20831804 -0.14753275 0.35017458 0.7399991 0.49527863 -0.116927296 -0.16343634 0.09467843 -0.2339394 0.069193274 -0.09922286 -0.38510677 -0.15752678 0.052069962 -0.15621045 0.32358035 -0.3087105 0.1972454 0.08113321 0.094811864 0.2525758 -0.00085393956 0.8389773 0.28573573 0.061258346 0.17078105 -0.27648473 0.10545506 0.49623886 0.13778426 0.62748975 -0.25453117 -0.13001384 0.25601158 0.45952788 0.18812391 -0.38839278 -0.4648472 -0.05556835 0.0004388164 -0.26674896
558 0.27798828 0.46705592 -0.5024184 -0.6268797 -0.075729094 0.13303038 -0.30186698 0.43826464 0.074742965 -0.43486452 -0.21148567 -0.33490795 -0.054628886 -0.8489403 0.3207511 0.38014647 -0.25720894 0.3765771 0.24454525 0.040243372 -0.46351153 0.016426643 0.2279808 -0.48346522 0.070429176 0.026824169 0.3257319 -0.1438369 -0.087933704 0.03509037 0.39917308 0.16203505 0.31696695 0.18541695 -0.4390608 -0.20673275 0.043439813 -0.15194024 0.6765717 -0.25189495 -0.20449068 0.6691009 0.00782287 0.44131583 -0.46524918 0.16433454 -0.3786468 -0.097748235 -0.2334922 0.35257074 -0.114792086 -0.06283484 0.013465413 -0.28910252 0.2553078 0.17315842 -0.19165973 0.7415546 0.32328507 0.7854702 0.34987375 -0.17496432 -0.42679518 -0.90192807 -0.10868007 -0.11571319 -0.10236027 0.35028276 -0.32696036 0.7525883 -0.23594014 -0.19472454 -0.035924993 -0.089158416 -0.007849896 0.15676816 0.43909052 0.013959906 -0.20324895 0.5725979 -0.1258415 -0.5632706 0.29258332 0.5728475 -0.2084246 -0.7839185 -0.008421269 0.059187237 -0.6507584 0.25632074 -0.45569164 0.21177493 -0.29159227 0.3155083 0.12955745 -0.25792876 0.22870609 -0.34561116 0.070463955 -1.020974 -0.9075473 -0.1130113 -0.024336759 0.14057359 0.74770457 0.27642554 -0.3980888 0.07942128 -0.91974384 -0.17316407 0.028554035 0.15756087 0.9944955 0.12130014 -0.7257265 -0.037287347 0.24589497 -0.030963931 -0.19976565 -0.51146394 -0.30901703 0.16951752 -0.26439473 -0.18251045 0.31933317 -0.12019198 -1.1142521 -0.104350366
1687 0.050488085 0.69889414 0.08398024 -0.30371624 0.011885216 0.29093674 0.12599581 0.21983862 -0.40443057 0.51188517 0.47160476 0.16606522 0.09298107 -0.37008563 0.64009047 0.28148147 -0.591548 -0.4373535 0.23536977 0.10277223 -0.70873123 -0.21690251 0.34840563 -0.05170214 0.26955858 0.2690464 0.33534485 -0.40741056 0.16304763 -0.6460036 0.033106323 0.5861434 0.48096862 -0.22990239 0.1212307 0.25685045 -0.089690015 0.050785545 0.5509274 -0.41512287 0.5365522 0.73625 0.41898772 0.40030608 -0.42926466 -0.21455972 0.42891172 0.104567714 0.27813628 0.17059673 -0.16967909 0.1416768 0.62195426 0.04114527 0.5441348 -0.13018078 -0.05690685 1.069323 -0.26435605 0.420578 0.19632788 -0.32879913 0.09648524 -0.5996626 -0.24706174 0.07343654 0.046275374 -0.024219872 -0.03765264 -0.033383846 -0.509309 0.124118894 -0.72868377 0.2505392 0.25421983 -0.9126215 -0.60751337 -0.22143693 -0.35136202 -0.22564827 0.18787698 -0.31669128 -0.15019624 0.5171372 -0.3216366 -0.5281411 0.03995232 -0.017294643 -0.2738726 -0.010697215 0.102975786 -0.06867506 0.07923045 0.502771 0.59521973 -0.94253904 0.18312073 -0.27229425 -0.32525855 -0.0641799 -0.07773195 -0.015602362 -0.42927045 0.2857186 0.28459552 0.0047650645 0.4089615 0.08135006 -0.12732792 -0.11584941 -0.09580045 -0.47673833 0.29153496 -0.06904561 0.26507357 -0.115352556 -0.048230372 -0.4930261 -0.44879964 0.77582556 -0.09476104 -0.046572052 0.06867677 0.05434696 -0.076616354 0.18637651 -0.31764346 -0.17869811
