34 64
33 -0.048030302 0.06512815 0.003699134 0.01012747 -0.1723709 -0.043870054 0.05418759 -0.25187254 0.135022 -0.06542302 0.24371496 0.18305236 -0.2103817 -0.09194035 -0.32658884 -0.022279652 -0.22406392 0.04624952 -0.33743984 -0.3137873 0.06258689 0.20546775 0.04760942 -0.13760635 -0.106630065 0.31865072 -0.10817388 -0.0805955 -0.1334262 0.08288902 0.19074823 -0.06903296 0.10010703 -0.24483939 0.044427965 -0.21738906 0.061212674 -0.03490861 -0.08999331 0.11636094 -0.06545926 0.0061637936 -0.11195846 -0.1967172 -0.07475501 -0.02453303 -0.023271991 -0.21062592 0.28734475 -0.19799438 0.23881836 0.084218234 -0.17195922 -0.21767657 0.0854104 0.3085412 -0.1447407 -0.29300424 -0.18621197 0.0071336487 -0.39522925 -0.29653683 -0.011130165 -0.12145494
0 0.109266296 0.06887466 0.033921644 0.29767767 -0.13124363 -0.1298906 -0.15906453 -0.081375785 -0.31198344 -0.2639261 0.08498014 0.031676643 0.034366235 0.032233812 0.04629754 0.10430724 0.17815582 -0.28153238 -0.080482855 -0.2565079 0.059705857 -0.0054757134 0.09541309 0.057735924 0.2679807 0.077690236 0.1476399 -0.18902643 0.28578845 -0.19780596 0.035030443 -0.04395399 -0.09427274 -0.1561273 -0.057565704 -0.20309973 0.059243146 0.10006106 -0.064542316 -0.07774796 -0.067512125 -0.1415088 -0.02304548 0.08820788 0.09136955 0.061837196 -0.13848712 -0.17277376 0.30652058 -0.1955781 -0.078416705 0.32286382 -0.3352994 -0.15352896 0.30579585 0.32012936 -0.14948803 0.19632053 -0.15423864 0.17436987 -0.1625349 -0.3254187 0.004715576 0.09035143
32 -0.11556465 -0.0046631545 -0.081962466 0.04752582 -0.19628525 -0.10404627 0.077522136 -0.3324634 0.068453856 -0.122855775 0.2751033 0.14872894 -0.32593527 -0.11794708 -0.18819429 -0.08055823 -0.27879262 0.0018363269 -0.427521 -0.19628929 0.03253997 0.22049676 0.17075741 -0.117932014 -0.21619551 0.314406 0.016033009 -0.11903884 -0.23180711 0.20758133 0.31023124 -0.084848456 0.19130313 -0.36469835 0.06421461 -0.33290517 0.038399827 -0.047870316 -0.079115756 0.12991455 -0.30311352 -0.08437055 -0.1388731 -0.06479853 -0.05749362 -0.115321055 0.012050396 -0.2081973 0.24367373 -0.06000995 0.10943821 0.14405161 -0.17349596 -0.24496698 -0.08873265 0.27301964 -0.15446807 -0.41068292 -0.253898 -0.03283951 -0.37363064 -0.30006593 -0.090781994 -0.14278178
2 0.07170397 0.102007814 0.040726 0.067456305 -0.21879496 -0.14063533 -0.15483694 -0.08804359 0.014186638 -0.20185034 0.11110818 0.2018738 -0.13007054 -0.00038071896 -0.021529576 0.05136965 -0.0705538 -0.25749952 -0.061361145 -0.3703594 0.03676653 0.08586724 -0.08953926 -0.006422963 0.22231883 0.1337968 0.08042886 -0.10494033 0.18469158 -0.10850929 0.09908659 -0.25137958 -0.02187623 -0.1863663 0.12869075 -0.15292884 -0.026571462 0.09179669 -0.08220221 -0.104005486 0.08604289 -0.124275476 -0.11788637 -0.061341688 -0.12311896 0.10423982 -0.19286734 -0.28017926 0.30887896 -0.19999678 0.19906022 0.18527126 -0.23684075 -0.2452153 0.3328114 0.23004195 -0.05104239 -0.01748967 -0.027018847 0.08450573 -0.15480846 -0.23926008 -0.0842356 0.13438822
1 0.11244307 -0.004079911 0.17894149 0.18333164 -0.09751793 -0.18912877 -0.23462605 -0.027768122 -0.14083879 -0.24856958 0.08565873 0.06517213 -0.000783473 0.118295 -0.13123314 0.33723703 -0.049750477 -0.22797784 -0.106043875 -0.4494293 0.15363374 0.107451215 -0.1093952 0.13786364 0.44462723 0.17453726 0.10017668 -0.20461208 0.4796726 -0.111236945 0.025399303 -0.1774929 -0.0055837925 -0.17281783 0.18812072 -0.27453795 0.052611563 -0.04171708 -0.17065522 -0.16367838 0.0037523555 -0.1936213 0.039129287 -0.04177593 0.07069918 0.21554837 -0.16805144 -0.34345812 0.25579482 -0.20671454 0.044414267 0.16426295 -0.3332657 -0.35421646 0.3075277 0.33802262 0.041367125 0.0033185948 -0.20517692 0.14434682 -0.14186436 -0.3272857 -0.061981577 0.25401524
31 0.046387058 0.31061688 -0.14126265 -0.09522361 -0.34651884 0.0031914683 -0.084530935 -0.11020201 0.19399396 -0.0693488 0.20085105 0.4597625 -0.23066433 -0.19145322 -0.16516292 -0.17629215 -0.12864637 -0.12994197 -0.0965042 -0.32056847 -0.06549579 0.051465303 -0.03890559 -0.2503681 -0.061315086 0.24212 -0.13263601 0.0551186 -0.16186197 0.005131072 0.121882915 -0.188363 -0.1281541 -0.16919306 0.013694274 -0.050305583 -0.11625753 0.11470461 -0.004287027 0.009400969 0.26158223 0.07933862 -0.32580283 -0.2283015 -0.30813804 0.045100957 -0.15244496 -0.23157747 0.44700736 -0.29445168 0.4444518 0.060385533 -0.18826741 -0.16848832 0.3339964 0.25085545 -0.1609184 -0.043778397 0.02203614 0.004461685 -0.27570307 -0.14941922 -0.08128434 -0.044282787
23 -0.061481018 0.33330494 -0.27611977 -0.16387334 -0.32000044 0.08241225 0.03092688 -0.11671104 0.15982465 0.025883 0.26388544 0.46265468 -0.28079632 -0.25416103 -0.31833023 -0.20471779 -0.22388329 0.0036678985 -0.25830847 -0.18384133 -0.090004876 0.022152664 0.09812486 -0.37781435 -0.29411885 0.43724188 -0.25906426 0.17369305 -0.38297945 0.21533729 0.19434494 -0.013384352 -0.068897106 -0.22206996 -0.036875106 -0.109560244 -0.16752438 -0.021640263 0.070739634 0.094888225 0.10750709 0.18827924 -0.30323926 -0.273024 -0.29965407 -0.034248114 -0.06638111 -0.14538217 0.49616003 -0.2873047 0.3688296 -0.03581667 -0.19073685 -0.11681027 0.099454954 0.27988407 -0.29145455 -0.098191746 -0.076184385 -0.14224602 -0.41514346 -0.11144041 -0.06581925 -0.2471352
3 0.09138667 0.04104808 0.101295196 0.21067356 -0.11688583 -0.2267328 -0.24239609 -0.042219408 -0.109390356 -0.32438612 0.11577154 0.08983097 -0.09625502 0.049995404 0.054707695 0.26365462 -0.011800066 -0.3700268 -0.02140107 -0.43669087 0.09156165 0.08160253 -0.08814569 0.09155129 0.42524123 0.06740779 0.11955618 -0.18477298 0.4019171 -0.1568064 0.082972735 -0.32738486 -0.0256832 -0.23911068 0.18136594 -0.23943429 -0.016378812 0.09708632 -0.08592228 -0.18555827 0.010501321 -0.2142601 -0.01669139 0.013851453 0.017457029 0.18189384 -0.21843335 -0.3587829 0.3684537 -0.20041294 0.074965104 0.25182834 -0.3140999 -0.34594738 0.39520773 0.2712375 -0.030233428 0.018362444 -0.078790076 0.13045382 -0.13742806 -0.33458275 -0.12418874 0.3016944
8 -0.046665877 0.07087214 -0.06296106 0.07222487 -0.22449127 -0.08888442 0.021315068 -0.23648295 0.015588207 -0.14912908 0.23727521 0.16922009 -0.1650557 -0.09516736 -0.1627301 -0.10364988 -0.13785514 -0.039372616 -0.28927523 -0.2618569 0.051564176 0.12067702 0.12666522 -0.09791956 -0.13091671 0.2525453 0.03859363 -0.10442411 -0.09628077 0.09515762 0.22423534 -0.07623628 0.08001151 -0.2755395 0.03348411 -0.2795913 0.043667577 -0.0068752137 -0.04295016 0.07602135 -0.12815548 -0.045486122 -0.12971626 -0.074946135 -0.053703375 -0.07485894 -0.061986566 -0.1252239 0.25967368 -0.12416327 0.1053193 0.14062355 -0.22311908 -0.14854857 0.0420979 0.27549756 -0.14067957 -0.2092537 -0.24115135 0.006198757 -0.28672868 -0.27030677 -0.023296809 -0.097014226
13 0.023020511 0.05301164 0.100028165 0.119928755 -0.14449678 -0.19863574 -0.17404528 -0.091495775 0.046057962 -0.2292181 0.115693346 0.16486372 -0.16263646 -0.0042652767 0.009442452 0.12591387 -0.070571855 -0.28659216 -0.0018152923 -0.4357868 0.039448503 0.13014726 -0.13443543 0.053064145 0.33787832 0.037060864 0.06674328 -0.13396125 0.27668422 -0.11782888 0.12132377 -0.37730578 0.019241381 -0.23325685 0.15195148 -0.15271103 -0.012778984 0.13175078 -0.07552171 -0.15052524 0.032474488 -0.14962976 -0.056421496 -0.054633632 -0.059946146 0.13159855 -0.17591275 -0.34227857 0.32464197 -0.16239801 0.1857283 0.1761127 -0.2206931 -0.3313318 0.38232672 0.22467488 -0.045601953 -0.10299622 -0.0042988816 0.13332388 -0.15081765 -0.29193527 -0.10248117 0.231821
29 -0.104123406 0.17598349 -0.1488003 0.030092834 -0.15578328 -0.029391233 0.1340284 -0.23330767 -0.0011833999 -0.054377235 0.36327168 0.13717945 -0.20678231 -0.15122724 -0.38993862 -0.08452794 -0.14326175 0.114834175 -0.43969935 -0.21478422 0.012518092 0.12561452 0.22459556 -0.2826904 -0.31110084 0.42021665 -0.17632042 0.00086717075 -0.31615996 0.25580552 0.28448933 0.070592135 0.110569246 -0.2932206 -0.07565573 -0.30402198 0.018534418 -0.10396454 0.020213513 0.20502128 -0.2286987 0.066504724 -0.08668066 -0.17888889 -0.039326444 -0.10759688 -0.008164601 -0.09468578 0.40602028 -0.193291 0.053693764 0.105318226 -0.23293191 -0.13167387 -0.0874822 0.34820792 -0.3380571 -0.23198728 -0.30833027 -0.09661097 -0.4697896 -0.26645753 -0.00413594 -0.2535298
30 -0.020086458 -0.072568186 0.09060027 0.101019576 -0.16352129 -0.14072691 -0.10914586 -0.2270858 0.05918298 -0.2038167 0.15363863 0.13328475 -0.1967079 -0.00847438 -0.14098556 0.15764637 -0.23246582 -0.12638417 -0.23862518 -0.36292523 0.1110372 0.23022565 -0.04323518 0.017240323 0.12012818 0.20341499 0.045325276 -0.18654805 0.14639762 0.013505706 0.1621731 -0.20361727 0.109456785 -0.2888847 0.17480807 -0.2659604 0.056411915 -0.030301776 -0.14412954 -0.034850087 -0.10242781 -0.14750567 -0.051363077 -0.06642933 0.013325762 0.07641906 -0.07193279 -0.30972552 0.21532075 -0.13526079 0.17684197 0.14883506 -0.21740152 -0.31846762 0.13815337 0.25560614 0.030508839 -0.30517814 -0.17351213 0.06475053 -0.26335928 -0.3622149 -0.075670816 0.10987619
5 0.13629644 0.08881144 -0.13616577 0.6615606 -0.23362611 -0.03558272 -0.09170533 -0.29431897 -0.7059633 -0.38807192 -0.040334616 -0.14609466 0.11335589 -0.02189589 0.31685287 -0.08586161 0.5082712 -0.5612036 -0.20199037 -0.008553322 -0.11667998 -0.15117125 0.3866882 -0.1011883 0.05827933 0.03314183 0.24753559 -0.4058974 0.09508845 -0.5886316 0.034444008 0.32520702 -0.16367908 -0.12837261 -0.45585513 -0.13956784 0.22335435 0.49849412 -0.09234928 0.052645843 -0.19028872 -0.13746966 -0.122088544 0.29509845 0.132667 -0.23406999 -0.094524 -0.15646811 0.5552625 -0.2556053 -0.16300394 0.85671896 -0.48236507 0.114057295 0.41021684 0.40445846 -0.42607987 0.59917694 -0.12801184 0.32009616 -0.32457495 -0.5815597 0.15452248 -0.11261782
6 0.11898443 0.08854913 -0.12635346 0.59595025 -0.16241223 0.0037722639 -0.05945658 -0.23417808 -0.636139 -0.33731547 -0.051776297 -0.1602813 0.1363611 -0.016208353 0.2739058 -0.07498833 0.4985928 -0.48328945 -0.17324798 0.0066117654 -0.09833511 -0.17220783 0.36762184 -0.09994335 0.07159518 0.021843456 0.2094754 -0.32966787 0.084745675 -0.5477326 0.00050386693 0.32843068 -0.15272509 -0.10385286 -0.44954705 -0.093378946 0.20608607 0.44567034 -0.06257056 0.04416673 -0.15837234 -0.086488485 -0.076851375 0.2505797 0.1493891 -0.2077716 -0.049955998 -0.09829315 0.504322 -0.2204605 -0.1708998 0.7482098 -0.42117518 0.13421285 0.36899897 0.3618588 -0.4046315 0.57567066 -0.101503566 0.29709902 -0.29540902 -0.5079732 0.15991317 -0.12414438
27 0.0106407 0.3232252 -0.27285567 -0.097939365 -0.33432564 0.03139955 -0.065451294 -0.074174665 0.12764479 -0.06886472 0.22438392 0.42614996 -0.24404952 -0.24499072 -0.10997599 -0.21919473 -0.08783976 -0.16728166 -0.100281514 -0.1680306 -0.14218572 -0.03573793 0.046348285 -0.33645794 -0.2026258 0.25206193 -0.17841917 0.11580311 -0.293586 0.090278246 0.16761306 -0.10470992 -0.15243152 -0.1525917 -0.04571401 -0.036612995 -0.17361027 0.123745784 0.10824309 0.03316973 0.20828637 0.10075873 -0.32109377 -0.17625906 -0.3417215 -0.0024764142 -0.15295032 -0.170703 0.5379105 -0.29278755 0.34519497 0.086042024 -0.20671423 -0.085785106 0.22635911 0.19123182 -0.2871228 0.05001878 0.06554788 -0.11599206 -0.25203484 -0.062068325 -0.0995724 -0.1151051
24 0.005247268 0.3789982 -0.2559324 -0.19852024 -0.42342946 0.037850756 -0.07558253 -0.13702737 0.30373007 -0.017292678 0.25703323 0.6079411 -0.36820158 -0.3286515 -0.20604911 -0.2930966 -0.1983729 -0.14427148 -0.106251426 -0.27118942 -0.17601468 0.032401793 -0.0386681 -0.4037736 -0.21839043 0.29683492 -0.26102495 0.14758255 -0.38757202 0.08144155 0.19187392 -0.21885319 -0.17761996 -0.17531976 -0.007319755 0.028075166 -0.22695655 0.15795395 0.08244453 0.046101928 0.31481802 0.14589597 -0.42652905 -0.30000666 -0.4805215 -0.0026883201 -0.15004034 -0.2620093 0.60285634 -0.37868845 0.5844465 0.03788445 -0.17219876 -0.15933448 0.33631492 0.2130978 -0.27566707 -0.06313845 0.14792535 -0.09402352 -0.34836897 -0.08367469 -0.120841965 -0.14050184
7 0.039414983 -0.021226184 0.07310013 0.29443112 -0.11552012 -0.14825973 -0.16698872 -0.14582637 -0.20941326 -0.2980758 0.0065242853 -0.016355146 -0.031461257 0.052282415 0.18434177 0.13506575 0.09838153 -0.38887542 -0.040243164 -0.26088363 0.028300758 0.05699039 -0.023808707 0.091963224 0.31512254 -0.00058470824 0.16425082 -0.23744734 0.31547642 -0.2954598 0.07264484 -0.16217491 0.013929243 -0.18599138 0.0015029632 -0.15762919 0.09568364 0.23062791 -0.08127899 -0.13969025 -0.071402796 -0.17410327 0.0053992765 0.13381098 0.09393091 0.025168281 -0.15514524 -0.26861575 0.27417377 -0.12290456 0.018570535 0.40031072 -0.27438432 -0.19520414 0.35805202 0.21335511 -0.08765238 0.11292331 -0.035171464 0.18962194 -0.15063456 -0.40185076 -0.008011741 0.17034358
25 0.032026205 0.47877133 -0.33563069 -0.16750534 -0.43074986 0.14131543 -0.023562524 -0.08788383 0.19007386 0.037671003 0.23900065 0.5975022 -0.2568423 -0.33983734 -0.2715907 -0.3454341 -0.08473285 -0.09111112 -0.13231662 -0.17073637 -0.18797502 -0.06585999 0.061722036 -0.4934016 -0.33773357 0.36587623 -0.32181987 0.20006666 -0.45742163 0.060160242 0.10768114 0.0024168342 -0.25285217 -0.11458631 -0.15013406 0.07122502 -0.21279925 0.14615566 0.099393226 0.11887404 0.3773963 0.25379914 -0.45516935 -0.31749243 -0.45358503 -0.038340468 -0.13084705 -0.1491858 0.6330507 -0.42765316 0.5392529 0.026449366 -0.21361488 -0.013385365 0.31536376 0.26250193 -0.34874347 0.111507006 0.08776796 -0.11191272 -0.38376406 -0.06424894 -0.032762647 -0.25604415
10 0.04124813 0.10893252 -0.124953024 0.4979886 -0.19462577 0.0075657265 0.02734289 -0.30284926 -0.54217774 -0.28782222 0.017430766 -0.06466269 0.11010883 -0.039480507 0.21216463 -0.18186295 0.40458348 -0.35874218 -0.2208257 -0.035676077 -0.06862847 -0.10051022 0.33794454 -0.07212716 -0.047310334 0.08096752 0.18328096 -0.28500658 0.028075695 -0.44481334 0.083204664 0.24129035 -0.08839337 -0.15849334 -0.39582935 -0.16206458 0.20457172 0.3850216 -0.031544596 0.06928127 -0.18697973 -0.03944111 -0.084994785 0.22045866 0.16213757 -0.2576283 -0.06306046 -0.025035989 0.38754922 -0.17030823 -0.12880936 0.65474653 -0.39291295 0.11245457 0.32632574 0.3492291 -0.37178662 0.40709662 -0.18230206 0.2759077 -0.36625353 -0.51429564 0.1819028 -0.21235664
4 0.09404191 0.13537826 -0.059877288 0.5138653 -0.20697103 -0.02291762 -0.085943416 -0.20227766 -0.5783774 -0.30260286 -0.026358327 -0.04749331 0.18589146 0.0012732529 0.21995586 -0.09188955 0.4745748 -0.41397923 -0.09511686 -0.10382374 -0.045192074 -0.14214945 0.2560405 -0.011131874 0.12680009 0.018501982 0.19904721 -0.2955864 0.19418092 -0.51576847 -0.018413408 0.22677086 -0.1731019 -0.08403545 -0.3746697 -0.10684047 0.18612339 0.40734005 -0.051798854 -0.0053853854 -0.064497195 -0.05807675 -0.08028062 0.22152284 0.15237641 -0.18045092 -0.11529275 -0.06436649 0.394538 -0.21077976 -0.12214426 0.62642103 -0.42198864 0.10071038 0.43791303 0.36950102 -0.32536656 0.54004705 -0.1406582 0.31846014 -0.23913155 -0.46519688 0.18850325 -0.09722416
18 -0.029716985 0.12019792 -0.01297198 -0.015548203 -0.22562647 -7.1467366e-05 0.11401778 -0.30187342 0.14989875 -0.032852694 0.24800317 0.22664729 -0.18287383 -0.08066074 -0.36884913 -0.18227428 -0.17210823 0.12944122 -0.37600031 -0.30916613 0.044896312 0.20040113 0.062101986 -0.1626316 -0.2033101 0.35302225 -0.07871171 -0.056628942 -0.16984414 0.12693249 0.23664409 -0.020161455 0.110767044 -0.23612316 -0.027005233 -0.21603027 0.08903958 -0.0731104 -0.100715324 0.17561904 -0.03405605 0.018095927 -0.14639187 -0.22333616 -0.065384634 -0.066691905 -0.04727108 -0.11171395 0.18172716 -0.15640613 0.2521973 0.054206055 -0.16762222 -0.1826517 0.049255744 0.3200334 -0.15498108 -0.31493285 -0.263471 0.02828053 -0.4081457 -0.29130417 0.040414866 -0.20713156
19 0.10132044 0.12213527 0.068128236 0.16489045 -0.18635106 -0.11979904 -0.14210881 -0.08543414 -0.13413091 -0.177386 0.08548508 0.15328059 -0.014214629 0.022671988 -0.07962747 0.07078162 0.041242667 -0.21654385 -0.07424595 -0.3673426 0.05160071 0.034238186 -0.016876508 0.034949653 0.26610118 0.14481409 0.08601575 -0.15267818 0.26351795 -0.15934618 0.03390228 -0.13079797 -0.06652842 -0.1554131 0.03721694 -0.16396958 0.02289262 0.0797072 -0.12555692 -0.07695062 0.046896342 -0.11558202 -0.09355669 -0.047138534 -0.03257695 0.09218061 -0.16371599 -0.23557395 0.3088722 -0.23171493 0.1090492 0.19936703 -0.28068507 -0.20857944 0.35161352 0.3230746 -0.082177535 0.07888661 -0.12955514 0.17250666 -0.19020313 -0.28379735 -0.019935867 0.09890247
28 0.06815952 0.086689666 0.03307203 -0.027396614 -0.18091406 -0.025421526 -0.10807783 -0.14795442 0.18204933 -0.098779224 0.17792484 0.21771777 -0.22181314 -0.07349519 -0.27360493 0.11676481 -0.22012632 -0.090382166 -0.1813309 -0.36190325 -0.003042682 0.1647093 -0.1042434 -0.17188531 0.0981367 0.25569057 -0.11793894 -0.055079177 0.029250171 0.034565583 0.12572242 -0.19265778 0.0025869028 -0.19658294 0.11377908 -0.115432955 -0.025687272 -0.043012146 -0.10834859 0.0059231967 0.13402443 -0.043723553 -0.10685252 -0.24588484 -0.13753204 0.17129654 -0.09407308 -0.3250377 0.37703907 -0.28968853 0.32535538 0.07599951 -0.15300839 -0.3229467 0.22086109 0.24283265 -0.058911093 -0.2063297 -0.021733178 0.003493885 -0.3155911 -0.28054515 -0.08709247 0.09551873
21 0.17564322 -0.03543388 0.16930898 0.27094004 -0.13131401 -0.08825381 -0.26828024 -0.07418857 -0.2751271 -0.26730847 -0.05682411 0.022111624 0.09226688 0.113559335 -0.0010711793 0.25544253 0.13634004 -0.33111674 -0.015705047 -0.31015727 0.078869246 0.052008994 -0.11760009 0.12804422 0.4599936 0.07315153 0.12675233 -0.26658258 0.5135824 -0.3412996 -0.072886184 -0.07135017 -0.10356446 -0.049930945 0.017299261 -0.12069101 0.11972873 0.12725794 -0.1949677 -0.18990378 0.10827012 -0.17376395 0.03356983 0.04214263 0.074633315 0.1564331 -0.14681977 -0.3132298 0.23394257 -0.23181605 0.065464616 0.32618695 -0.34658214 -0.23402683 0.43589324 0.29338634 0.010337869 0.23645446 -0.06470711 0.23962165 -0.11802113 -0.35382697 0.031652756 0.20680004
26 -0.020330666 0.20915112 -0.07818842 -0.016504971 -0.14495577 -0.0007110109 0.05744967 -0.15369703 0.041055728 -0.042352322 0.35691044 0.18664686 -0.14772448 -0.12108999 -0.48801628 0.04722425 -0.16405995 0.1157172 -0.3679896 -0.31217512 0.037258346 0.14304686 0.0883352 -0.29598403 -0.17471415 0.45752248 -0.25078616 0.04354145 -0.15965018 0.24344108 0.23835006 0.014285028 0.0482486 -0.24385521 -0.012609912 -0.27592123 -0.0012546147 -0.17901124 -0.0049666176 0.1467787 -0.04865044 0.07149181 -0.05237844 -0.27201247 -0.03844052 0.046977054 -0.07358271 -0.13904725 0.42956066 -0.28623778 0.13893245 0.024191009 -0.23214735 -0.2178384 0.020327572 0.36728725 -0.26631218 -0.18548812 -0.2894745 -0.10690057 -0.4625637 -0.28087226 0.0035031962 -0.15166889
14 -0.07142674 0.08254047 -0.05575463 0.0039217803 -0.16948763 0.0037049253 0.14988026 -0.32597068 0.08239307 -0.028286062 0.2558221 0.15435441 -0.2037545 -0.08862819 -0.38296285 -0.18035631 -0.18901913 0.16664928 -0.45005834 -0.24832642 0.04728708 0.18852569 0.15543889 -0.16776586 -0.2571133 0.39360404 -0.08210493 -0.078322254 -0.23967543 0.20243682 0.26901004 0.059616864 0.1563692 -0.27956063 -0.035206866 -0.28006163 0.10399178 -0.094838545 -0.098247275 0.19839281 -0.18237272 0.013834161 -0.11434595 -0.17421414 -0.018475981 -0.13089149 0.006318982 -0.109444536 0.16891633 -0.10266293 0.1435821 0.06596453 -0.16875996 -0.16392575 -0.07350768 0.34572774 -0.1934758 -0.3446478 -0.3379008 -0.0010435272 -0.42124975 -0.28757945 0.03450247 -0.25790468
22 -0.03326566 0.083354615 -0.027299024 -0.09906512 -0.24128103 -0.008473659 0.101123616 -0.34951732 0.24863741 -0.03144207 0.33002543 0.29879326 -0.2925241 -0.15082127 -0.45629895 -0.13678122 -0.36315125 0.16655125 -0.4446925 -0.36823937 0.059622668 0.27678275 0.03173132 -0.21702409 -0.24161084 0.45615268 -0.12583575 -0.07107566 -0.23782994 0.23504005 0.28856555 -0.12293913 0.12265365 -0.30117786 0.09977037 -0.29892233 0.04448524 -0.11164406 -0.114447355 0.1714496 -0.06375997 0.023161152 -0.18612337 -0.3128616 -0.13383847 -0.02489523 -0.0019493598 -0.20532322 0.25082728 -0.19165511 0.35672423 0.015422311 -0.15074985 -0.2955065 -0.0026089961 0.33645412 -0.12312166 -0.4744884 -0.27429843 -0.041597173 -0.49216887 -0.32000262 -0.053064488 -0.19773434
16 0.1369587 0.16993615 -0.23242989 0.6874047 -0.2497694 -0.032429557 -0.15407147 -0.19201086 -0.83405966 -0.45635715 0.010393711 -0.12326833 0.120975226 -0.043400895 0.4073364 -0.05423779 0.57012683 -0.6406371 -0.20187353 0.07700465 -0.123111 -0.2846668 0.5008063 -0.13662784 0.07468179 0.072990686 0.27510533 -0.3349167 0.060764365 -0.530374 0.037616283 0.40591797 -0.24684152 -0.15688723 -0.50277376 -0.1939291 0.15018496 0.4706555 0.024082119 0.024153277 -0.19087508 -0.13976827 -0.13657701 0.36791 0.13217036 -0.20617662 -0.14131209 -0.09084694 0.6650023 -0.2853932 -0.29994333 0.8787865 -0.56735575 0.1345259 0.38349757 0.41938758 -0.5113169 0.75434184 -0.15001225 0.242568 -0.258834 -0.5253447 0.10784629 -0.10140323
15 -0.02284656 0.12921673 -0.07487131 -0.07760716 -0.24566549 -0.0645342 0.052272663 -0.2887543 0.22391216 -0.07144652 0.3274257 0.2698243 -0.31457952 -0.18588309 -0.2532096 -0.16315155 -0.2746787 0.056610297 -0.31516755 -0.29476672 0.0022100774 0.23215012 0.006594087 -0.24541444 -0.27838266 0.3314475 -0.13104475 -0.06041033 -0.3072639 0.20364691 0.30393767 -0.19032249 0.0714676 -0.26645353 0.091079354 -0.25028458 -0.01582987 8.99022e-05 -0.038872674 0.15304253 -0.026748981 -0.014528058 -0.2312423 -0.2174524 -0.18906884 -0.053170983 -0.06974332 -0.20052244 0.26064867 -0.16179931 0.32886735 0.088833645 -0.13064694 -0.20605955 0.023731206 0.22333631 -0.10786595 -0.38675448 -0.16374098 -0.08781135 -0.3458334 -0.24058488 -0.11540392 -0.10738858
17 0.113056146 0.020776138 0.09003888 0.37884024 -0.12740074 -0.19925767 -0.24055745 -0.09452624 -0.32522964 -0.37079245 0.041988846 -0.001619343 0.023674238 0.06862582 0.1782235 0.23283303 0.19546247 -0.44131455 -0.027497314 -0.32792595 0.05999602 0.02925867 -0.023904035 0.094615966 0.40360248 -0.0043167584 0.15864329 -0.27878284 0.4234989 -0.3463741 0.039872065 -0.17621762 -0.086553186 -0.16068077 0.01077858 -0.21344763 0.06964208 0.2497993 -0.0817814 -0.16879788 -0.036322504 -0.19882342 -0.006962132 0.13166034 0.12480856 0.09811507 -0.2016 -0.30225405 0.35060814 -0.20942286 -0.008878697 0.45066512 -0.3779731 -0.21923217 0.45977128 0.27849144 -0.08151147 0.22720625 -0.09194636 0.22270422 -0.1574105 -0.43040198 -0.03706018 0.22396848
9 0.007601524 0.12648924 0.0041808304 0.0034962299 -0.23135576 -0.16771157 -0.08612997 -0.15757088 0.16941974 -0.18436657 0.22039285 0.25763768 -0.25646392 -0.074874625 -0.048109178 -0.104962066 -0.13469797 -0.17982835 -0.11136404 -0.39050087 0.013323597 0.14427592 -0.054937094 -0.047802176 0.11997009 0.13306727 0.05865914 -0.054728184 0.022502389 0.007495092 0.21328019 -0.35251644 0.04053561 -0.2697927 0.12561372 -0.17679775 -0.0432605 0.09672587 -0.03527484 -0.053003468 0.031861335 -0.11301934 -0.15993491 -0.10003186 -0.1789286 0.032146145 -0.17257409 -0.2557241 0.3155449 -0.15530834 0.2623733 0.14786893 -0.18156952 -0.29696298 0.27863687 0.23078525 -0.12780675 -0.194677 -0.01960542 0.063598655 -0.20658143 -0.24149686 -0.105713874 0.073251195
20 -0.11057196 0.0585101 -0.0111432 -0.043566454 -0.23269975 -0.110824995 0.09606828 -0.33518496 0.18366171 -0.039955635 0.25880867 0.26923963 -0.25879785 -0.09693042 -0.2590884 -0.17698304 -0.33223665 0.07591521 -0.40291342 -0.33038756 0.114539154 0.24237765 0.12113555 -0.045234714 -0.18353532 0.35876918 0.030900704 -0.083581 -0.1703349 0.1850869 0.27100387 -0.15009193 0.19213639 -0.3638102 0.14751244 -0.3391262 0.028586607 -0.075143434 -0.09440391 0.09542358 -0.22746672 -0.027413128 -0.17211479 -0.13578041 -0.06957125 -0.12606135 -0.0028247936 -0.14041576 0.12686121 -0.044156402 0.22765766 0.006174195 -0.12580086 -0.25120947 -0.0488431 0.31002527 -0.06657979 -0.47911072 -0.31747314 0.034325935 -0.39502558 -0.3000494 -0.031401075 -0.18156312
12 0.09542929 -0.010659571 0.16535547 0.34716308 -0.027665582 -0.25171033 -0.21314378 -0.061157525 -0.23306246 -0.3453656 0.08042658 -0.06465827 0.0034233239 0.09807554 0.058970828 0.31495515 0.119164094 -0.33065498 -0.048028085 -0.42784747 0.1355075 0.08577367 -0.0385968 0.17442665 0.46451277 -0.017793082 0.146598 -0.29097703 0.49464872 -0.2410122 0.05281252 -0.22743028 0.008748333 -0.21234429 0.091914006 -0.2438374 0.10136441 0.14333475 -0.12278577 -0.14158174 -0.10889482 -0.21939193 0.061596297 0.07294593 0.18717006 0.12827237 -0.16178343 -0.32728848 0.28171504 -0.13522986 -0.03875687 0.32025078 -0.33775622 -0.29390627 0.37808904 0.3038287 -0.011309425 0.06573369 -0.17216487 0.22469565 -0.12556128 -0.40301412 -0.05426307 0.30353048
11 0.27576458 0.31445438 0.0049495036 0.16868569 -0.2954409 -0.12388395 -0.33968696 0.179366 -0.36610332 -0.23694813 0.020476023 0.24256507 0.18637136 0.046770014 0.0093106525 0.06579609 0.29626125 -0.3867414 0.16398181 -0.36433348 0.01190771 -0.22190723 -0.035482243 0.06091755 0.47149542 0.12016148 0.14689027 -0.097543165 0.47824773 -0.26971096 -0.13923287 -0.041688647 -0.35292011 0.04193762 0.011149233 -0.09599195 -0.1027821 0.121834405 -0.091132045 -0.19102734 0.31754464 -0.12873113 -0.18338096 0.01559482 -0.15700388 0.20064014 -0.34259617 -0.20299627 0.4449018 -0.37387833 0.02509684 0.2042886 -0.4604485 -0.11004113 0.5474317 0.3672868 -0.1548556 0.57771176 -0.06238166 0.17518085 0.053728104 -0.083399616 -0.047737423 0.19219202
