34 64
0 -0.21953143 0.022256779 0.093243256 0.11032213 -0.053806636 0.1751624 -0.005611499 -0.14115459 0.20507416 0.1518531 0.04082847 -0.10139842 0.21133932 -0.10913391 0.17601627 0.05984681 0.10485159 -0.13829048 -0.06669661 -0.09239796 0.020634675 0.2963134 0.105553955 0.014894373 0.03411487 -0.14762314 0.17870747 0.1317822 0.1834051 -0.2610507 0.08847471 -0.13414794 -0.28071928 0.16746904 0.23720261 -0.111465745 0.03139904 0.018071966 0.0006063788 0.057831053 -0.12856926 0.08942345 -0.18139721 -0.045637697 0.38831648 0.1567362 -0.2852054 -0.08214734 0.06784171 -0.17605372 0.081504434 0.30970517 0.13079013 -0.02179421 -0.09210509 -0.2753177 0.23347971 0.20000252 -0.0748943 0.25027183 -0.20641378 0.2642826 -0.3713304 0.08772617
33 -0.10021538 -0.018275734 -0.058522236 -0.010214381 -0.07874024 -0.049864076 -0.014989903 0.0152314305 -0.19392167 0.23857147 -0.20902872 -0.28478324 0.3583627 -0.05794448 0.10385794 -0.27421322 -0.006577843 -0.24479707 -0.32281867 0.073271774 0.11112414 0.13710527 0.21021831 -0.23595305 0.046654858 -0.2651237 -0.12782782 -0.019273493 -0.02086944 -0.5907998 0.24437237 -0.37445298 0.051724624 0.21971387 -0.20762053 0.22811824 -0.30449405 -0.056542646 0.45074165 0.08443836 0.12468328 -0.32416505 0.080131054 0.15974495 0.5169684 0.17359026 -0.2609935 -0.11954401 0.17710613 -0.069313586 -0.16019538 0.07172084 -0.18622564 -0.18296954 0.04753918 -0.10052913 -0.14809148 0.0046116463 -0.25663525 0.025813218 0.22211064 0.26299584 -0.24144652 0.27672273
32 -0.17832547 -0.00092862616 0.0039077443 0.07749854 -0.08217142 -0.068136804 0.0081239175 0.10164795 -0.256396 0.20081247 -0.14642243 -0.391293 0.24224989 0.027622974 -0.031606875 -0.28216976 0.02863875 -0.21288751 -0.32034275 -0.0010656848 0.038740672 0.09769097 0.17906795 -0.24474923 0.06570853 -0.10865 -0.09054235 -0.010415246 -0.03592363 -0.46211895 0.1667324 -0.35615715 -0.004239803 0.22619173 -0.27744842 0.08576651 -0.30938575 -0.06611255 0.41375664 0.12944244 0.15607797 -0.26762614 0.11808289 0.28135434 0.35183683 0.065796606 -0.22844921 -0.123414576 0.19022769 -0.022049423 -0.22090746 0.100522585 -0.40060452 -0.056968745 -0.0038277751 -0.16955985 -0.16712548 0.039899718 -0.16181277 -0.026065731 0.13033098 0.24835709 -0.29750833 0.26179948
2 -0.06869876 0.033432566 0.07486077 0.0750821 -0.056051448 0.012021845 0.08457423 0.029719245 0.08284776 0.117579184 0.023440553 -0.27730626 0.1517653 -0.09095075 -0.018132575 0.0287453 0.038603514 -0.05291696 -0.16875392 -0.11326519 -0.11088714 0.1868747 0.07375352 -0.033621207 -0.016037904 0.03445977 0.20635322 0.13426419 0.13969845 -0.22055139 0.02448967 -0.16614728 -0.2777255 0.06358325 0.040494516 -0.19625027 0.0048270756 0.13845706 0.06788671 0.16378182 -0.015617745 0.06777435 -0.034973443 0.21347032 0.22934726 0.096703485 -0.25272632 -0.048977617 0.045241043 -0.073169366 0.03281901 0.26291823 -0.14679715 0.034592688 -0.055893254 -0.2769846 0.17311752 0.22719473 -0.05793879 0.10429545 -0.118234076 0.26851195 -0.39991528 0.112894766
1 -0.20925456 -0.048421048 0.011362755 0.17283504 -0.10740921 0.17388579 -0.054238245 -0.25240323 0.24149369 0.25733328 0.022283258 -0.20934586 0.07015286 -0.053302534 0.09235207 0.024862275 0.02558246 -0.025254235 -0.0007416009 -0.1743703 0.00083985896 0.32105878 -0.014075498 -0.05303525 0.02860625 -0.06372239 0.19346078 0.12317063 0.24540947 -0.20488352 0.1287838 -0.07833011 -0.22374463 0.13503905 0.23843051 -0.16724642 0.04263653 -0.0070756585 -0.015347211 0.0720054 -0.028467042 0.034868658 -0.17018218 0.088997886 0.2677994 0.028402034 -0.17489098 -0.046544693 0.07653677 -0.17014065 0.08529926 0.28377768 0.009687845 -0.0074228505 -0.16687928 -0.33205813 0.20001198 0.2962614 0.017864315 0.26311973 -0.26822406 0.15268521 -0.50512576 0.05414291
3 -0.005800032 0.015171938 -0.1846005 0.092579804 -0.09252205 -0.06738342 0.14869505 -0.1072711 0.13941675 0.26718563 -0.21094835 -0.5657335 0.10325328 -0.19705705 0.09062036 0.06526711 0.1462172 0.1612506 -0.10395465 -0.036427964 -0.17908105 0.5295011 -0.13697293 -0.055313736 0.045498706 0.03112334 0.26175082 0.15873516 0.18580766 -0.32659 -0.17674546 -0.0015400546 -0.105505325 0.03289545 0.17468889 -0.14177911 -0.10425055 0.13572545 0.28181875 0.15674004 0.24388938 -0.21447344 -0.16023788 0.3664737 0.109364316 -0.003709263 -0.052403085 0.020670144 -0.13155861 -0.13336983 -0.08767329 0.25867122 -0.06123534 -0.020235315 -0.0003891308 -0.5382585 0.12364344 0.33977085 0.002237368 0.26058045 -0.2510001 0.2784492 -0.63083494 0.028709397
31 -0.2065936 0.070000604 0.12043402 0.0041415817 -0.010944073 -0.14722146 0.1100117 0.27249426 -0.34065017 -0.014793245 -0.125783 -0.3127258 0.32285413 0.0694719 -0.035887577 -0.16616224 0.19641873 -0.27763212 -0.40089813 0.119926535 -0.025804183 0.044691473 0.23117734 -0.11054689 0.06836361 -0.11204345 -0.0012329705 0.009113882 -0.148911 -0.3743113 0.03966346 -0.37536263 -0.0931952 0.22752935 -0.29976368 0.043699116 -0.23155627 0.09942149 0.3673916 0.117248744 0.047835622 -0.079415925 0.12251877 0.22690594 0.29214016 0.15202615 -0.26531735 -0.08494082 0.20787005 -0.018235978 -0.26992103 0.11460154 -0.37720084 -0.016197996 0.13198783 -0.1802239 -0.17961478 -0.014581947 -0.20441656 -0.116985746 0.12775885 0.3460934 -0.1307758 0.2721778
13 -0.1403288 0.028894583 0.050740987 0.0304395 -0.058770508 0.047820743 0.042169783 0.008489882 0.057988796 0.07810207 -0.0354804 -0.19093311 0.16923994 -0.13321222 0.110508725 0.05078597 0.11824371 -0.07173831 -0.11932905 -0.05590274 -0.053658262 0.25072378 0.0745536 0.03166146 0.015129928 -0.069452934 0.17484796 0.07915244 0.10280372 -0.25749856 -0.009094172 -0.10437552 -0.2115481 0.11000027 0.08947172 -0.099345185 -0.022777313 0.08113168 0.12330481 0.09598556 -0.040117424 0.041904114 -0.094926536 0.07274661 0.2576873 0.09880763 -0.21068819 -0.051085103 0.032803334 -0.12416673 0.00240439 0.26890934 0.0076515363 -0.02221019 -0.033142388 -0.27271518 0.14676793 0.16138946 -0.08520442 0.15796813 -0.13694811 0.2961378 -0.32817888 0.086266406
23 -0.21876587 0.064235225 0.12018512 -0.024638815 -0.020060148 -0.0817344 0.037854355 0.31954867 -0.349634 -0.06419628 -0.11992185 -0.23909289 0.296114 -0.03921105 0.0067390245 -0.15573122 0.19492805 -0.31650743 -0.34336773 0.033031065 -0.02135107 0.015582463 0.25441065 -0.07596417 0.05422511 -0.12750445 0.03720844 0.0077926097 -0.051995084 -0.39135486 0.051791422 -0.3331403 -0.15393406 0.1877604 -0.2666122 0.05587471 -0.20604408 0.09176357 0.3830013 0.11576998 -0.006498427 0.01831976 0.13070725 0.15852848 0.30113056 0.16745812 -0.32868385 -0.079522744 0.18997166 -0.012665789 -0.22530141 0.15409563 -0.2357443 -0.018535415 0.10963086 -0.16635334 -0.15375043 -0.009864979 -0.20012094 -0.10212742 0.1354338 0.33828294 -0.034927007 0.26819682
6 -0.39484408 0.120818 0.3674739 0.05560283 0.076110795 0.31866887 -0.16962297 -0.06756645 0.20620032 0.029877154 0.16535966 0.07794498 0.23506607 -0.14603804 0.3998522 0.17101736 0.17306353 -0.3151695 -0.10863151 -0.3206872 0.007542138 0.20316313 0.21942598 0.29897803 0.08000758 -0.26317766 0.27218696 0.22345388 0.37968054 -0.1797092 0.1750713 -0.13137302 -0.64631456 0.3410309 0.46595636 -0.17008062 0.0966397 0.06932558 -0.37003246 0.036068678 -0.45833284 0.5100822 -0.22794719 -0.21145006 0.46346295 0.06932983 -0.40288183 -0.061846692 0.16115063 -0.19005097 0.2746177 0.52542675 0.18940827 0.023831708 -0.2072637 -0.3439988 0.4416917 0.17076865 -0.15555902 0.39429477 -0.3210547 0.35550368 -0.35723478 -0.0502918
5 -0.3913868 0.11756203 0.34609523 0.06891514 0.018250825 0.2497405 -0.06481428 -0.00015529525 0.18596125 -0.058690574 0.17466454 0.069360286 0.22811869 -0.13362844 0.29729792 0.214243 0.23101251 -0.27891764 -0.124817215 -0.22974034 -0.043829326 0.2094478 0.21582094 0.29506883 0.009228648 -0.17833562 0.333658 0.20185733 0.2722507 -0.15171574 0.10043532 -0.14038244 -0.62050164 0.25115648 0.39225748 -0.24028704 0.1854785 0.17420417 -0.29318175 0.08020839 -0.42425945 0.54575557 -0.22198048 -0.17927001 0.39345697 0.11914 -0.42272452 -0.043180726 0.15340018 -0.20608893 0.24241121 0.5180726 0.16936944 0.04327214 -0.16313842 -0.32277372 0.4082424 0.1608956 -0.12080557 0.29848516 -0.31516677 0.4068686 -0.32238233 0.009032788
8 -0.18390706 -0.027651176 0.021851027 0.07499011 -0.08964282 0.050879173 -0.024938218 0.0016027964 -0.08620694 0.16835544 -0.07600245 -0.2023267 0.1930354 -0.025954355 0.0008514563 -0.14933434 -0.023602163 -0.12776665 -0.2056876 -0.056450695 0.03509276 0.10400657 0.15559755 -0.14849608 0.033375897 -0.09272995 -0.040511165 0.016071629 0.0589971 -0.32301357 0.16210432 -0.23812075 -0.054550674 0.16769154 -0.13577886 0.028417062 -0.16101758 -0.06911266 0.23394547 0.103455774 0.053781856 -0.14491369 0.049606223 0.13446973 0.32681414 0.0643611 -0.19113043 -0.1396603 0.14356549 -0.051942278 -0.082447976 0.14110418 -0.2240894 -0.03762918 -0.035320405 -0.1248882 -0.031960294 0.0835754 -0.11360339 0.03721887 0.025584036 0.19080003 -0.29592648 0.20154643
27 -0.20534378 0.015450202 0.018336544 -0.05482769 -0.08571032 -0.0928225 0.083719455 0.31539246 -0.32620445 -0.09229379 -0.18418956 -0.24785179 0.30874476 -0.09979579 -0.017195977 -0.11683054 0.236653 -0.25023344 -0.3035182 0.14384072 -0.016039196 0.11910036 0.24306977 -0.102497905 0.035947092 -0.12241374 0.07270197 -0.042406008 -0.12429413 -0.46864083 -0.013205423 -0.26627788 -0.053872652 0.1388286 -0.3220407 0.05686074 -0.20154792 0.10099331 0.55244696 0.15353467 0.08944626 -0.09796334 0.11435023 0.14581443 0.31072012 0.22202729 -0.29315618 -0.13604774 0.14307913 -0.038530387 -0.25971162 0.15985417 -0.15105605 -0.060696058 0.19980107 -0.14795741 -0.21501084 0.011683794 -0.16693579 -0.14682919 0.10681246 0.41105112 -0.03568252 0.33343384
7 -0.07603084 0.0153416395 -0.124866575 0.084728464 -0.09014332 -0.03589947 0.11127415 -0.16639464 0.14251581 0.24968664 -0.1725492 -0.37301227 0.1911398 -0.123227075 0.14955638 0.029637404 0.16461278 0.039616864 -0.09123164 0.066148624 -0.07217844 0.4516833 -0.06716847 -0.056028873 0.056637544 -0.098387964 0.17112565 0.11206036 0.0906515 -0.34506187 -0.086769365 -0.06462122 -0.05149186 0.08861894 0.18045792 -0.03003121 -0.060681365 0.0648129 0.23247248 0.0747931 0.16802341 -0.19104624 -0.19633554 0.18967712 0.22373012 0.076300584 -0.09034685 -0.011057643 -0.029386546 -0.19394481 -0.08612014 0.22741447 0.045824952 -0.09704028 -0.014035435 -0.4057034 0.096201584 0.22133741 -0.056431834 0.25443035 -0.1715702 0.2692389 -0.48771906 0.05395516
30 -0.17945725 -0.048710845 -0.056536894 0.040918477 -0.119674854 0.03651477 -0.058467023 -0.004271875 -0.09266127 0.13507015 -0.14523315 -0.18549156 0.18154798 -0.12015496 0.08791302 -0.13914129 0.027267087 -0.15008365 -0.1359745 -0.022752406 0.04286485 0.16764343 0.123606175 -0.14571987 0.054367505 -0.14612925 0.018874232 -0.006154693 0.07105051 -0.4121677 0.12408247 -0.1811374 0.000102622085 0.13984476 -0.06748529 0.08234187 -0.16708551 -0.06320869 0.3392323 0.06966263 0.08369877 -0.1583834 0.0012247115 0.066815704 0.3319883 0.10895978 -0.19242539 -0.10948662 0.106582515 -0.09650415 -0.08215353 0.15080754 -0.024508514 -0.087286845 -0.02330358 -0.1522265 -0.055617608 0.0818662 -0.10678799 0.06245229 0.026755765 0.2249043 -0.22944951 0.17371741
28 -0.17693537 0.03107347 0.08799453 -0.0011706294 -0.03571459 -0.023659565 0.045364637 0.107972965 -0.16897969 0.06973627 -0.11466953 -0.2088531 0.26756394 -0.02904272 0.06592528 -0.08987246 0.10382068 -0.14508113 -0.29326332 0.02891676 -0.005216735 0.11876853 0.16370523 -0.06362374 0.046155073 -0.12868549 0.0021537663 0.013005802 0.008153277 -0.32022107 0.08585262 -0.27083096 -0.10341371 0.20471933 -0.12813091 0.04530714 -0.16196303 0.053225853 0.22789456 0.08622642 0.00883818 -0.061603054 0.060035866 0.12186876 0.32785845 0.091632806 -0.20237048 -0.103153616 0.16487563 -0.04188 -0.13812503 0.18749382 -0.2211286 -0.05271127 0.089526676 -0.1967716 -0.03232923 0.056717563 -0.20294403 0.031494122 0.031173546 0.28907672 -0.2548923 0.20510772
19 -0.24151354 -0.0915647 -0.07392268 0.09110122 -0.16776805 0.104452305 -0.035397388 -0.15365627 0.05819887 0.102344036 -0.13151081 -0.11177033 0.1450172 -0.10968711 0.1503073 -0.008731006 0.067862466 -0.05914598 -0.07125474 0.007122703 0.031960823 0.28694493 0.063634194 -0.04668389 -0.00419456 -0.14678168 0.13060811 0.011384116 0.11027926 -0.34280497 0.14946823 -0.07970931 -0.041792117 0.11678399 0.1169754 0.02261786 0.015268715 0.030980645 0.2094879 0.05451439 0.026647199 -0.03270795 -0.12815905 -0.0131026115 0.29433826 0.08139204 -0.14562106 -0.118025914 0.13866106 -0.1576231 0.04634015 0.25248578 0.10746752 -0.12711738 -0.029348088 -0.2121324 0.04404868 0.13781475 -0.029817877 0.16503 -0.13748156 0.25863445 -0.33712953 0.13704486
29 -0.090528645 -0.032060772 -0.1520559 -0.09119488 -0.102759704 -0.080520876 0.007837557 0.04673339 -0.2146184 0.10488681 -0.30745798 -0.22514132 0.3280313 -0.14459094 0.17689332 -0.1909378 0.14933677 -0.22222765 -0.22929956 0.19496393 0.087543875 0.23423587 0.14350621 -0.18182832 0.038966984 -0.30311447 -0.023024917 -0.05374253 -0.07750987 -0.5957449 0.112048365 -0.2594354 0.13037038 0.1583949 -0.14441615 0.2585217 -0.2521821 0.017180203 0.5770627 0.040145237 0.15811563 -0.29733643 0.027570983 0.07143914 0.43596485 0.22760905 -0.22165191 -0.0549046 0.13050805 -0.10902639 -0.22393326 0.059769664 0.05369354 -0.22079685 0.14913987 -0.14577739 -0.21013041 0.002484518 -0.23708284 0.012366979 0.18787724 0.30105466 -0.09560664 0.2561752
4 -0.530453 0.1189318 0.37403628 0.13094985 -0.047680102 0.28386682 0.01460339 0.09910167 0.1420407 -0.17433508 0.20857613 0.04036748 0.18655646 -0.09526208 0.14629573 0.26911587 0.28911757 -0.22994983 -0.12706469 -0.23082678 -0.0830572 0.24993046 0.26519948 0.26553068 -0.017123474 -0.026198333 0.44038525 0.16030145 0.20263924 -0.09831312 0.018047476 -0.14219123 -0.6561146 0.2370638 0.28592545 -0.39981902 0.24083859 0.20598206 -0.21683888 0.14451416 -0.4284337 0.606682 -0.18228272 -0.1650141 0.35062858 0.1415531 -0.44042462 -0.12802887 0.17762244 -0.18589225 0.18814261 0.5756275 0.064458184 0.11598664 -0.085823774 -0.37563628 0.36698315 0.2337517 -0.06519603 0.19258395 -0.42137253 0.47181657 -0.34930626 0.10847253
24 -0.31653118 0.124505416 0.26602504 -0.024531728 -0.02051808 -0.21834658 0.24507108 0.66032135 -0.5357008 -0.38849965 -0.0905521 -0.29221472 0.39702815 0.044914585 -0.16788772 -0.05258705 0.43630293 -0.4333202 -0.54363686 0.1756036 -0.14753811 -0.037517183 0.38068834 0.013941679 -0.011926446 0.0013950248 0.25839835 0.01727187 -0.28359672 -0.39292163 -0.08668352 -0.43072474 -0.33533004 0.1703375 -0.47010586 -0.12510595 -0.08679354 0.37992337 0.47959176 0.271053 -0.07182517 0.26892704 0.18490565 0.24371372 0.23323828 0.2898806 -0.47523353 -0.11709393 0.2846966 0.025010342 -0.301143 0.26809672 -0.4484005 0.055689286 0.24999703 -0.2066004 -0.23273009 -0.045792233 -0.18048577 -0.31478623 0.10806416 0.6444208 0.038975958 0.42312434
10 -0.48890853 0.10277507 0.37750286 0.07578505 -0.030647917 0.26336107 0.021555454 0.17786697 0.06547792 -0.19136283 0.18861404 0.028468696 0.18783145 -0.09586837 0.13109858 0.2524927 0.25645298 -0.19600081 -0.1598699 -0.2099512 -0.07003663 0.20717475 0.28544563 0.2675775 0.001098739 0.002056046 0.3689585 0.12028817 0.1604127 -0.09644152 0.00705875 -0.1318222 -0.60891134 0.23880522 0.17596 -0.3560966 0.16427448 0.1740287 -0.16640179 0.15093715 -0.4100747 0.5425031 -0.122719966 -0.16229509 0.3423234 0.11963296 -0.39935118 -0.17917444 0.16132554 -0.11926166 0.14654383 0.5418394 -0.029470704 0.12801775 -0.009893319 -0.3233772 0.31255025 0.19941193 -0.07280253 0.15124792 -0.37645867 0.4745297 -0.3216987 0.14517194
25 -0.1925148 0.12732404 0.17931846 0.015661608 0.005605349 -0.25469437 0.22195487 0.48537695 -0.41364866 -0.20786154 -0.0975777 -0.35986754 0.3403334 0.06779266 -0.14850342 -0.08032157 0.337977 -0.3241303 -0.4692558 0.15053412 -0.15063675 -0.0010430993 0.24955972 -0.04766447 0.021201158 0.0067747803 0.19246274 0.055059735 -0.21680139 -0.3360589 -0.09158045 -0.38860118 -0.2390326 0.13062946 -0.36572486 -0.08472382 -0.11062433 0.31283417 0.40385303 0.21486142 0.022195453 0.13080049 0.14578933 0.32443944 0.16237877 0.2155466 -0.35993207 -0.034473702 0.21430229 0.012280857 -0.29206008 0.18243062 -0.43308496 0.05220361 0.15457988 -0.23152645 -0.18547381 -0.009590913 -0.14731789 -0.2199305 0.10680464 0.4922946 -0.06974597 0.31552553
16 -0.34076026 0.22340256 0.49014455 -0.06904182 0.16521542 0.2341349 -0.12156443 0.12602344 0.12358736 -0.16012014 0.19921063 0.20369938 0.32951844 -0.24164496 0.51728153 0.25855315 0.302393 -0.4428053 -0.20262206 -0.27167323 -0.05970123 0.09960618 0.29279953 0.47926652 0.053903885 -0.3366464 0.33025846 0.26565215 0.33859277 -0.17895688 0.09212818 -0.15946375 -0.79532963 0.31969997 0.5120484 -0.14489509 0.16245839 0.24395417 -0.44874245 0.03339318 -0.60295063 0.7414162 -0.24560866 -0.30362487 0.46921852 0.16241987 -0.5243755 0.024559276 0.14834166 -0.1991309 0.30664688 0.57799834 0.32950965 0.02315956 -0.16630508 -0.29939458 0.5138746 0.026029326 -0.26008588 0.3845048 -0.25172883 0.49233997 -0.1527209 -0.09223922
12 -0.35244596 0.071944736 -0.0006177318 0.18444584 -0.06544304 0.060209677 0.03784555 -0.13405845 0.116438635 0.22771023 -0.08830748 -0.40701893 0.096552946 -0.051822532 0.16014813 0.084582694 0.2170883 0.062443033 -0.04738744 -0.1269769 -0.08423328 0.4807424 -0.045636415 0.0394703 0.15247406 0.0036328016 0.22295555 0.13967818 0.18731433 -0.18400952 -0.15493569 -0.043213177 -0.16779488 0.22236894 0.2633465 -0.19273631 -0.1066023 -0.04088375 0.07651448 0.049542833 0.09034476 -0.06964069 -0.21629398 0.14808531 0.14015627 -0.061904985 -0.044354685 -0.04383855 -0.02998927 -0.18584992 -0.08562837 0.32177252 -0.09372921 0.063827455 -0.067537025 -0.57201713 0.11834399 0.29241294 -0.012606432 0.2734406 -0.38183135 0.24588786 -0.6098386 -0.02224948
15 -0.10769148 -0.02624518 -0.020028248 0.02037234 -0.09955433 -0.055843785 0.019116145 0.1135385 -0.23880611 0.14632514 -0.18165854 -0.2872373 0.2868735 -0.035729256 -0.011267353 -0.21497583 -0.00094829884 -0.15919322 -0.3223718 0.04513545 0.02870478 0.095373616 0.18320385 -0.21974526 0.042105064 -0.1328607 -0.09556718 -0.031534653 -0.030430801 -0.44720078 0.15421988 -0.3208256 0.034179397 0.16505449 -0.28413355 0.1332145 -0.27000538 -0.027168775 0.43663818 0.12038926 0.13282706 -0.263057 0.13078563 0.2118283 0.37588692 0.12012171 -0.2130628 -0.1387147 0.17643902 -0.029662307 -0.20367487 0.09701101 -0.29355595 -0.09460327 0.071857095 -0.11395346 -0.15029053 0.027744161 -0.19922161 -0.044383448 0.16625324 0.244295 -0.23883122 0.2906153
9 -0.09865172 -0.020191101 0.08178918 0.0112716425 -0.044158712 0.044515893 0.042931072 0.11575095 -0.17990367 0.18141633 -0.09032487 -0.3092932 0.27842534 -0.010311067 -0.076125205 -0.1517409 -0.05765281 -0.07644526 -0.33535635 -0.06425422 0.020501995 0.09141773 0.2359574 -0.17072141 0.028919768 -0.061269563 -0.0693572 0.008749655 0.068191215 -0.36762595 0.17732076 -0.31657517 -0.11239953 0.18164414 -0.2971164 0.0031760782 -0.27707198 -0.012477563 0.26676124 0.18356957 0.024721164 -0.18828557 0.18176022 0.23089886 0.38961238 0.05324124 -0.19526744 -0.21556135 0.15173185 0.044873986 -0.124746405 0.15536182 -0.4151173 -0.009582609 0.17828433 -0.1476165 -0.068658456 0.17052338 -0.20432402 -0.04549811 0.061522048 0.22160119 -0.36376137 0.33401194
18 -0.111361034 -0.08297089 -0.15052444 0.082261495 -0.14557813 0.011619977 -0.03051846 -0.23785804 -0.07437223 0.41134045 -0.24846259 -0.30096012 0.32631505 -0.01392588 0.094264954 -0.29577056 -0.08005342 -0.15315452 -0.25331044 0.10233692 0.1604769 0.2449237 0.14116587 -0.31846604 0.03692702 -0.29460102 -0.17217702 -0.02075463 0.0018088131 -0.5946929 0.32318273 -0.33917284 0.1812522 0.2245717 -0.12759268 0.26018992 -0.27799758 -0.15849285 0.44024798 0.04082389 0.19436805 -0.46135095 0.024114372 0.14904739 0.55115986 0.1267749 -0.17244527 -0.12680224 0.19282101 -0.12717485 -0.15315479 0.04265938 -0.15278327 -0.22300139 -0.0013902595 -0.108218014 -0.1483215 0.07469436 -0.20363718 0.10329512 0.15707953 0.17084484 -0.41113502 0.2819136
17 -0.123632126 -0.018246923 -0.0009521425 0.20448476 -0.13347258 0.1587119 0.027495058 -0.29166558 0.39912477 0.2707011 0.04717176 -0.2302871 0.10588129 -0.16146079 0.11129232 0.12714744 0.007503828 0.016001238 -0.013472388 -0.20544516 -0.110955745 0.3905378 -0.04137115 -0.007269497 -0.059014995 -0.0065163206 0.34499413 0.22671591 0.30640697 -0.22251014 0.10789916 -0.06951244 -0.34850723 0.041380584 0.39349428 -0.2679772 0.20058675 0.12792918 -0.07620813 0.12627092 -0.05644161 0.13608842 -0.24352142 0.13256837 0.3118282 0.10825947 -0.27329627 -0.0062478296 0.033209946 -0.21460424 0.21304189 0.38477135 0.09558433 -0.00938263 -0.27090704 -0.39649925 0.39283794 0.36421493 0.033676036 0.35658273 -0.31729266 0.25560513 -0.66120344 0.015262941
14 -0.34345055 -0.058395833 0.011674984 0.10641398 -0.08795673 0.17156745 -0.12714289 -0.13193302 -0.10517685 0.28147548 -0.124955475 -0.19573884 0.2901369 0.08775988 0.08180161 -0.2724274 0.012743574 -0.21156272 -0.16691823 0.00059914496 0.22781281 0.19775032 0.22719432 -0.23458615 0.14033106 -0.28214812 -0.19894603 -0.07031572 0.015551288 -0.45873368 0.24898456 -0.31501678 0.07699087 0.354313 -0.15413618 0.1830497 -0.3389225 -0.2867119 0.32455105 0.011845569 0.057235766 -0.33494923 0.03123096 -0.007476816 0.50889975 0.062232267 -0.15494592 -0.2299858 0.22908323 -0.12112293 -0.18457134 0.096513435 -0.19313397 -0.12997238 0.061063033 -0.15170184 -0.18947405 0.075155385 -0.19321774 0.053648353 0.035329983 0.11395206 -0.27114752 0.28506184
22 -0.19868262 -0.06921211 -0.08184892 0.07564851 -0.073892675 0.10351936 -0.14985758 -0.20428227 -0.112004764 0.43925336 -0.18266904 -0.2757012 0.28841582 0.031263582 0.13758796 -0.31367576 -0.12596698 -0.16004124 -0.24364313 -0.035215277 0.20632142 0.19354028 0.16929844 -0.27241358 0.10640653 -0.29954165 -0.2966937 -0.027599916 0.09698474 -0.4999597 0.33633775 -0.3314514 0.12917955 0.3343476 -0.12593243 0.26412472 -0.41289175 -0.28499547 0.29863778 0.019371657 0.11911664 -0.45245835 0.06515369 0.0975613 0.5476043 0.006516478 -0.116285704 -0.19067527 0.19016473 -0.08046206 -0.16500464 0.03451847 -0.27806732 -0.15295793 -0.005590798 -0.12024436 -0.14482857 0.053057678 -0.24730667 0.13985673 0.13643079 0.06632876 -0.39070228 0.23160413
21 -0.21007165 -0.004144446 0.15235898 0.18798569 -0.07659866 0.25494623 -0.08820891 -0.30512545 0.38897333 0.2360241 0.16502233 -0.05675667 0.13492662 -0.1155059 0.1788385 0.06370883 -0.022411836 -0.201432 -0.023479337 -0.25639924 0.0056059877 0.25354388 0.060673505 0.013318477 -0.046494517 -0.15787716 0.2993165 0.22840908 0.33591467 -0.26492843 0.29126057 -0.14188245 -0.47260824 0.15160994 0.4159852 -0.21648166 0.22779751 0.076290764 -0.23828244 0.08890651 -0.22641984 0.2916057 -0.26546806 -0.017502995 0.4409944 0.13500926 -0.4028567 -0.004632362 0.1506664 -0.22141092 0.316366 0.40106985 0.16219927 -0.04313735 -0.3805413 -0.2740597 0.4453493 0.27720088 -0.0047285287 0.38487732 -0.2793 0.2536738 -0.5390001 0.0014389856
20 -0.318899 -0.018837744 0.093164034 0.11117774 -0.035934485 0.059841562 -0.07969608 0.021313118 -0.24721077 0.21613842 -0.09978258 -0.20480372 0.33105275 0.14964816 0.016095687 -0.33645964 0.021659696 -0.35094064 -0.3123632 0.015707836 0.18732606 0.030302359 0.2819104 -0.2575965 0.117472775 -0.2625896 -0.20991425 -0.032273915 -0.05169687 -0.459736 0.29750592 -0.43286562 -0.007054555 0.35368428 -0.27889663 0.17702049 -0.3342164 -0.18288738 0.29616007 0.050060783 0.008875373 -0.22002403 0.10772067 0.08982882 0.4833485 0.09050342 -0.23501611 -0.19249232 0.2982796 -0.04042206 -0.21639338 0.072133854 -0.3570533 -0.08480706 0.036597475 -0.061442472 -0.21540698 -0.017376682 -0.21835645 -0.038671315 0.1417613 0.17754117 -0.18508245 0.3263852
26 -0.08843421 -0.06261365 -0.19420336 -0.1722032 -0.13070679 -0.08437483 0.003964226 0.0139595885 -0.2749714 0.1236558 -0.4057109 -0.17934296 0.43598324 -0.21076022 0.29505357 -0.21309336 0.13877024 -0.25067908 -0.30777943 0.30873677 0.14143609 0.2695199 0.20769878 -0.16355553 0.01967628 -0.45139298 -0.11923893 -0.11157181 -0.10972732 -0.7357339 0.18884209 -0.28398713 0.22905467 0.20681006 -0.17614576 0.41610184 -0.32014 0.005441697 0.6710562 0.028935982 0.16253336 -0.4084902 0.038832128 0.0053178035 0.58662164 0.26002514 -0.22483008 -0.09325739 0.15953368 -0.13464117 -0.22509694 0.053951517 0.1267191 -0.32390404 0.22242543 -0.07044473 -0.23795603 -0.08316669 -0.33566228 0.031117363 0.27694628 0.35799158 -0.086730875 0.29739827
11 -0.064609095 0.08020447 -0.06443872 -0.021015465 -0.09417405 0.065818526 0.075450584 -0.30349118 0.34109235 0.13284671 -0.13675696 0.07134545 0.30544636 -0.37345052 0.51064247 0.2418553 0.1563371 -0.07714135 -0.09044767 0.11795002 -0.04023533 0.42599767 0.023890287 0.22686876 -0.09559984 -0.35952818 0.27260318 0.17445488 0.146282 -0.3966724 0.07031094 0.013927284 -0.2126514 0.06479719 0.57578033 0.08537185 0.26580375 0.218066 -0.064511955 0.0014440354 -0.10677372 0.12793608 -0.39105487 -0.18673535 0.4682875 0.23745471 -0.2570229 0.07286963 -0.021884374 -0.33395493 0.28709772 0.3732412 0.59807837 -0.28486234 -0.18890442 -0.19354281 0.4291191 0.010685152 -0.18932664 0.49069908 -0.14617111 0.44018394 -0.39768726 -0.09444464
