34 64
0 0.32479084 -0.21503837 0.123391554 0.13742225 -0.30348545 0.09684658 -0.04897544 0.19714378 -0.054437708 -0.08680418 -0.12287379 -0.015931658 -0.0054395217 -0.05260769 0.21457697 0.047922827 0.13720301 -0.10974652 0.2327594 0.10673466 0.117020994 0.18282063 0.14161538 0.060407702 0.24044384 -0.031038646 0.06758765 -0.15823776 -0.06474923 -0.08798651 -0.32484847 -0.21520926 0.09459346 0.07396667 0.21310721 0.31031364 -0.27087232 0.14756264 -0.116566956 0.027709255 -0.09416092 0.21651568 0.25250155 0.011577676 -0.119967036 0.054518785 0.041082595 -0.11139959 0.03442571 0.2434701 -0.19904864 -0.06891719 -0.19387656 0.1717141 0.028346352 0.14889365 -0.018062644 0.14084433 0.40778762 0.14322966 -0.06958455 0.16240023 0.062920496 0.32507065
33 0.40038753 -0.17395642 0.06194775 -0.13306586 -0.22484091 -0.03996416 -0.42874625 0.106067404 0.3895095 0.13973312 -0.0041999505 -0.052223403 0.06186739 0.005485938 -0.01711714 -0.070452556 0.09484962 -0.23910336 0.07369279 -0.29958445 0.095464066 0.27669224 0.14866532 0.060340382 0.0040761568 0.5215083 0.22506538 0.04266623 -0.14859092 -0.09035532 -0.1143142 -0.39183933 0.2943787 -0.1826505 -0.039269112 -0.1323219 0.09469104 0.11333805 -0.41422573 0.077573 -0.030490043 0.25685307 0.20171677 -0.23182121 -0.041928615 -0.13460688 0.03196158 -0.30147192 0.018190585 -0.13537063 -0.51449466 0.2520091 -0.29448858 0.19438142 -0.059050754 0.15003295 0.27630836 -0.0026297416 0.21128266 -0.1473655 0.34946525 0.0852487 0.120111786 -0.12923786
32 0.3651005 -0.17204471 0.16265042 0.019246755 -0.23040703 -0.08243867 -0.42932314 0.14628617 0.24806444 0.22964983 -0.020007271 -0.08455321 0.0035825688 -0.05735237 -0.12698881 -0.097852565 -0.06435704 -0.110409655 0.043363564 -0.3021606 -0.013176605 0.33476663 0.10199666 0.08151905 -0.043847412 0.5304087 0.2182025 -0.061767552 -0.053395264 0.037773315 -0.0622208 -0.36874476 0.30944222 -0.19285944 -0.01841616 -0.13326702 0.20761973 0.14962144 -0.4320911 0.1351145 -0.067979485 0.2153703 0.23147812 -0.10582125 -0.019069493 -0.13372634 0.10913705 -0.29345655 -0.079236284 -0.08466154 -0.38722354 0.2506675 -0.18359718 0.14183237 -0.1384287 0.04276643 0.184176 0.048547532 0.10481182 -0.054693364 0.3607246 0.042120285 0.069003776 -0.1640299
2 0.24660781 -0.17788488 0.108045906 0.16609679 -0.21311831 0.005857379 -0.121846825 0.1455043 -0.05681887 0.11055819 -0.06739628 -0.059985075 -0.05033124 -0.18708387 0.014041027 -0.037888933 -0.015322298 0.03523379 0.1337621 0.026494563 -0.025254248 0.17087029 -0.01464688 0.14256011 0.12817894 0.13260081 -0.00747582 -0.24001536 -0.0047875075 -0.039103046 -0.09942326 -0.12003183 0.12243838 -0.019426232 0.17560354 0.14563116 -0.13921417 0.19938837 -0.12489729 0.117124125 -0.017570907 0.16635555 0.30702862 0.14030871 -0.1418559 0.05541876 0.13982588 -0.1910539 -0.08492888 0.27951166 -0.25315037 -0.005820505 -0.1719975 0.15330964 -0.03756344 0.03732517 -0.008011974 0.20932257 0.33807254 0.2404731 0.013988944 0.11137298 0.029019853 0.15816897
1 0.26444417 -0.3294597 0.08136169 0.27968287 -0.2836396 0.112206444 0.0644778 0.20358999 -0.16074511 -0.05699054 -0.13572411 -0.06037425 -0.14947242 -0.10799096 0.07992076 -0.04381662 0.17692734 -0.09938761 0.25729403 0.15633899 -0.0072915037 0.28508484 0.16408396 -0.00728203 0.22375801 -0.07587746 0.10425948 -0.2710713 0.027262636 -0.0423131 -0.25293928 -0.074952364 0.028584959 0.07713792 0.2247631 0.36370695 -0.17543678 0.1739578 -0.10147128 -0.054413665 -0.11717127 0.2115517 0.20199062 -0.03703943 -0.13460313 0.12008927 0.06420907 -0.20525825 -0.047415428 0.29698515 -0.22267823 -0.051353667 -0.13641612 0.20698065 -0.11176204 0.07206407 -0.016617585 0.121387124 0.2891803 0.24345563 0.02015363 0.11786852 -0.06976203 0.30183178
3 0.14392121 -0.45986393 0.005691441 0.08832828 -0.35348994 -0.16581379 -0.015683953 0.28345335 -0.019686306 0.022315321 -0.1996857 -0.121946685 -0.20386764 -0.40894637 -0.07715331 -0.3094448 0.20811355 -0.17513718 0.07379249 0.18532336 -0.21383184 0.27004448 -0.15067628 0.020710768 0.067927316 -0.04436148 0.037575644 -0.37789574 0.073569275 0.033761363 -0.01260511 0.063064866 0.3441801 -0.011266683 0.0041035702 0.0741562 -0.0018006496 0.28471646 -0.19259268 -0.03621359 -0.04166128 0.18997966 0.28485188 0.0032644991 -0.19341278 -0.022590233 0.10276592 -0.31622937 -0.2367977 0.47575694 -0.43447143 0.09417665 -0.25250646 0.44113737 -0.10956296 0.24896328 0.017718863 0.19308564 0.24292786 0.3884659 0.013716048 0.053178273 -0.14258608 0.14948815
31 0.34102404 -0.03522394 0.2387243 -0.08434881 -0.23152292 -0.11610584 -0.49385223 0.15088128 0.23007551 0.23775262 -0.028840974 -0.11745245 0.08004109 -0.13332723 -0.05027082 0.016259633 -0.24549173 -0.051954124 -0.046636034 -0.28973824 -0.03965444 0.15941289 -0.054834932 0.18199174 -0.14594452 0.55053777 0.11086379 -0.027330946 -0.08221609 0.050433785 -0.027156305 -0.45230764 0.3957036 -0.19946536 -0.003157474 -0.20721635 0.064154826 0.2145387 -0.43204954 0.25085106 -0.022910986 0.13130867 0.30679706 0.0308573 -0.028717225 -0.25919777 0.101563275 -0.09652076 -0.05200909 -0.054810915 -0.23206426 0.19017991 -0.20356591 0.06859156 0.048559923 0.061129197 0.16383141 0.15306625 0.17889582 -0.09563163 0.15785259 0.038964264 0.21448623 -0.14326328
13 0.23631467 -0.18551144 0.08514227 0.085399695 -0.21273845 -0.041515857 -0.10827206 0.17419636 -0.005953451 0.0014194744 -0.11849908 -0.041652925 -0.0019367541 -0.1355683 0.092990674 0.004055316 0.05393925 -0.05207737 0.12666194 0.06881077 0.024985157 0.12774214 0.015552722 0.097941875 0.13879132 0.049824096 0.041720744 -0.14337736 -0.015604518 -0.02503748 -0.16747302 -0.1881864 0.184076 0.014476909 0.093403205 0.14504574 -0.16475973 0.15730433 -0.14848869 0.061723344 -0.04662438 0.14323598 0.25382888 0.04454654 -0.14522748 0.015629126 0.08981748 -0.13064732 -0.012391256 0.21370326 -0.24409206 0.00040638127 -0.17038026 0.14920412 0.019931778 0.13203464 0.0066022705 0.15163618 0.35998216 0.1663402 -0.024146283 0.107779354 0.048440065 0.20177242
23 0.3418283 0.045889862 0.18526298 -0.06324825 -0.1372007 -0.14300308 -0.43486172 0.09012069 0.19440904 0.24026857 -0.06915124 -0.05843174 0.18968798 -0.060660508 -0.056700677 0.047011707 -0.22556703 0.0050191064 -0.059682287 -0.24639286 0.044210136 0.113459945 0.033441756 0.20172256 -0.0687091 0.4662515 0.08657589 0.0181345 -0.044502098 -0.008917876 -0.067811474 -0.5038088 0.38508758 -0.18084545 0.0034337877 -0.15683143 0.025913205 0.1455433 -0.38507482 0.24135992 -0.02487231 0.10024441 0.29306385 0.03734879 -0.043444566 -0.19490543 0.13087632 -0.098483354 -0.03520693 -0.12584612 -0.25006726 0.14620136 -0.21094242 0.10791955 0.09424978 0.11296923 0.12369762 0.20668027 0.28912157 -0.046717867 0.11194868 0.067395926 0.2176445 -0.09852052
6 0.38647074 -0.045919403 0.29676303 0.39201936 -0.328493 0.21952239 -0.057478473 0.123379864 -0.15636167 -0.09423101 -0.15838519 0.07162108 0.14422506 0.1057331 0.49257275 0.27720314 -0.06690907 -0.115436345 0.2543314 0.227266 0.17995846 0.046085257 0.22417319 0.13636416 0.33819297 -0.13925362 0.09251663 -0.039216053 -0.052126687 -0.06776278 -0.57775444 -0.44251597 -0.0036482168 0.36111474 0.42821556 0.5505082 -0.49443385 0.08992959 0.03166792 0.11918126 -0.30586508 0.26471886 0.28529626 0.15113936 -0.0919863 0.13034247 0.17424132 0.026718175 0.015458323 0.32607797 -0.024923109 -0.2554822 -0.18969218 0.09806682 0.17530131 0.15415168 -0.07100933 0.3008953 0.7893537 0.29536593 -0.28427276 0.13391884 0.20714192 0.71156424
5 0.3761946 -0.055707358 0.29252598 0.32598877 -0.31813714 0.1680419 -0.0652966 0.17737795 -0.20274708 -0.079186894 -0.14819266 0.01367262 0.14213727 -6.607699e-05 0.442832 0.30414265 -0.11233712 -0.014893941 0.24020614 0.21376824 0.15759374 0.0015029495 0.14616492 0.16007476 0.2942631 -0.099760026 0.011600564 -0.11453261 -0.04160408 -0.053329375 -0.514503 -0.41738126 0.052233715 0.28415924 0.39208505 0.46663946 -0.5262061 0.15742514 -0.0055545107 0.13239966 -0.20133042 0.19103985 0.32242796 0.22288081 -0.16305304 0.10678233 0.14725621 0.06226858 0.07177611 0.32994962 0.0050018923 -0.26280323 -0.17256272 0.040985983 0.21936782 0.13460338 -0.10173373 0.2839796 0.7599275 0.25112796 -0.33879045 0.15179884 0.20736444 0.64526856
8 0.33036974 -0.18045856 0.0919969 0.06090555 -0.16384357 -0.002540898 -0.25553513 0.10487811 0.10814143 0.13456373 -0.04721149 -0.06968706 -0.018409617 -0.034065742 -0.03562998 -0.044153236 0.008714578 -0.052141618 0.11429385 -0.16281915 0.043355897 0.25612602 0.10449698 0.078173764 0.04728692 0.30067757 0.15793908 -0.068262115 -0.0857465 0.002351228 -0.12216519 -0.28059816 0.14108312 -0.10189909 0.091705754 0.022491202 0.03996685 0.114266 -0.25751692 0.07185321 -0.05210067 0.17853777 0.1964148 -0.061334375 -0.06630438 -0.026335936 0.08600631 -0.22593328 -0.023077592 -0.019026358 -0.29047567 0.13289872 -0.15357871 0.07715016 -0.085908905 0.027708778 0.113342255 0.059434645 0.17138025 0.019455165 0.23082812 0.066906914 0.038734425 -0.024533123
27 0.33339667 -0.051887102 0.055840347 -0.20943509 -0.07763395 -0.28214428 -0.4237847 0.11835708 0.21224251 0.2103382 -0.12944667 -0.09693452 0.17577174 -0.11461308 -0.08798934 0.0025912428 -0.13181454 0.03473088 -0.029700134 -0.27509186 0.07218259 0.10649513 -0.008894615 0.20477246 -0.040525787 0.43255353 0.024535969 -0.0009588218 -0.05861322 -0.03990546 -0.014502325 -0.4504921 0.45850837 -0.27839652 -0.087089136 -0.2076289 0.006386793 0.17420764 -0.44881967 0.19911359 0.045410343 0.06888496 0.31305316 -0.009439181 -0.13377813 -0.22882566 0.12805638 -0.13421088 -0.007700611 -0.13259633 -0.355704 0.19994727 -0.23315638 0.1381917 0.11265531 0.16896759 0.13368863 0.17445375 0.2870859 -0.089428045 0.09826251 0.12565537 0.20133615 -0.16852628
7 0.1906761 -0.40746862 0.010568064 -0.0042551607 -0.35352403 -0.06992021 -0.058706667 0.28192544 0.005249725 -0.06957679 -0.16754968 -0.09222245 -0.15401353 -0.2933063 0.02786426 -0.1754213 0.217026 -0.23263174 0.10347052 0.1549694 -0.12016933 0.23904492 -0.051535256 -0.01230494 0.08498965 -0.0064428356 0.06554514 -0.2583325 0.0045057056 -0.014817328 -0.10868639 -0.025504293 0.29620138 -0.027968125 0.017825883 0.0750587 -0.091958955 0.2564344 -0.21897879 -0.03544472 -0.022783663 0.20794451 0.22920986 -0.0753007 -0.16424209 -0.043293152 0.011952284 -0.21938811 -0.08111435 0.33120888 -0.3726242 0.06083008 -0.25821927 0.35076547 -0.03534656 0.23796521 0.052596055 0.11158436 0.2551187 0.19355068 0.0070271688 0.07353067 -0.03728121 0.13883755
30 0.30331913 -0.18481262 -0.007652367 -0.027505519 -0.116814554 -0.064616024 -0.2010073 0.121456504 0.13611858 0.070233084 -0.109717965 -0.022718007 0.045293257 -0.028439153 -0.033038944 -0.0645617 0.111128844 -0.09097925 0.08203103 -0.10384406 0.08236864 0.22601657 0.13241865 0.04227889 0.08573168 0.21367766 0.13359001 -0.028555784 -0.04101451 -0.059327707 -0.12392413 -0.29490593 0.21835303 -0.121490374 0.01967469 0.0063676643 0.011379795 0.09126598 -0.27941126 0.025621796 -0.02937816 0.1742627 0.17038858 -0.15084785 -0.09144999 -0.03942779 0.081894174 -0.20356995 0.010455649 -0.06828487 -0.35262418 0.13537708 -0.19376633 0.18730697 -0.041233063 0.16641535 0.11374248 0.064719915 0.24324633 0.0031531816 0.186304 0.07505514 0.030412616 -0.0028238278
28 0.32780975 -0.12855454 0.16212909 -0.03292198 -0.17941348 -0.052676015 -0.30119008 0.10972869 0.17352669 0.14949936 -0.0650463 -0.07909831 0.012249666 -0.073856406 0.041426197 -0.0075106486 -0.057059277 -0.10281686 0.057758044 -0.14529374 -0.009129679 0.16728984 -0.009157212 0.1351241 -0.017076544 0.32140887 0.13930827 -0.028821569 -0.11579471 0.021590907 -0.11387204 -0.3753003 0.2414009 -0.07041911 0.06083677 -0.014587821 -0.031833388 0.13995712 -0.28686783 0.12812017 -0.05738366 0.13293736 0.25153005 -0.028005516 -0.060811367 -0.1384475 0.10816984 -0.12986505 -0.02512732 0.011549894 -0.2424286 0.14687699 -0.21337798 0.078873314 0.031585246 0.08542307 0.14932194 0.13046545 0.24882673 0.014450848 0.12320357 0.059236415 0.12844807 -0.00043536187
19 0.29141748 -0.30353397 -0.060877483 0.025433335 -0.11964253 -0.036203645 -0.057071913 0.14979649 -0.0054154503 -0.027578276 -0.15548743 -0.044692077 -0.065369934 -0.077549055 0.0840866 -0.016367923 0.18124723 -0.10854993 0.18562187 0.046105266 0.03582218 0.18872058 0.10348898 0.007079617 0.14473188 0.020173252 0.064608924 -0.12118027 -0.05971881 -0.057286873 -0.18743771 -0.26126197 0.14207773 -0.03580715 0.09572456 0.17575064 -0.17844275 0.1232516 -0.19900784 -0.057675198 -0.032790065 0.15031996 0.12792931 -0.14101404 -0.18311712 -0.014200092 0.075784355 -0.1768977 0.054227065 0.07605573 -0.26656386 0.058809146 -0.21917473 0.1685812 0.009282168 0.20587875 0.09857648 0.07421593 0.3285355 0.05764694 0.036382552 0.11357796 0.006064972 0.16034943
29 0.3212384 -0.14717744 -0.05070687 -0.2822911 -0.15154703 -0.16590422 -0.31933466 0.12923561 0.3656327 0.05199606 -0.10150348 -0.055876683 0.1116252 -0.048794 -0.005004938 -0.062926896 0.17786384 -0.24098168 0.031826116 -0.20631653 0.089350104 0.17705445 0.108183056 0.028571343 -0.0136602465 0.36026382 0.1479713 0.062464144 -0.09282111 -0.14533974 -0.0687037 -0.35664472 0.40280285 -0.21932131 -0.16150136 -0.17235768 0.018632103 0.12632528 -0.43829274 0.024698239 0.015063608 0.15975721 0.16987965 -0.29603752 -0.07961288 -0.19782244 -0.014311 -0.20648551 0.06958927 -0.17418763 -0.5207814 0.25263178 -0.32423443 0.26923758 0.06765901 0.2883087 0.27393514 0.01870326 0.25994405 -0.18950282 0.20555803 0.119826466 0.13394809 -0.14154978
4 0.4411668 -0.07766072 0.34542894 0.34521055 -0.2852675 0.06853126 -0.048153706 0.23394905 -0.33781794 -0.006057392 -0.21037047 -0.05509262 0.113222525 -0.07370808 0.3553467 0.31136397 -0.2106285 0.18758841 0.28162542 0.18676804 0.12795141 0.0166659 0.09271788 0.23763318 0.26996547 -0.081497334 -0.06478893 -0.24898435 -0.009885781 -0.00587837 -0.47020572 -0.43892294 0.09981169 0.18430002 0.4059233 0.47757545 -0.5457898 0.24852355 -0.07491567 0.1776738 -0.14498393 0.07289096 0.43275648 0.3436371 -0.2374463 0.06741645 0.21444371 0.06858305 0.06451181 0.33748582 0.06257559 -0.23144905 -0.113707535 -0.024219178 0.22412618 0.08212719 -0.17573626 0.33925787 0.73370916 0.26281872 -0.37110767 0.21464193 0.20606245 0.59735626
24 0.39211524 0.13400993 0.28238273 -0.12893735 -0.1157077 -0.34977642 -0.66295767 0.16918139 0.1035325 0.4132092 -0.10060672 -0.16977854 0.27349395 -0.2388086 -0.09321862 0.1930191 -0.5810659 0.2632502 -0.13845946 -0.3781874 -0.030712524 -0.01815014 -0.17947976 0.40018642 -0.20615482 0.69624335 -0.105981804 -0.08100809 -0.022862634 0.07423964 0.034027822 -0.69161797 0.58830166 -0.32857737 0.018354462 -0.34333685 -0.08108733 0.30374804 -0.5552064 0.46316314 0.086325474 -0.013200011 0.49788046 0.30859306 -0.18101652 -0.36591923 0.23023738 0.006354413 -0.042119637 -0.08496817 -0.14645307 0.14781044 -0.22210304 -0.021199752 0.25923112 0.07211852 0.069248475 0.37425685 0.43841305 -0.096913315 -0.06922478 0.10747326 0.40165305 -0.16313471
10 0.42501938 -0.04720189 0.33824563 0.28911418 -0.22030044 -0.012887216 -0.10529415 0.19218491 -0.2623738 0.05047184 -0.19197245 -0.057147495 0.12204356 -0.06346782 0.31635618 0.2709541 -0.24900648 0.2213582 0.24569082 0.096861936 0.123809725 0.0040363856 0.018010842 0.28677067 0.22177717 -0.02434305 -0.07020504 -0.19956514 -0.049181875 0.03333249 -0.39586776 -0.4926454 0.12543435 0.13404655 0.3526737 0.41005227 -0.4765564 0.20333049 -0.09815309 0.20494391 -0.12951785 0.041229833 0.4493563 0.3538009 -0.22474237 0.018771393 0.2582504 0.047903188 0.025539381 0.30536902 0.06034088 -0.15733184 -0.10760626 -0.06458365 0.2097376 0.070198506 -0.15931144 0.35906819 0.6793536 0.25848958 -0.31272107 0.2074956 0.20773576 0.5131752
25 0.29727513 0.05012751 0.26649398 -0.08701001 -0.20449288 -0.24105091 -0.5635937 0.19029675 0.09760977 0.32350138 -0.049432386 -0.14674374 0.16276845 -0.26742527 -0.12247552 0.09077348 -0.4481796 0.11859806 -0.14315158 -0.27505654 -0.10820942 0.052361418 -0.16590688 0.2992344 -0.20062077 0.6094233 -0.042149123 -0.1278562 0.0035351827 0.07359759 0.047338832 -0.4909367 0.4996397 -0.27112144 0.037503216 -0.3137159 0.003722758 0.28411528 -0.4708935 0.37419143 0.069617465 0.061486118 0.41325352 0.22915584 -0.111016504 -0.2941378 0.16057786 -0.03767768 -0.09145224 -0.0025597303 -0.15377422 0.1250191 -0.20047861 0.06494336 0.13562189 0.06284587 0.084437154 0.28158373 0.28090766 -0.05075331 -0.012052744 0.04237555 0.2880705 -0.1714432
16 0.32623813 0.15407419 0.3485822 0.32093856 -0.32411128 0.20692568 -0.13984422 0.08753011 -0.103881404 -0.1010101 -0.13620703 0.12802912 0.34114915 0.11714099 0.6558727 0.44366196 -0.19434379 -0.10563204 0.155743 0.26493737 0.24373935 -0.17564788 0.15931727 0.21180992 0.3278282 -0.13026297 0.0059519685 0.08186286 -0.058767192 -0.08923826 -0.63572377 -0.5372893 0.06804277 0.44791114 0.43188092 0.48591772 -0.6386112 0.060889862 0.1102923 0.21689543 -0.27502546 0.24849956 0.3219761 0.2777053 -0.09637393 0.10003274 0.16933754 0.17506152 0.08317368 0.3436109 0.012704046 -0.3659589 -0.25343803 0.07097139 0.3731959 0.22874285 -0.092883326 0.37977925 1.0232539 0.27452657 -0.4781741 0.12996338 0.36036366 0.8201267
12 0.26436904 -0.44235143 0.22316566 0.2122775 -0.45933864 -0.042399723 -0.0074028512 0.34805566 -0.14253639 -0.09000559 -0.25454047 -0.100670144 -0.17207004 -0.26978147 0.07584631 -0.186465 0.074006155 -0.17564455 0.113026515 0.21884066 -0.17709488 0.31160784 -0.051002175 -0.0020354062 0.06668422 -0.122590624 0.15135816 -0.3306858 0.07104019 0.15308344 -0.23075917 -0.112889394 0.3012477 0.08517957 0.10470197 0.24645683 -0.031364582 0.2839495 -0.21557362 -0.027108405 -0.19116962 0.15973137 0.29443738 0.02941615 -0.092913486 -0.042031005 0.12369974 -0.1430331 -0.21038444 0.41742218 -0.13212806 0.015451457 -0.11777093 0.31717947 -0.09924087 0.1935066 -0.06424113 0.16239701 0.1779431 0.31674966 -0.05907384 0.0039065215 -0.100892134 0.29127973
15 0.3585112 -0.15321395 0.06283507 -0.09340752 -0.13167304 -0.08712634 -0.38963634 0.08723882 0.28418022 0.21131065 -0.025412234 -0.071031675 0.026813213 -0.05638974 -0.107560106 -0.08023808 0.012288978 -0.10004276 0.046128444 -0.27084324 0.036499728 0.25554544 0.05619692 0.11980441 -0.03612467 0.48083946 0.17314573 -0.010291366 -0.13259003 -0.027589923 -0.028915443 -0.3671741 0.26475534 -0.21559875 -0.012779275 -0.12711434 0.11298941 0.1120404 -0.37263712 0.12569265 0.0028704489 0.17588945 0.21988323 -0.13376042 -0.05251949 -0.13262543 0.07252231 -0.2652507 -0.020107493 -0.12537614 -0.40992427 0.23743322 -0.23302284 0.11935289 -0.054431025 0.07554864 0.21156715 0.056661256 0.1465139 -0.05971726 0.31773978 0.057788283 0.090466894 -0.18207297
9 0.42110646 -0.1485549 0.14316171 0.01727779 -0.14675798 -0.04039018 -0.31769368 0.0043661287 0.23283769 0.30618292 -0.016938271 -0.12626447 -0.06761441 -0.02392761 -0.08281777 -0.13009495 -0.044579085 -0.025736177 0.12426728 -0.3185442 0.039008733 0.28109998 -0.0042459527 0.21695392 -0.027318917 0.4514161 0.17696013 -0.06361256 -0.18522005 -0.013297272 -0.02485118 -0.37957707 0.16822213 -0.1582249 0.09435533 0.0066544903 0.06088958 0.15660612 -0.2996985 0.150317 -0.04398645 0.13060133 0.31585473 0.010435263 -0.05867219 -0.12623467 0.15808167 -0.29435676 -0.1064733 0.00073394773 -0.34781092 0.25786787 -0.21066307 0.050666902 -0.068298936 -0.030951688 0.1820137 0.15908857 0.11886632 0.061862398 0.2984234 0.10887951 0.06876508 -0.09767838
18 0.43400297 -0.3559676 0.0083397515 -0.10833324 -0.27876717 0.06574048 -0.31385818 0.14994994 0.34114963 0.06699464 -0.011207413 -0.1137642 -0.107819594 0.0022461559 -0.011637516 -0.13308142 0.2767997 -0.3404576 0.19295618 -0.25620365 0.072761916 0.41473752 0.19617417 -0.055253267 0.021731747 0.444244 0.31651044 -0.015129018 -0.20379503 -0.08553539 -0.14080842 -0.31588006 0.19363472 -0.16437742 -0.0031117713 -0.04447314 0.10287819 0.13944098 -0.4082303 -0.042738087 -0.050560303 0.29755437 0.117627375 -0.3655715 -0.06312189 -0.10680978 -0.06287583 -0.36904678 0.072163954 -0.11203473 -0.54010135 0.29240134 -0.29782465 0.19789599 -0.13869686 0.14259085 0.32327348 -0.08895244 0.101283334 -0.17137772 0.43786743 0.100930765 0.033004597 -0.120844215
14 0.50944376 -0.26794073 0.17293839 -0.015335837 -0.2862616 0.040748682 -0.31735834 0.11315572 0.24547446 0.03993049 -0.090580545 -0.08400045 -0.01637496 0.14814433 0.021764552 -0.079593696 0.11218199 -0.25827798 0.17723443 -0.27187937 0.1453409 0.39457548 0.30289748 -0.0015731205 0.047245007 0.3555765 0.3738992 0.02909853 -0.1835449 -0.026424093 -0.26241744 -0.4424089 0.20067547 -0.14907429 0.009823782 0.090447254 0.11475549 0.11397557 -0.43317363 0.01638625 -0.18402278 0.19769631 0.14618412 -0.27647898 0.02265074 -0.15672517 -0.0020090556 -0.22972469 0.018354675 -0.17853093 -0.2839923 0.25371748 -0.1551132 0.08181545 -0.12643278 0.05866977 0.18389 -0.07551219 -0.011656901 -0.18555707 0.36542472 0.092012554 0.06574834 -0.057117604
17 0.27232814 -0.37103242 0.045061108 0.33068272 -0.32771948 0.16777924 0.10553942 0.2659783 -0.23415586 -0.07422519 -0.12166214 -0.06414559 -0.16874948 -0.22754422 0.13879798 -0.0008511846 0.24803802 -0.048572768 0.33887103 0.27119818 0.008000454 0.2641215 0.12984881 0.009166859 0.3336652 -0.11336185 -0.0021007494 -0.40468344 0.029953416 -0.116507396 -0.27539065 0.0059437957 -0.025340747 0.11681838 0.3422122 0.4148455 -0.3352839 0.22207399 -0.0355626 -0.032901894 -0.032720763 0.27820012 0.26129672 0.04810816 -0.2315636 0.24378584 0.059378937 -0.25731727 0.0073529435 0.47699034 -0.3073582 -0.15516423 -0.20428015 0.24507122 -0.083288625 0.10895835 -0.036671717 0.18469936 0.52638656 0.33750874 -0.071986526 0.17794311 -0.07793119 0.42820576
22 0.4692448 -0.30188113 0.13045003 0.013541331 -0.3087955 0.13442415 -0.32590246 0.063718244 0.37588012 0.0672687 -0.025744308 -0.056181237 -0.074804686 0.16355795 0.028362503 -0.16241033 0.20610738 -0.36797357 0.16010985 -0.2850633 0.10436485 0.43901482 0.26787084 -0.056257177 0.00036970025 0.4145798 0.44219738 0.08900547 -0.22946614 -0.011152024 -0.22043766 -0.38228098 0.12436321 -0.07159567 0.013195107 0.053291347 0.20825084 0.057030525 -0.35837892 -0.041551337 -0.20737064 0.30378675 0.1155257 -0.3637179 0.05761976 -0.108375266 -0.012715936 -0.35504928 -0.019565064 -0.1595808 -0.41977414 0.30956322 -0.21487278 0.14139587 -0.19667205 0.06707091 0.29015282 -0.12320863 -0.0139343105 -0.123216726 0.49946702 0.03138378 0.01585644 -0.05400698
21 0.35238543 -0.25282708 0.11307958 0.41980907 -0.33017728 0.30400535 0.047325943 0.20800824 -0.22809659 -0.14000538 -0.07185092 0.0076172207 -0.05780542 -0.0031989515 0.29651454 0.17708038 0.19701923 -0.10815482 0.39365393 0.24084356 0.15631896 0.2372211 0.3368751 -0.016603395 0.43044525 -0.085802995 0.06933415 -0.24839677 -0.020241065 -0.17313917 -0.4744137 -0.14726523 -0.1264092 0.20161852 0.4281151 0.5312925 -0.43508714 0.14146832 -0.0054777167 -0.02065948 -0.15555589 0.3536957 0.21581368 0.0027002608 -0.16986188 0.2863018 0.06376998 -0.18655987 0.112830035 0.34240416 -0.2319053 -0.22671515 -0.16751769 0.14934407 -0.06526113 0.06262604 -0.02655797 0.15162346 0.6463125 0.22844718 -0.054424077 0.18868384 0.021101857 0.56166905
20 0.49288306 -0.10823023 0.23889957 -0.012697923 -0.25456917 0.058105517 -0.45892018 0.07384378 0.2818464 0.15608458 -0.015234681 -0.078950316 0.038902 0.15704188 -0.0060356846 -0.007391904 -0.086422525 -0.19321765 0.08091209 -0.39253864 0.110854 0.34902474 0.26019663 0.04593444 -0.06606439 0.5594789 0.35067979 0.10537414 -0.18185878 0.011129317 -0.20575193 -0.540331 0.22048067 -0.16319613 0.04870058 -0.06265193 0.16652799 0.104983 -0.46102586 0.12335758 -0.15033326 0.20237033 0.16560958 -0.18983737 0.06608665 -0.19973226 0.024470374 -0.19222473 0.008867684 -0.26617134 -0.23121934 0.26069492 -0.15268064 0.010422878 -0.079857886 -0.0115731405 0.21920589 -0.021582562 -0.0016514105 -0.23780714 0.38277194 0.051278893 0.16878006 -0.13618423
26 0.3734955 -0.18678889 -0.11687078 -0.42642105 -0.12482368 -0.19123219 -0.39822447 0.10707453 0.55557775 0.044572115 -0.10016185 -0.072352126 0.12879546 -0.008170777 0.07163988 -0.05804309 0.2692965 -0.36481458 0.049628638 -0.26662275 0.15302728 0.15043585 0.08262122 0.016550237 -0.038744688 0.42869282 0.19484076 0.18888438 -0.2136352 -0.16789128 -0.07795447 -0.4771543 0.4426036 -0.21878771 -0.22758622 -0.23115504 -0.01081392 0.102330364 -0.4650884 -0.00051561976 0.009815952 0.19383173 0.14156738 -0.41594103 -0.10577113 -0.26520333 -0.041239277 -0.23714884 0.14841518 -0.26404583 -0.6401466 0.3411695 -0.43263403 0.25721842 0.14525522 0.38478377 0.40989792 -0.025523715 0.3189562 -0.272053 0.25308728 0.12759615 0.20089757 -0.17000024
11 0.18001361 -0.32468107 -0.10062799 -0.089287445 -0.31436706 0.11084481 0.0077431505 0.25773773 0.043889467 -0.3208332 -0.0990192 0.0009323391 0.035433352 -0.15698805 0.5279854 0.15873824 0.39814553 -0.35967287 0.24633655 0.36080056 0.12223793 -0.070607126 0.01177083 -0.106424846 0.2825362 -0.19431694 -0.04876133 -0.06408617 -0.14782399 -0.16550359 -0.40575454 -0.078069046 0.11389668 0.24654233 0.14570898 0.19834656 -0.5575962 0.12659357 0.049494736 -0.13770138 0.0069138673 0.29202434 0.08743851 -0.12251535 -0.28361747 0.124838345 -0.076764785 -0.067599595 0.26075846 0.36931378 -0.3964683 -0.20037822 -0.37813237 0.24549618 0.26244268 0.4304423 0.10892383 0.017516026 0.82489485 0.08119114 -0.2965921 0.13795064 0.11067251 0.53401977
